<?xml version="1.0"?>
<opencv_storage>
<opencv_ml_ann_mlp>
  <format>3</format>
  <layer_sizes>
    20 150 75 50 10</layer_sizes>
  <activation_function>SIGMOID_SYM</activation_function>
  <f_param1>6.6666666666666663e-01</f_param1>
  <f_param2>1.7159000000000000e+00</f_param2>
  <min_val>-9.4999999999999996e-01</min_val>
  <max_val>9.4999999999999996e-01</max_val>
  <min_val1>-9.7999999999999998e-01</min_val1>
  <max_val1>9.7999999999999998e-01</max_val1>
  <training_params>
    <train_method>BACKPROP</train_method>
    <dw_scale>1.0000000000000000e-03</dw_scale>
    <moment_scale>0.</moment_scale>
    <term_criteria>
      <iterations>1000</iterations></term_criteria></training_params>
  <input_scale>
    1. -2. 4.3941632707297602e+00 -2.8631362100155577e+00
    1.0053265510637980e+01 -2.5632955979477434e+00
    8.7933653330644024e+00 -2.1951238304243819e+00
    9.2866282894005998e+00 -2.1090290072087057e+00
    8.3794460592727926e+00 -1.2387976256691187e+00
    1.7395139430396974e+01 -1.4510679410784875e+00
    3.2850296712357867e+01 -1.9303469700695375e+00
    4.2477332344316089e+01 -1.8338634322006944e+00
    5.1322263990138630e+01 -1.9654062642233718e+00
    6.1407747011259225e+01 -1.8951558855668396e+00
    7.3497000846261884e+01 -2.1088714935136732e+00
    8.2068292227276118e+01 -2.0123438355890233e+00
    8.0449817262201307e+01 -1.8672007207116252e+00
    9.8337992510446853e+01 -2.0872904800075176e+00
    9.6767720832364574e+01 -1.7879507732517286e+00
    1.2304102023775452e+02 -1.9737112003200858e+00
    1.2548145564205896e+02 -1.8224118222333436e+00
    1.5758503905048175e+02 -2.0382816633987142e+00
    1.6821373724478107e+02 -1.9838534664918401e+00</input_scale>
  <output_scale>
    5.2631578947368418e-01 4.9999999999999994e-01 5.2631578947368418e-01
    4.9999999999999994e-01 5.2631578947368418e-01 4.9999999999999994e-01
    5.2631578947368418e-01 4.9999999999999994e-01 5.2631578947368418e-01
    4.9999999999999994e-01 5.2631578947368418e-01 4.9999999999999994e-01
    5.2631578947368418e-01 4.9999999999999994e-01 5.2631578947368418e-01
    4.9999999999999994e-01 5.2631578947368418e-01 4.9999999999999994e-01
    5.2631578947368418e-01 4.9999999999999994e-01</output_scale>
  <inv_output_scale>
    1.8999999999999999e+00 -9.4999999999999996e-01
    1.8999999999999999e+00 -9.4999999999999996e-01
    1.8999999999999999e+00 -9.4999999999999996e-01
    1.8999999999999999e+00 -9.4999999999999996e-01
    1.8999999999999999e+00 -9.4999999999999996e-01
    1.8999999999999999e+00 -9.4999999999999996e-01
    1.8999999999999999e+00 -9.4999999999999996e-01
    1.8999999999999999e+00 -9.4999999999999996e-01
    1.8999999999999999e+00 -9.4999999999999996e-01
    1.8999999999999999e+00 -9.4999999999999996e-01</inv_output_scale>
  <weights>
    <_>
      -8.2757375802817140e-02 -4.7866296170495669e-02
      3.4799286754172418e-02 1.0465182886868873e-02
      -6.3697334291805213e-02 -8.6234548285038196e-02
      -1.1445358691538033e-02 7.3685600362118353e-02
      -5.0660506134697090e-03 9.5160058597561353e-02
      -6.0278613996802184e-02 6.6914096614628729e-02
      -3.9220677919977506e-02 -1.0159472843014404e-01
      -3.3911932085716502e-02 1.0202277929104334e-01
      6.4828097844873644e-02 -7.1049133855389135e-02
      -5.5272994134809489e-02 6.2658411754898127e-02
      -6.8442624477581829e-02 -8.9596732792398173e-02
      -7.3253678237775371e-02 -5.6049129640898795e-02
      -7.9909447943857528e-02 -5.8272751711757644e-02
      -2.9950947491489289e-02 -3.3675491912360564e-02
      1.0887421210055713e-01 8.5374271519676123e-02
      7.0016702585746340e-02 4.5126919606790800e-02
      -1.0100103065925332e-02 5.3427916649144196e-02
      -7.5552662125942138e-02 6.6526966510134587e-04
      -6.7249086113210871e-02 2.4296619566502365e-03
      3.0655761775786757e-03 -9.1507509860408981e-02
      -8.9056608041319568e-02 5.6056992877279270e-02
      6.7124470396462188e-02 7.8598302745719967e-02
      1.3938701970644727e-02 7.2431789689251916e-02
      6.1816637407110422e-02 3.1664321133639456e-02
      9.7763002104283014e-02 -4.4481179692044952e-02
      -5.4052380791466181e-02 -5.5850069460793600e-02
      6.2372877279350383e-02 6.3326562000703357e-02
      1.0205876429416644e-02 6.1437060989052904e-02
      6.8206116280277562e-02 -2.6613779930036090e-02
      -2.3448076400568792e-02 4.9585623466151356e-02
      6.2498095962956926e-02 -6.2708570091951202e-02
      -7.5467050934548016e-02 -3.8461689483549021e-02
      1.3020271764691569e-02 -9.4682399034611134e-02
      1.7864727881777714e-02 7.2749492295820617e-02
      -1.5113250366278511e-02 5.8647277485417482e-02
      3.3401100608284336e-02 3.1366347199643728e-02
      -9.0472826003230977e-02 -6.1448262690085451e-02
      -7.1164789169903764e-02 -7.0128621745942393e-02
      6.2906435050404774e-02 8.4355510966750924e-02
      -7.4733845812730584e-02 3.3859509763797944e-02
      1.3944880984445877e-02 2.5249217714254885e-02
      -5.6725802575965038e-02 5.9850526265402347e-02
      -5.3672059118593199e-02 1.0204902259356154e-01
      7.5301307423334934e-02 -1.6520246176746117e-02
      1.1454623103881495e-01 -5.1653918528428711e-02
      -3.2664785367743539e-02 9.4897745073424397e-02
      -8.0219918969561890e-02 5.6575004805554342e-03
      -5.0333075499891397e-02 -1.5829465407415068e-02
      3.2276721262366982e-03 2.9492813982649524e-02
      1.9846910632380324e-02 5.3840697788637572e-02
      3.0313307427828552e-02 -9.9891625353483629e-02
      -1.0128788446167054e-01 -6.1470919735065660e-02
      -7.7054311500282413e-02 3.4696434536941545e-02
      7.0279137598297403e-02 -6.4270428978822200e-03
      1.6546339311263102e-02 -7.0066871165309588e-02
      -7.2053095787515380e-03 -3.0896115308018106e-02
      8.3379036298779602e-02 1.1209142682846866e-01
      9.1227956600965193e-02 3.6042950585123581e-03
      9.8548521010677265e-02 -1.2613008838219039e-01
      5.3970248708922468e-02 1.0403318002772442e-01
      -1.7993518290413037e-02 -1.2160112267802956e-02
      -6.3858379999247192e-02 -1.0783944836298635e-01
      3.5214844382696953e-02 5.5602895641203222e-02
      -4.6936284040866381e-02 5.1714982975788325e-02
      -9.8009407471432525e-02 -9.9590137711414459e-04
      -9.1613082391947959e-03 -6.8631104366866341e-02
      9.6575256071779664e-02 1.8332398989064327e-02
      -3.5081110027464078e-02 7.6850157259141669e-02
      5.4500452259603802e-02 -8.1526932949650119e-02
      -6.0981394116285642e-02 4.3707272672932146e-02
      -6.2903182190385154e-02 -9.6800793899943824e-02
      8.2641734214841139e-02 1.9229039897499686e-02
      7.2723374234071311e-02 -6.8400410768063302e-02
      -3.2760741718212754e-03 -7.0216543568398793e-02
      -4.4331891099119010e-02 -5.0412983348782574e-02
      -3.6441341726859994e-01 -2.7092536698862851e-01
      1.5491429473279647e-01 -9.5161665826455813e-02
      -1.1593179178943747e-01 8.2463781922941737e-02
      2.9091955391278090e-01 7.9149603964546164e-02
      -1.4590879250132882e-02 1.6834876905156324e-01
      -1.6741677567901271e-02 -8.1555773806972154e-02
      2.0027899479950190e-01 2.9105636336768326e-01
      1.4027571875002395e-01 1.7027130859602621e-01
      -4.4832572723404934e-02 1.4445359165608440e-01
      -5.2829039888616161e-02 -3.9408881198941148e-02
      -1.5071965408440305e-01 2.8800395501702408e-01
      7.0858674802579388e-02 -1.3846062718156132e-01
      2.0975518427152651e-01 -4.6584489571919646e-01
      1.0212950104443318e-01 -1.9778753572354657e-01
      -3.2409346675503242e-01 -1.7106193347944149e-01
      1.8936802885822507e-01 4.7801278558663292e-02
      2.2007517068311347e-01 -1.2967816521802769e-01
      -5.3166666938807638e-01 9.4985457843633422e-02
      4.5519198879360331e-02 1.0110573167509833e-01
      2.1760357083335499e-01 -3.1220543308262394e-01
      -1.8767486832244160e-01 3.4586920857119902e-01
      -1.1068130480936139e-01 2.8347591664057936e-01
      3.6019972018573060e-01 9.6178028786622669e-02
      2.4903253399751346e-01 5.9915874947039545e-02
      -3.2133458543812787e-01 -2.4371042591229530e-01
      -7.6065522731895055e-02 2.1665221360862533e-01
      2.8828493242942156e-02 -8.4650025730282685e-02
      -3.5029751600730369e-01 5.9153383208617585e-02
      -2.5898913767699067e-01 2.5823290086841262e-02
      1.2294630262928384e-03 1.7370399239005557e-01
      4.6030350960283219e-02 -2.9863371931804911e-01
      3.3417958890103788e-01 -3.0862309163590179e-01
      -1.6144248878964129e-01 9.8645995868691140e-03
      -1.5268540812664053e-01 2.8200348733008418e-01
      -2.5722056452675096e-01 -6.0464502588207965e-02
      1.3484369830758514e-01 -1.9895044640688189e-01
      2.8636393999082921e-01 -2.1179124588638498e-01
      2.0339367044586013e-02 -2.0223741527823674e-01
      2.7842677622619044e-01 -4.0709775737661485e-01
      3.9385421227422124e-01 -3.5332208118098718e-01
      3.8116701434557770e-01 5.1424221372028700e-01
      3.0207618816342180e-01 1.5922969468181100e-01
      2.2970589232604774e-01 2.6879455976057243e-01
      -2.9505920748475889e-01 3.3758351349307764e-01
      -1.5885605829058810e-01 2.3118966532054333e-01
      -1.1109254335520537e-03 -7.1408099224659280e-02
      2.3044720461504500e-01 -1.6586237121529618e-01
      2.2376970566342580e-01 -2.5805685797665295e-01
      -1.5772873472915563e-01 -4.4880446827310039e-01
      -2.5083507396089361e-01 -8.5442070299656259e-01
      -2.4562702683555385e-01 -4.3853487159645620e-02
      -1.3603681691475630e-01 3.8705806173204994e-02
      1.0177468680746871e-02 3.7732311485098979e-01
      -2.6575595588837808e-01 -3.4046705835566576e-01
      -2.4292955504342040e-01 5.3059405149537595e-02
      2.2578735650497178e-01 9.6050869674284597e-02
      -2.3681969144267293e-02 -1.7388566627536525e-01
      7.2566266809833177e-02 -1.0140131152059502e-01
      -1.1288282874118127e-01 -1.0053929136982380e-01
      -2.0502848029450235e-01 3.0784502264859626e-01
      -1.6543129422586278e-01 -1.6790672390105510e-01
      4.8287096746903452e-01 9.1499186001693766e-02
      2.3114419220038197e-02 -1.8932285878770991e-01
      1.5893041179719383e-01 9.0294983100708843e-03
      -7.4058372460232474e-02 3.2395515680509285e-01
      2.7634012705128069e-01 -3.0989550659844539e-01
      4.4232406843865102e-01 2.1340989672756791e-01
      -5.6673268673585631e-01 -1.5049800850295222e-01
      -4.3287534007088985e-02 -1.7569135406043737e-01
      -6.1800517520155980e-02 1.3268754119863185e-01
      2.1292038844352099e-01 -2.7236907006347177e-01
      -2.2976189308586012e-01 -3.2535989997798720e-01
      -5.1898160396124504e-01 1.6339874174505173e-01
      -8.9150748656009443e-02 -4.2079970255239385e-01
      -1.7993185424797264e-01 -1.9287957839651187e-01
      -1.1928211650627084e-01 -5.8215609349192336e-02
      -1.3098964201918503e-01 -1.6213129813707958e-01
      1.1220682796124877e-01 1.4327796847602142e-01
      5.0664760498388206e-01 1.3152424430099521e-01
      6.7758075637239845e-02 7.6039445212791157e-02
      1.8464247039762269e-01 -6.5680005176831063e-02
      -2.6913583590747758e-01 -1.5472547286825611e-01
      -1.6721986812326881e-01 -1.6500627173154384e-01
      1.3464377609776404e-01 -1.5011386552565179e-01
      1.9106699135604994e-02 2.1048957085632364e-01
      3.2480385497735703e-01 -1.8520570310224072e-01
      -3.1210057149269288e-01 1.8992067048926667e-01
      2.8835107108180746e-01 -1.2853814560955282e-01
      -9.6266118480996921e-02 6.6301937552170592e-02
      3.2275070519319177e-01 -2.1928441546064992e-01
      -3.5202130204188930e-03 -9.7212815323661494e-02
      -1.0182074316584622e-01 5.0561568500136983e-03
      2.0214672944211518e-01 4.9932801668830282e-02
      -2.1201521776622362e-01 4.4249494000894979e-01
      1.5389911213350260e-02 1.3076813044605709e-01
      -3.0433233986835104e-02 1.5191472745885296e-01
      1.9022791405179013e-01 7.7346075386869106e-02
      1.5462586615179092e-02 -2.0278905089638391e-01
      -7.3447780074392705e-02 -1.7943023920823012e-01
      2.3395946862936870e-01 6.5091830817237836e-02
      2.1863618415418715e-01 9.0298862687097636e-03
      6.2607201112622524e-02 5.2365912584017300e-02
      -5.6108895991368958e-02 9.5638521901091234e-02
      -5.0041412916069894e-02 -6.8091409887598101e-03
      -1.8952003111041710e-01 1.7359669442747758e-01
      -2.2940929621545669e-01 1.2867881618280536e-01
      -2.1152718506284807e-01 -1.8292127444418538e-02
      -9.7213198149370364e-02 2.6570687741793782e-02
      -1.2846165072205890e-01 -1.7356503746986190e-01
      4.5476920476621066e-02 -7.4219563579507658e-03
      -3.6268506498815373e-01 1.2910973201149090e-01
      -2.2305090054502058e-01 -1.5023029125176915e-01
      5.5868474647386694e-02 -1.5444303615640623e-01
      -9.7386463205682658e-02 -8.9747380298239587e-02
      -2.0224375262867977e-01 -1.4691146256106324e-03
      -2.0043174234648706e-01 -2.3651307424653184e-01
      -1.4941156375527104e-01 -3.2299162785307922e-02
      -1.1693888022741968e-01 5.6995578593658579e-02
      2.4006488838837220e-01 1.3519194588552239e-01
      2.7175699134213607e-02 2.0419802010491633e-01
      -1.0245166457248173e-02 -2.3718063883847312e-01
      -2.2137383224129387e-01 1.4592859139311564e-02
      -1.5830636629231667e-01 1.8495169800030636e-01
      -3.9901655536369912e-01 -1.1697400392248852e-01
      2.9692416826312618e-01 2.1007259120988589e-01
      2.1618839328840709e-02 -2.2963197435664842e-01
      1.2585903171852417e-02 1.9787219510812537e-01
      -2.7153424643329083e-01 -1.0550632387000327e-02
      2.8603198959309639e-01 -2.1587875137649665e-01
      1.8810416935642224e-01 -1.1841408878705899e-01
      2.1846752206570350e-01 -2.9166454077645183e-02
      -1.6659544662879314e-01 4.2696760921978466e-02
      1.8357198359809099e-01 -1.1731337959745401e-01
      -3.8160610298749224e-02 3.5489384659614975e-01
      -9.4088894761212294e-02 6.0146826929640754e-02
      1.9027433934669583e-01 1.0785213426808435e-01
      8.7546610188431809e-02 5.3571396552283407e-02
      -7.0105671362582000e-02 -2.8597764121922536e-01
      -1.9418407771922785e-01 -1.4103710913180792e-01
      8.0259844009302153e-02 -2.6090459073136135e-01
      -2.9927947510342434e-01 1.0059459829951788e-01
      -1.9265801587027986e-01 -2.3933443264903742e-01
      2.1232940053683463e-01 -1.4298785379862339e-01
      2.5145553825236788e-01 1.7793256065093244e-02
      -9.1628708989573038e-02 -2.3213901082221558e-01
      2.0994436910167993e-01 1.3159844486400651e-03
      -5.1234841728960069e-02 9.9840629382784901e-02
      3.8726276827779335e-02 -4.9270321227615799e-01
      -1.2077383615231496e-01 1.0382866062272667e-02
      9.5612915547996905e-02 2.5087920605876796e-01
      -1.3289216603291437e-01 -1.0001095168775164e-02
      2.5637965218389203e-01 -3.6645136011471804e-02
      -3.4991439017504102e-02 3.1683581319497411e-01
      8.1645340603177197e-01 3.8953698233936851e-01
      3.6451837892506989e-01 -1.6417271544392933e-01
      1.3340014084315535e-01 1.8689078750149143e-01
      -6.9924351993455994e-02 9.9868964007111052e-02
      -7.6788739075199286e-02 1.2385822064937331e-01
      -2.4360784547412090e-01 2.2670833144552863e-01
      7.7306175538275762e-02 4.0814796875965509e-01
      1.2392411462384546e-01 5.4474492081273085e-02
      -2.5743330681002513e-01 -1.8751906578824171e-01
      -2.6916630540502223e-02 1.5261933858893309e-01
      -1.0658626583912022e-01 -2.9354534542290374e-02
      1.3451897670288240e-01 9.7116377392181902e-02
      1.1067408648732005e-01 1.9756601436133389e-01
      2.8173235180598649e-01 1.8221899832687077e-01
      8.2218052530781294e-02 -7.0048633744735300e-02
      -4.3349323121901395e-01 3.4320059092863717e-02
      -5.2559502936823224e-02 -1.8780624560201550e-01
      -1.5054277140940342e-01 -6.3943766651489098e-02
      -6.1364934964352767e-02 1.0487711077577772e-04
      -2.0728611667354098e-03 1.4350653986128631e-01
      3.0893267892739196e-01 -2.8309308579635367e-01
      2.7621898285776614e-01 9.8179494468906101e-02
      -3.4712631751482518e-03 4.9587727401283016e-01
      4.2597255043692711e-01 1.9345147728861628e-01
      -3.2656075825723867e-05 2.8354463172162780e-01
      -1.4618330783180730e-01 1.0668331228624672e-01
      -2.0338469147908564e-01 3.9886569583924270e-01
      -1.2762212318708633e-02 4.0344052148799589e-02
      -8.6101246093806372e-02 5.8548487224659294e-02
      1.2130022244121971e-01 -6.0989047659470380e-03
      -9.3423894590559609e-02 2.0580174150958311e-01
      5.1473432082832331e-02 -2.4005178710039113e-01
      -1.9381983799592795e-01 7.4035728178826962e-02
      7.3078980637932750e-02 -4.3960965385081396e-01
      4.2535478727656295e-01 -1.3140744563932452e-01
      2.6725850746181273e-01 3.0481896683029114e-01
      1.5514383976997550e-02 3.9443335167046789e-02
      -3.3584734556756402e-01 3.2076088792352492e-01
      2.9634993133655746e-01 -3.3316599904356325e-01
      9.9254145666193686e-02 4.0227233382061800e-02
      5.5889228088922283e-01 -9.4590119571435344e-02
      3.7976005629792933e-02 2.3018887377988956e-01
      -8.1687027866686412e-02 -2.6666118769817498e-01
      -1.4789337795666962e-01 -2.4295444476515635e-01
      6.4325719898264855e-02 -2.2737194802555652e-01
      -1.1758970997189891e-01 -3.2451854023631344e-01
      2.9067346391859612e-02 -9.8817212856641989e-01
      8.4515867017700586e-02 8.6756370538360342e-02
      3.8042721294073378e-02 7.9777657479568234e-02
      -1.2513631364925570e-01 2.6321814604592453e-01
      5.8164254978845482e-02 2.2505680841635123e-01
      9.0178385038159420e-02 1.3200641456037407e-01
      1.2047089366003636e-02 2.7241825353104471e-01
      7.5484438211790503e-03 -1.8125535965511216e-01
      -3.8365783261495863e-03 2.4488871082463565e-01
      -2.8020985914201135e-01 -1.5446125427645754e-01
      -2.1339014652572755e-01 -2.5903062702119611e-01
      3.3601945119117621e-01 -1.1411672942321774e-01
      -1.0343342388235280e-01 1.1809785131547638e-01
      -4.1097233721040732e-01 -6.0226766188833304e-02
      2.2108086164485261e-01 -1.4106878133343770e-01
      2.6173697217487907e-01 7.4417909122215008e-03
      -2.6265402279933708e-01 1.1464690475594633e-01
      -8.1220439723909688e-02 -8.8772767741224376e-02
      3.4499660662890580e-01 -9.9675355296015608e-02
      2.2649274542180189e-01 -2.7147731485507091e-02
      -2.4010004524692971e-01 -3.0055648267512769e-01
      3.1570174077918434e-01 -2.1081481911367564e-01
      -7.2914210721181191e-02 3.9943278872208242e-02
      -1.5941925653009401e-01 -3.1597063130285979e-01
      -6.2496614757027286e-04 2.4369243881331976e-01
      -4.5276490351850371e-02 1.3977311106667964e-01
      -7.4291074324508533e-01 -3.0334114627618353e-01
      2.5456094709848085e-02 -2.3613601307492860e-01
      1.1029391043827855e-01 4.6349446472792594e-01
      4.4508509557894532e-01 2.3897495108466438e-01
      -4.3586624667604323e-02 -1.4580270088086569e-01
      -2.8762752895123794e-02 -4.9088857209028940e-02
      6.7395328178164099e-02 2.9248159034350701e-01
      3.2288724059688328e-02 -2.7451802204236014e-02
      4.4056304735193404e-02 1.7615366911290037e-01
      1.9332723761361334e-01 -1.0041986905017125e-02
      2.2640788444696778e-02 3.5096250286950120e-01
      1.6814669803534574e-01 -9.6514395962328595e-02
      2.8635951909530261e-01 -2.3081827809409142e-01
      1.6879177774982498e-01 2.3620882075626262e-01
      4.0236389257162185e-02 -1.0952075124024749e-01
      3.7744589567400399e-01 7.4076316249735222e-02
      4.7650636715642104e-02 1.5121921224718285e-01
      -2.0216092515309778e-01 4.0097921819752713e-01
      -7.9874145490539575e-02 3.0606421383821508e-01
      2.0723455288571313e-01 -8.2549284884504276e-02
      -4.5256872338592331e-02 5.9828035308850766e-02
      8.1633223724728005e-02 2.0079936997718376e-02
      3.7802993674492760e-02 4.8479478034982482e-02
      1.8842236357454337e-01 -2.2349825232148954e-01
      -8.3913281917419591e-02 1.4373710536634915e-01
      2.0963277461912758e-01 -1.9161427034971470e-01
      1.5326925783186179e-01 3.2019316426345035e-02
      -2.0296917817456883e-01 -1.1195636703740672e-02
      -2.7073261972558810e-01 1.7366417711531443e-01
      2.1627563272055852e-01 4.7859734125607116e-02
      -1.0089495323888653e-01 -3.3811423604920204e-01
      1.6216918302913319e-01 -2.3732982162477476e-01
      -3.2531199831107810e-01 1.4220512049444772e-01
      -2.5325887046017292e-01 2.2374760614247724e-01
      -1.9610382256449299e-01 1.3813276247593728e-01
      -4.1920332024761142e-02 -1.1400769459420837e-01
      3.6836304534989911e-01 -9.4183418018667156e-02
      7.3691777229438690e-02 -2.6984490036530845e-01
      2.9597443509358980e-02 -2.6679062298994827e-01
      4.8559293800622999e-01 4.7880756350405833e-02
      2.8898387007774806e-01 5.9771757907643319e-01
      8.8954681021680110e-02 1.0789981792101577e-01
      1.0461624216030233e-01 1.8695224729082850e-02
      -3.1189081957537013e-01 2.1228261270664248e-01
      -5.6240300107790221e-02 5.4981227270381483e-01
      2.8959953561570650e-01 -1.9471620234181089e-01
      2.2393164023505305e-01 5.7348423233349509e-02
      -8.9721573086524481e-02 2.8417150073794372e-02
      -2.1438444488822878e-01 -3.8784813028581011e-01
      -6.3905897066537640e-02 -6.6671115771867662e-01
      -2.1235585556840136e-01 -1.0669104713921190e-01
      -2.7064840440873800e-01 1.6104483518169666e-01
      -6.1219432152248621e-02 3.7109867998819424e-01
      3.4288797503263954e-02 -7.0475574842350758e-02
      -7.1313695340037964e-01 9.3315865792115454e-02
      -1.7600573847719764e-02 -1.0528731181859848e-01
      8.3666167204186667e-02 7.1345049698857327e-02
      -1.9856051004269593e-01 -1.7820515903984269e-01
      2.2906579631849278e-02 8.6893399913664376e-03
      -2.7528227802125965e-01 3.7355855296704615e-01
      6.8554466909640871e-02 4.2433942672942822e-02
      2.5295972812911399e-01 2.6216861247671031e-01
      8.7821490854780235e-02 2.5793770031989176e-03
      2.2320145613416906e-01 -4.7264960575712667e-02
      -2.2716582171562408e-01 1.6693076064415238e-01
      8.0031018569482651e-02 -1.7423052294960528e-01
      8.4219815854794919e-02 2.6479342624207974e-01
      -4.2249397819624046e-01 -2.3137463681558368e-01
      9.5938481580627299e-03 -2.2568152020961657e-01
      -5.1549549654426152e-02 -1.2407752674445674e-01
      1.5155905007020062e-01 6.6592175934621245e-02
      1.2324175407754521e-02 -2.3431718996613207e-01
      -2.7503575837499722e-01 -1.1016513637205150e-01
      -3.1634632565047244e-01 -1.9093454190461701e-01
      -2.2491119416247848e-01 1.3237169885129151e-02
      -5.0529728522866857e-01 -2.6752862151478563e-01
      -2.9094710200437857e-02 -1.6250202592693042e-01
      1.0023557466509553e-01 5.8481911325232838e-01
      7.5600536316953293e-01 2.7245859995917610e-01
      -1.1184209979808998e-01 3.1019200697229382e-01
      -4.5793006545461909e-02 -1.0532767321048590e-01
      -1.0605626376067269e-03 -2.5083817242099049e-01
      3.1626651438685614e-02 -4.2183688540999853e-02
      2.5425906197178916e-01 2.7704810320332697e-03
      -2.4446316132392215e-01 -1.1785824790843760e-01
      6.7529588031493420e-02 2.8305269873047412e-01
      -2.5076641790167303e-01 -4.3235798657326324e-01
      2.6331898463933778e-01 -3.5957693200877561e-01
      1.5079935509991785e-01 5.3433083189118186e-02
      4.2149883581909985e-02 -1.3900433128135162e-01
      2.6657855591280605e-01 -1.1560227274242538e-01
      2.9869004607725874e-01 2.7633641334104347e-01
      -7.3698810001045459e-02 3.2932763578293850e-01
      -2.5683561903131374e-01 2.1003087983909696e-01
      5.7790297885712466e-02 9.6498715591106773e-02
      -2.3023206527240755e-01 -4.5779683423225505e-02
      2.8893914801355704e-02 1.4230210172807078e-01
      4.3226525770361446e-01 1.7443941591655093e-01
      1.9638309772558937e-01 -3.5354484125555352e-01
      8.5624123629178886e-02 2.5800512055913588e-01
      1.8342114872899704e-01 4.5081429904698760e-02
      -1.0143630621423037e-01 2.0453065696485567e-01
      -2.2526045203685126e-02 -2.0321692231719690e-01
      -1.5042509028656081e-01 1.5812807518914468e-01
      -4.4978432300790122e-01 1.3100765206901535e-01
      3.4147867182147773e-01 4.0590050952085073e-02
      -1.6352863643308446e-01 -2.3655038731590049e-02
      -1.6814839074724436e-01 1.2072672773157334e-01
      -2.5133463406338108e-01 1.7778295219041697e-02
      2.9534732917796619e-01 1.7982999448978471e-01
      -1.2690764062086660e-01 1.4312328253548148e-01
      -9.5391443206659779e-02 -2.8686622298469494e-01
      -1.0553366945311626e-02 -2.4506953656765224e-01
      4.1699846970651856e-02 1.7018389775440002e-01
      -1.6075434978068623e-01 -1.3909272334734774e-01
      3.2716345661474600e-01 3.9953664238972210e-02
      -9.3757118342719572e-03 -1.2554041792633253e-01
      1.7944437725809104e-01 -1.2486682953995837e-01
      -5.4138504422483902e-01 1.5297190363411577e-02
      -8.5716128135603337e-02 6.5466457764241448e-01
      4.4028082633157645e-01 -3.9293523443678702e-01
      9.9572590081458218e-02 -8.3314103432722095e-02
      -2.0003478503300967e-01 9.3644512106167629e-03
      -5.6444552587249397e-01 -5.4948035320839606e-01
      9.6095960836004746e-02 1.7254690709087273e-01
      -3.1874675697374011e-01 7.3503518504418164e-02
      -2.1559091942568395e-01 2.9560624297241983e-01
      3.0410466701232430e-02 6.2401742790539109e-02
      5.7742738707140487e-02 -2.6984913419661516e-01
      1.3445797989978201e+00 2.0233588197542623e-01
      -9.4258817239017030e-03 -3.2549499107371635e-02
      2.4309802365871488e-01 -1.5620665778188927e-01
      6.9335548757556056e-02 1.0695878774122886e-01
      -9.7049643330906252e-02 7.3048159986765199e-02
      1.5524267193189667e-01 -1.2103615476128661e-01
      3.0628601853249648e-01 1.1499280853078989e-01
      -1.4694372096780833e-01 -1.4040499996349873e-01
      -1.4209371265069727e-02 -5.5934256244263895e-02
      -3.0909979610481519e-01 -1.0113561295704304e-01
      -2.5378033189421952e-02 1.0740539265562646e-01
      -2.1666376255536027e-01 1.9310934992621315e-01
      -4.2113799360880022e-01 -3.3379877058224476e-02
      -4.5133086076772111e-01 -1.2959214971331268e-01
      1.4573988778115826e-01 -4.0455635097701048e-01
      -2.1673545322167390e-01 -3.2170091313618276e-01
      4.1869623044366627e-01 1.4408736063945526e-01
      -2.5376750673934823e-01 3.6596989573224448e-01
      -4.8502267792851800e-02 -2.7895611646928753e-01
      5.9863721340625731e-02 -5.5658311889988643e-01
      -1.7178774676265679e-01 -3.3786027525354374e-02
      9.2353583681160006e-02 -2.2895509158720737e-01
      -3.1854627508105582e-02 -3.0193497249106671e-01
      -3.8308784437657332e-03 1.1978901706127823e-01
      4.2426401371087658e-01 1.4585437250495101e-01
      5.8460911651280986e-04 1.6338257032826095e-01
      -2.2850283199463065e-01 -5.4500853388734637e-02
      -1.1015895861706555e-01 -4.7633942844487590e-02
      -6.9719587880866352e-02 -6.4430660654767255e-02
      4.3196242676433166e-01 -2.5649568739028589e-01
      -7.9648762185002220e-02 5.9586548945717369e-02
      5.7481694996520588e-02 -2.0287516363447897e-01
      -1.0977771683280946e-01 -3.5332794512935667e-02
      1.3821864810727316e-01 -1.8816400050255530e-01
      3.1259482123839964e-02 2.7626872616678816e-01
      2.4902560839699420e-01 -2.2949301486082901e-01
      6.2593003232996908e-02 -1.3947646708160946e-02
      1.2319784997900991e-02 -2.1248261282884692e-01
      7.8772704314098344e-02 5.2617320568460269e-01
      1.5253282533785367e-02 1.3621588455368694e-01
      2.9064139862239569e-01 1.9891912737690976e-03
      -1.4259388066901849e-01 1.1493986037979174e-01
      7.1072408911577241e-04 -3.2226573575547285e-02
      1.9936276348970131e-01 -7.6228196876460763e-02
      2.8673234477532727e-02 -1.1342269479614223e-01
      2.3807471533306143e-01 2.5178395591415780e-02
      1.6432633049240872e-01 -4.5421780402330782e-02
      -3.7370947737286792e-01 -6.8960027196064311e-02
      -2.1004686507241815e-01 -1.4715927487081784e-01
      9.9588506622472497e-02 -1.1698229218393068e-01
      -2.2596940811079005e-01 1.7631930238915342e-01
      -2.5715412493268047e-01 3.3041998865718364e-01
      -1.0175630053474424e-01 -1.4830516406456204e-01
      3.4193438609502164e-02 -2.1102029941557493e-01
      1.0876515004109093e-01 -4.2697283789486139e-02
      1.8179895321189471e-01 3.7912650714322614e-03
      -3.9945455710699757e-01 -1.9504545381610738e-01
      -2.2119072621926417e-01 -1.2896327053180476e-01
      2.5551207725116520e-01 -1.4984481336753544e-01
      5.8180383331130334e-02 -1.8799496752695044e-01
      -1.1563531554300907e-01 2.9633034669573718e-02
      -1.6374121039138614e-02 -1.7323956723305831e-01
      -2.5076206854075789e-01 -1.1295996021760533e-01
      1.1145722836044274e-01 1.4714970076872091e-01
      -9.6574977300421180e-02 2.9729806163489148e-01
      3.2797217911007877e-02 -1.4790889478869071e-01
      1.6595776929701694e-01 -2.2686565916299870e-01
      -1.6564821414507261e-01 -1.1846404817265092e-02
      -2.7355561129096939e-01 1.2624958293675875e-01
      -5.2807436160008103e-02 -1.4463183274142169e-01
      3.3369065367820933e-01 2.5111498631537249e-01
      -6.6278684264347701e-02 -2.5581711469992058e-01
      -1.4391980317579811e-01 2.1222467478245935e-01
      -4.2470412300596221e-02 1.0967568670416955e-01
      1.4655458136218596e-01 6.5053565945609034e-03
      1.3049924255752468e+00 4.8323969983850704e-02
      3.0602024364210428e-01 -2.5039701548151144e-01
      -8.5831769947042461e-02 -1.5548337030756962e-01
      1.4793006470700146e-01 -2.6670711218769988e-01
      -5.3554615254766617e-02 -3.8420874024807150e-02
      -7.8201565487286823e-02 -1.8601817516484893e-02
      1.3881910529462599e-01 1.3954037523264537e-01
      -1.4073483015689295e-01 -1.7676330211966955e-02
      -6.1079391981284918e-02 -8.4711112053117987e-02
      -2.8245987125509819e-01 1.3820720728767819e-01
      1.8963984163802161e-01 7.7937598298653418e-02
      -2.1200737698906899e-01 1.8151238534549768e-01
      -7.3368545631316270e-02 -1.2198514278333758e-01
      1.1546066924522078e-01 -1.8704244987184368e-01
      1.1682295889103048e-01 -1.1445690708459749e-01
      -1.2871503316778282e-01 6.1964979236868140e-02
      -1.0201253052350995e-01 7.9126518873549739e-02
      1.2828640838282333e-02 1.1997354006239308e-01
      -8.1751560429914119e-02 -2.4805814854366243e-01
      -3.1280958948585306e-03 -1.5623074607042936e-01
      6.5731622085065569e-02 2.2913862421788991e-01
      -2.9765806813702961e-01 5.0579801549033347e-02
      5.5199249132482177e-02 -2.0369256951286674e-01
      9.0150581607546534e-02 1.8515844832970513e-01
      1.3300458009200894e-01 2.4475714434648196e-01
      1.3095947580615877e-01 1.8787796919965793e-01
      -1.3238618146690723e-01 -5.6937270099747028e-02
      4.4488275190848865e-02 -3.7323024210022077e-01
      7.1759618035176290e-02 -1.2654605793932527e-01
      2.1541721132393016e-01 2.0420383099187905e-02
      -9.1972259045173185e-02 -1.6300933677743995e-01
      -4.5002018314322718e-02 8.5397380439073509e-02
      -6.8123910105654961e-01 -2.4219190909799254e-01
      5.5029562921823909e-03 1.5880874531094025e-01
      -7.0961605609151907e-02 1.6259901371009505e-01
      4.9550234210920523e-02 -2.5019075133391890e-02
      5.6303072091118928e-02 -5.4096172572734462e-02
      9.4895202538275200e-02 -9.8215515366969638e-02
      1.1069111095380602e-01 1.2055765186451871e-02
      -4.2980995234897935e-02 2.6626344109802863e-01
      -6.4991672012876006e-02 7.9542621362805654e-02
      5.1646166474427650e-02 -8.7582451677941528e-02
      -1.5278899062422169e-01 -1.4804926832823589e-01
      -1.1016575426426101e-01 -8.2874343429177613e-02
      -2.5219586340148714e-01 -1.9842072105096836e-01
      2.0669171074412027e-01 2.7723848377841441e-02
      2.1072168580305378e-01 -1.3175062728237408e-01
      -2.8840601774529063e-02 3.3125213114520331e-02
      2.7069387892380037e-01 6.0323390399008053e-02
      1.2786178517390009e-01 1.8963195921646359e-01
      -5.3334428678125184e-02 1.2722140209482438e-01
      2.1980221870885358e-01 5.0129689822868029e-02
      -7.6526904705058421e-02 1.3174550404213917e-01
      -1.0202696697384665e-01 -4.3045151873012104e-02
      1.1701716252583190e-02 5.9488654702315603e-02
      3.2115713612447544e-01 1.9097310735816678e-01
      -4.3265084195642747e-02 1.4595401490044016e-01
      -1.2404228412702924e-02 -6.7057808411697551e-03
      1.5112659882499910e-01 -2.0526266824697625e-01
      -6.9552468689732555e-02 9.0455073208521128e-02
      -1.9215412670707593e-01 -1.0601248386022882e-01
      -1.0353292743959894e-02 -3.4797511487064869e-01
      -1.7131696197711369e-01 -6.0042829300222159e-02
      -2.6413660031337320e-02 -7.9978615192371899e-02
      -1.2779379819902686e-01 1.1527357513515210e-02
      -1.4942063489548404e-01 3.4910454342703873e-01
      1.4737374911199694e-01 -5.4572277662893831e-01
      4.2168154572184452e-02 2.1070019025193409e-01
      -2.3946126130195364e-01 -7.5790426232693331e-02
      1.9483590353768412e-02 -8.8204190025641203e-03
      3.7195138373222048e-01 -3.2096951276346991e-01
      -1.9919242342777785e-01 -6.1244494175835378e-02
      -1.8809502083487345e-01 2.3163746570370719e-01
      -3.2481927039789260e-01 -1.2869093149838440e-01
      -1.3087591637216206e-01 -1.0181545166128521e-01
      7.8320634720775295e-01 2.0545875348029516e-01
      3.6418720116230423e-02 -2.5467359934205451e-02
      1.0832884024402881e-01 -2.5449555245222921e-01
      -7.6741086294488392e-02 -9.6013459343975455e-02
      -9.3833865289073393e-02 1.1756397278053807e-01
      1.3792002335084572e-01 -7.3455504956909279e-02
      2.5026126694963544e-02 1.9288645726428463e-01
      -6.8994481060852805e-02 -1.8364206802147673e-01
      -1.3589212742959228e-01 -2.0288994951616668e-01
      5.4476070842477561e-02 -1.9811383051751518e-02
      2.0490830926655501e-01 -1.2951626970685678e-01
      -1.1625911635228747e-01 4.8455461844295201e-02
      -3.3209914572870070e-01 -5.4913882351278490e-02
      -3.7758304237690013e-02 -1.0935744744509519e-01
      -3.9733296579332236e-02 -1.1435173227392391e-02
      -2.3489949159666199e-01 -3.0510209571824032e-01
      1.2941888825464845e-01 2.4369486014027453e-01
      9.0856507713695051e-02 2.6138691080936383e-01
      1.0846988317372301e-01 -5.8888768759056243e-01
      2.5336970132853015e-01 1.0077589293327363e-03
      3.1074879201763113e-02 -1.3963435428242843e-01
      -2.9603751306904591e-01 -1.6891200280067603e-02
      -5.9766567354049054e-02 -2.4379003732438345e-01
      -1.7223847043268938e-02 2.7883865514284523e-01
      1.8276820565510665e-01 6.6631885402977332e-03
      4.4620013955874838e-02 1.3841331996012904e-01
      1.1478009316098926e-01 1.8968698594981129e-01
      2.4832331726633794e-02 -4.4928044873381257e-02
      1.2812971600704021e-01 -9.9853576322796067e-02
      8.3789597284104636e-02 -2.3389860804531792e-01
      3.6096152887114853e-02 7.9426776492866530e-02
      -1.2271924611023736e-01 -3.4665039797016760e-02
      -3.3861351663801598e-01 -2.0426349910176803e-01
      -4.3017618556544020e-02 1.8470700002253782e-01
      -2.0406930019610911e-01 2.3728230146228846e-01
      2.6236582430632349e-01 -1.2142757367388636e-01
      5.7135190572881335e-02 -1.8746654465380469e-01
      2.9011832028825665e-03 1.1269445800971370e-01
      1.1170473725210465e-01 -4.6502448477014624e-02
      -1.0839208745630077e-01 2.9677878666298929e-01
      2.3079720600551262e-01 -2.5804373871980011e-02
      1.1372659933857519e-01 -1.6830169214038165e-01
      -5.8904766720528239e-02 -2.6425217699245926e-02
      -1.3635437642684975e-01 1.1263517674902226e-01
      -1.7152504377874422e-02 -2.1799094830352161e-01
      2.2350002048591630e-01 1.1811590499532615e-01
      1.4215771207342384e-01 8.4433739060426949e-02
      1.8805545783635935e-01 3.0300483229750608e-01
      2.4182353287726677e-01 -7.8678579674989618e-02
      1.5634814539382785e-02 -6.7478987587660716e-02
      1.0092041800097924e-01 -8.7240219578899256e-02
      3.2662900633980085e-01 -8.0023102623161577e-02
      3.5722551819634242e-03 -5.1400471938707670e-02
      -1.3803952506764469e-01 -1.7307626242618668e-01
      2.3611633253726727e-02 -6.7239103172398895e-02
      -6.4635130638839258e-02 2.9321776705228356e-02
      1.0783526339766179e-01 -1.9396276704357562e-02
      9.4960960947147066e-02 -7.7071417789144100e-02
      6.2666333900795568e-02 -1.8203183031100950e-01
      -1.4683402941635854e-01 1.3389099409556340e-01
      7.1415253534217954e-03 -1.4461507192928791e-01
      -2.1439335415698405e-01 -2.0101695912758250e-01
      -5.9087701543821876e-02 -1.1819396256804017e-01
      -6.6785371922489137e-02 -1.1536046309793552e-01
      -5.4258037292511468e-02 -2.3323835972512888e-01
      -1.3854323319421782e-01 3.1579138831086417e-01
      -1.0370197593108259e-01 -1.4468063339480280e-01
      7.8389944987548296e-02 5.1300418554186690e-02
      -2.0503978965005301e-01 -3.0133807420167559e-02
      2.7000036190251009e-01 2.7579932279624936e-01
      1.9240538521261043e-02 -4.7536071169131061e-01
      7.6217338530403578e-02 -5.3200079297425875e-03
      7.7722639780875586e-03 -8.2274923164874780e-02
      -5.7012061925183752e-02 1.3062243111395946e-01
      -1.3349692140738983e-01 1.4452532847382377e-01
      -1.9140234670333073e-01 1.7174068461216141e-01
      -2.9670163536039506e-03 1.6391574809696338e-01
      1.0784557269089326e-01 -1.1734900631331432e-01
      3.4596739908723285e-02 -9.4573028763801331e-02
      -1.4702396502156923e-02 -1.9113442120754992e-01
      -7.2301390886051947e-02 -4.3634021668693566e-03
      -1.1025383971959365e-01 1.7539810037955977e-01
      -2.6344606832347178e-01 -1.1085244852757767e-01
      4.1655456224060555e-02 -1.3787497718656999e-01
      1.5883103163024775e-01 7.4806977580764197e-02
      6.1476066391204828e-02 -9.8054521957064530e-02
      -1.4824938624721365e-01 -4.9011910129195882e-02
      -8.2484201948716473e-02 -2.0081570676305854e-01
      1.2434510214460456e-01 -2.1254192864803029e-01
      1.0690706277827925e-02 -1.2167947238664681e-01
      -2.0028110621395698e-01 -9.2434637757693186e-02
      1.6894153563591641e-02 -1.0441802931114028e-01
      1.4740193763196688e-01 -1.5680444220362272e-01
      1.1427392151169130e-01 -2.5802324308685515e-01
      1.8040324610471714e-01 2.1453176717969533e-01
      1.9744484316096042e-01 -1.9012240267260658e-01
      -9.7295011096253353e-02 -2.2394142724866648e-02
      1.1851001970123383e-01 -4.0122422920301305e-02
      2.5801559132668274e-02 1.9778515626459112e-01
      5.0288503733367873e-01 -2.2417106062502766e-02
      -3.7162145627346627e-02 1.0554968828279160e-01
      8.1315708427697544e-02 -3.9686761827897883e-02
      3.5648654073660094e-02 -2.4178394198788067e-01
      3.0017942096605249e-01 -2.3658470877152959e-01
      1.8515836080615553e-01 -1.5736737366899303e-02
      -2.6309235187179287e-03 -1.0788090050651306e-02
      3.4692578633320884e-02 8.1239280490697702e-02
      -2.7852567269136980e-01 -2.1399303408004391e-01
      -1.7098723537544921e-01 9.6845656536581129e-02
      -1.1258352018691235e-02 8.4706060592587354e-02
      7.8446199046873430e-02 -5.9356984370354401e-02
      9.6112710764546375e-02 2.9861842479038163e-02
      1.8130919501585874e-01 7.0356277261995184e-02
      -1.2254766647621713e-02 3.5314967944697368e-03
      4.7639797761917541e-02 2.1664193459086800e-01
      -1.1749685334587320e-01 -1.2221383998676939e-01
      -1.7367555837557922e-02 6.0029400145302281e-02
      -2.8906811082570055e-01 -2.1764093663549947e-01
      -1.6480363082130831e-01 1.2843364768244939e-01
      1.1911069446976704e-02 -1.7733877548848645e-01
      1.5569111547847242e-01 2.1581460889306128e-01
      7.3563865846034901e-03 -9.0550577200132862e-02
      2.8250154532888188e-02 1.4347275443902249e-01
      -1.5597306259222976e-03 5.0884108182758403e-02
      8.8885376152531795e-02 -6.6186891607565648e-02
      7.7651514833907406e-02 4.7247961066905521e-02
      2.4655371668854190e-01 -8.2708493635898300e-02
      2.7741073143795029e-02 1.8508159953899592e-01
      -1.0441384688826118e-01 -1.8339973453981681e-01
      7.4738285917145014e-02 1.0393324678083279e-01
      2.1639344834515153e-01 -4.4857656517687243e-02
      -3.8917639566972147e-02 -1.2839552890463532e-02
      1.8915875587669106e-01 8.5074850102313193e-02
      4.8241832261521594e-02 -6.0830182172932477e-02
      9.3027806431546872e-02 5.2962680911693830e-02
      8.7998659886164732e-02 3.5764270198995737e-02
      1.4464949929614337e-01 -9.7126268092723733e-02
      -1.1316997115548480e-01 -3.0195691775079481e-01
      6.5308486130393473e-02 -1.7809332076361867e-01
      -3.0602550152143103e-02 -8.9209260539767035e-02
      -9.7012386641512377e-02 4.4668025047936605e-01
      -6.7519354390782091e-02 -3.5971492309045017e-01
      -2.6547501346353634e-02 2.3506769011970719e-04
      7.2100212350951737e-02 -1.0220036051213882e-01
      9.7379947440120088e-02 -1.0780606566677943e-01
      3.3940660643897225e-01 -4.3891497527531759e-01
      -1.4778656479140681e-01 1.0391951720717964e-01
      -9.0917769314155558e-02 1.1847901001113192e-01
      9.5295393885294732e-02 -1.3411013813291446e-02
      -1.0015542758633754e-01 3.2566676856771039e-02
      3.6867016393272845e-01 2.4899549546608088e-01
      -4.3470562988500522e-02 6.1802720638989721e-02
      -3.0550095145992176e-02 -1.5424341708044384e-01
      -6.8837402858028113e-02 -2.3418537168936157e-01
      6.2088622470693744e-02 -5.1208110144139340e-02
      1.0334185952855783e-02 -8.4794189243181328e-02
      -1.6388991393780611e-02 -1.5583069035428508e-03
      -1.3910312972260477e-01 -1.9946766354889338e-02
      -1.4457093479710661e-01 -1.4467208551754945e-01
      9.5409827179350995e-02 6.3796531410112184e-02
      1.7648966286275874e-01 -1.6532526745330059e-01
      8.2921160967064800e-03 -1.6363877624585563e-01
      -1.8555734912658478e-01 -4.8247915649793784e-02
      -7.4931203066154140e-02 -7.3724864900462251e-03
      -7.0072143394439748e-02 -1.5927081140351140e-01
      -1.3753390854297709e-01 -1.3091213904862067e-01
      1.3264149740207740e-01 1.1201492912889077e-01
      -7.0180957974338126e-02 2.2202671489642203e-01
      9.4939922146324296e-02 -5.0106063955834024e-01
      1.1052539914381018e-01 -7.7859171440349026e-02
      -4.6605235976086436e-02 -1.1521762585627190e-01
      -2.0359675534692260e-02 2.6207927552535017e-02
      -2.7868160342322621e-02 -1.4935987431057868e-01
      -3.5937576234177281e-02 1.8590888734084504e-01
      2.9501880268333869e-01 -1.3884945080189837e-02
      1.1766739789527128e-01 1.8155038586449534e-01
      -6.5242461266368679e-02 -1.4118864798182693e-01
      1.8122253057416177e-02 -1.8943908903226292e-01
      3.7276675750863818e-02 -2.0429772271904578e-01
      2.8157821732989841e-01 -7.1713420767069921e-02
      -2.9258816532730665e-02 -1.1832621499942292e-01
      -1.0317220947872348e-01 -8.2941547581778088e-02
      -3.7766995834492217e-01 -3.6514499569519943e-01
      -1.5127443304339441e-01 -3.9342806804291232e-02
      7.0041532573121207e-02 1.4316200003563159e-01
      -2.1550242131978181e-03 5.4033156995395522e-02
      -4.2614850640269569e-02 5.4116284604432179e-02
      2.4278606756023413e-01 6.0849316598132648e-02
      -4.4207556268662868e-04 2.8155045742095114e-01
      6.6421995154168786e-02 3.2035382709071296e-02
      1.1010186364316314e-01 4.6648500839544728e-02
      1.6894926625447650e-02 -1.6077563504836434e-01
      -2.7968527185266743e-02 -7.4633549380398082e-02
      -2.5254900135287989e-02 1.8637065373629799e-01
      -1.1165408135687635e-01 -1.9272576483697043e-01
      7.8395208170930555e-02 1.6355385389855783e-02
      5.8296492523553962e-02 8.3674834873065804e-02
      -1.5683924472911234e-01 1.7134071422219369e-01
      7.7720407538578853e-02 -6.0641765483965805e-02
      1.9417815402705610e-01 2.6003268230643223e-02
      -1.8714933512338269e-01 9.5452714894738236e-03
      3.6980960008091557e-01 1.5647105473757791e-01
      1.1338255093267069e-01 1.8736254951875123e-01
      -1.7458938374101030e-01 -2.7233465299525056e-01
      -7.8245886071529686e-02 -1.0247247782492849e-01
      2.9007215464524494e-01 1.6740604948339042e-02
      2.9683000947670065e-02 -3.1617450544532961e-03
      2.8415599211972332e-02 4.5479596941920025e-02
      2.6657084947018717e-01 -1.2533540427210232e-02
      -1.0765186125122356e-02 2.1782229773891432e-01
      -1.5612982819707463e-01 -8.0060547645347993e-02
      -8.6359313585710959e-02 -3.2503506550635747e-01
      -1.6075041884593647e-01 -2.5795826409370014e-02
      1.9622101128091263e-01 -4.5429901990262762e-02
      -1.9712045907051193e-01 -3.3012397859389794e-02
      7.8734568150224220e-03 9.1109230534574606e-02
      5.9989716933740757e-02 -2.5899443541480338e-01
      9.4246045685094343e-02 2.3850351616835297e-02
      -5.7790361566871619e-03 -1.6709846989887822e-01
      -3.8293147259314091e-02 -5.8023027217401137e-02
      1.8037989822916176e-01 -2.5274629103558277e-01
      -1.9593987224025905e-01 -8.8641053835322933e-02
      -2.0168990659794422e-01 1.5231181751977235e-03
      1.7490895630446833e-02 -6.8852735208224710e-03
      -1.8213057611672681e-01 -7.1533657090982458e-02
      6.7196313396571872e-01 2.9926669182279980e-01
      -1.7007789476880955e-05 1.4601702279912682e-01
      1.4259379319333361e-02 -2.5035994299911352e-01
      6.6694470514570267e-02 -2.0564533328494297e-01
      -9.7959918016686173e-02 -2.2056545508522563e-01
      9.0846609454922234e-02 -4.6111175625114444e-02
      -8.1758588555389897e-03 1.1914323083525871e-01
      -1.3770736990947899e-01 -1.0154387892155765e-01
      -1.6451583895707589e-01 -7.5055279730848218e-02
      -8.4299009394672442e-02 2.6327221317968569e-01
      2.0253998169489298e-01 1.4388972151709871e-03
      -7.6517032468913296e-02 -8.4467445581332512e-02
      -9.9039322892380752e-03 -2.0511714736559017e-01
      -8.7899222726462653e-02 -1.9683188457939902e-02
      -9.6913058843297969e-02 -6.6792180973129001e-02
      -4.8754154353456980e-02 -3.0132627362834369e-01
      1.0646469381832434e-01 7.5037352067255259e-02
      5.6042946507941664e-02 1.2852483857994129e-03
      8.3579393640754840e-02 -1.5812399291038556e-01
      1.1298282722538001e-01 5.2958937463618141e-02
      2.8676086705082759e-02 -2.2863989765567697e-01
      1.8932378762396321e-01 -7.3458052052809203e-03
      1.0177825657071674e-01 -1.8947185901069319e-01
      -4.5203244814103753e-02 1.3699185279427190e-01
      4.8530156375677769e-01 5.6973669293028335e-02
      2.2056125273467267e-01 1.0238890269396228e-01
      -3.0021706374854292e-02 5.8649476587049131e-02
      -2.7629811405519324e-02 -1.0247865866894355e-01
      3.5311628680235858e-03 1.0164168896937789e-02
      -5.4122441487594597e-02 2.4663728411224620e-02
      2.0124437620439552e-02 1.3005600639321768e-01
      -2.3530193439817236e-02 -1.1914190746813035e-01
      1.0336718478828786e-03 -1.2171889717250349e-01
      6.9473248467975868e-02 -3.0264757105757975e-02
      2.0781325122176783e-01 7.7083184392538764e-02
      3.5187117198693871e-02 -7.4827320060604330e-02
      1.1422794584123067e-01 7.2201992155220857e-02
      8.3313308474471340e-02 1.2926331287167142e-01
      5.4238106749912807e-02 2.5268795357131946e-01
      -6.6941539782898560e-02 1.1375773494271385e-01
      1.0727164169019560e-01 2.5526082333861042e-02
      4.4670105099782989e-02 -5.7527377037375288e-02
      -1.1223148821066668e-01 8.3620393151268499e-02
      9.1693302860739997e-02 1.1050012098598469e-01
      1.7556076654195565e-01 -2.1801552241533143e-02
      -7.2586885414168884e-02 -3.2514749220279984e-02
      -1.1930608225282273e-01 2.1005092477059342e-01
      -1.0836540217069338e-01 1.5229966597745873e-01
      -9.6501109254467601e-02 -1.5442614738380153e-01
      2.7705797726534542e-02 -2.1240295770697046e-01
      -5.6681092939987819e-02 1.0746548894328904e-01
      9.7877539135577951e-02 1.1360000894256121e-01
      -3.6008621304203257e-02 -1.3975904819491383e-01
      -4.9413658788425525e-02 -4.4783157809702219e-02
      8.8825759980891220e-02 -1.0227840557520461e-01
      1.5909395290247947e-02 -2.9906809865230433e-01
      -3.8243108545925324e-02 -1.4704824748188619e-01
      -6.2353234186088451e-02 -1.0054759379292007e-02
      -4.0985940433779774e-02 -4.9587378683783670e-02
      8.4870715667429195e-02 -6.2729289126127630e-02
      -1.9279814562971775e-01 -1.4825341249648771e-01
      5.2456575137976871e-02 2.0931564921636692e-01
      3.2491931046230153e-02 -1.4309743933037627e-01
      8.3722540457149122e-02 1.0926342128571093e-01
      -3.5654714725080600e-01 9.0738254459418091e-02
      2.4652175373888315e-02 7.3070724260792613e-02
      3.6543363604847612e-02 4.9942403132194904e-02
      4.2402498652087429e-02 -5.9696526445656622e-02
      1.2732124438650158e-01 -2.1377301132037593e-01
      -1.8609007034301034e-01 -1.9236841706179250e-01
      2.5562048180053056e-02 3.3325126229466137e-02
      3.7844881555634771e-02 -3.4858240003099179e-02
      -9.0131566146140749e-02 -3.2310298729741477e-02
      1.5140632281696081e-01 1.3272753798466166e-01
      8.5156831662284382e-02 -7.4456754944468878e-02
      5.7867432507319061e-01 8.9414796357352028e-02
      6.7670165241260280e-02 5.9845082383828289e-02
      2.3669935588038971e-02 -6.4078040560065774e-02
      -4.6860876270142973e-02 -5.2615300810677425e-02
      -8.3844451710569756e-02 -1.8959667877138833e-01
      1.6757759646845133e-01 3.6490713380776557e-02
      -8.7649814085527328e-02 -5.3942141688483158e-02
      7.9155031460567248e-03 -1.3259937767427624e-01
      -1.5875435477954608e-01 -1.5722158585260571e-01
      -1.4357650772389086e-01 2.5937679670146851e-01
      9.2141804327465271e-02 7.2283494241055107e-04
      -4.2625488523958158e-02 1.5260072963778198e-01
      7.8717296575731191e-02 -1.1869967943736282e-01
      -1.2638103569513653e-01 -9.8065783544675794e-02
      6.8508833894746921e-02 -4.6051419931319386e-02
      2.3824342411081827e-02 7.4005514546212639e-02
      -7.8528172062348980e-02 -1.8026941045057202e-01
      -1.5045678661519987e-01 1.6194020264785083e-01
      -1.2748988654968754e-01 4.1085994350289028e-02
      -1.6056379488928650e-02 -2.0026812430000884e-01
      -1.8019502730038495e-02 -7.7733151598790972e-03
      -1.4469736909503075e-01 8.0124339776065756e-02
      -9.3667503831382226e-02 1.2558260992051110e-01
      -3.8029507635057025e-02 2.6934283678258123e-02
      2.2300911029288004e-01 -6.7714450092918932e-02
      1.8960339434146745e-01 -9.2368744243602488e-02
      -8.0081056077862312e-02 -2.8657991820203645e-02
      -5.9897814900488122e-02 6.3687875750914322e-02
      4.9689869440040779e-02 6.2277293709814843e-02
      -3.7712493471360325e-02 -6.8343479541621024e-02
      8.7491457663312414e-02 8.9273821973307341e-02
      -8.8752458760315053e-02 -4.8311778839828096e-02
      -2.3331136332234129e-01 1.0580942163861486e-01
      -7.2035276779537818e-02 -8.7212114173828847e-02
      -2.9288179451195093e-02 1.5154360892181756e-01
      -8.9151649714904829e-02 -6.6461769984377972e-02
      -1.0565918953446773e-01 1.0683333094547924e-01
      3.4388083660152759e-02 5.2102810015896804e-02
      -7.6623577383883423e-02 2.6734873193977715e-01
      8.4146321795125309e-02 -6.9933335177149699e-03
      1.9142965881675922e-01 5.7238745307128698e-02
      -1.8465047944147144e-02 2.2720286556237323e-02
      -5.0908992397094066e-02 -1.2583371009269928e-01
      2.8001664925081500e-02 -9.4216025592784580e-03
      6.1497226759749835e-02 1.2311666742384815e-01
      -1.3042102486843729e-01 1.1667784258246673e-01
      -1.1821590049592048e-01 1.3541975311504548e-01
      1.1819893874525675e-01 1.7311965943159616e-01
      -1.1922020424041091e-01 1.0414078808217563e-01
      1.1458668334477237e-01 -2.3058382467587818e-01
      -5.7779364612945479e-02 -7.8124114575390965e-02
      4.1230233471981841e-02 -6.8788195928813897e-02
      -8.6924599740504968e-02 -1.6614235025775151e-02
      4.9167047904084660e-02 1.1097876925217368e-02
      -7.6594565810886889e-02 1.5962521090300382e-02
      5.2069584363230337e-02 -1.8665738336700829e-01
      -1.0557085319084636e-01 -1.0271161441301731e-01
      -2.3841157162805115e-02 2.5545357148122595e-02
      1.9098444818679386e-01 5.8597979679290514e-02
      3.8092616416548611e-02 -9.8047133846973139e-02
      7.7740230614844738e-02 5.0504384879075367e-02
      -1.1015608758182745e-01 3.7375009547285884e-02
      -4.9464134237372503e-02 -1.0052586089450276e-01
      -1.1131143629960356e-01 -1.1478517450307896e-01
      1.3897149064980036e-01 4.0258372715858186e-02
      9.0070640830931359e-02 8.6871393567329924e-02
      -9.1795220640829234e-02 1.3475284689228262e-01
      9.8380082951588232e-02 7.0298914421481257e-02
      9.4060930225932413e-02 -6.7468688313897018e-02
      -1.0519748440192876e-02 -1.2549520401188624e-01
      -1.4714333916050223e-01 -1.9500929334339642e-01
      1.8441376920706902e-02 3.8653715176504484e-03
      6.2473009247644598e-04 3.5956521704128122e-02
      1.1351529490859538e-01 3.9691326560882471e-02
      6.1390023777249787e-02 -9.1064216849621848e-02
      1.2330103967677093e-01 -2.2109372927541435e-02
      2.7035572083134150e-02 -1.4789921138134985e-02
      -1.8359554987641361e-02 1.2421663688801167e-01
      4.9626106447675775e-02 -8.4679288115247650e-02
      8.1976215021236531e-02 -8.2289238198407041e-02
      5.5263056740094740e-02 4.8889242051302996e-02
      -1.6737693962522893e-01 -4.1378111547887590e-03
      -1.3850816613471040e-01 6.6820820808313156e-02
      -3.2570581923857347e-03 1.6599305435245407e-01
      7.9157059146533634e-02 2.0789665205402152e-01
      -5.2548472628252539e-02 -2.6231139720196829e-03
      5.3631850069472214e-02 -4.2617674689019565e-02
      1.9336013450847545e-01 -1.7377332030426884e-01
      1.1852305691562563e-01 9.2705668760073232e-02
      1.4189609600496078e-01 2.7796153334115028e-02
      -6.9257697450437958e-02 -1.2441334520171145e-01
      -7.8831531704838892e-02 5.3725070744799291e-02
      -7.2885299533908099e-02 -3.3770051106988769e-01
      2.6732090570466910e-02 -1.1627700033005928e-01
      -1.4243197379548136e-01 1.0231355995633804e-02
      -4.8871799256928028e-02 -1.3985676305161272e-02
      -3.4435774856553296e-02 4.2509915955370958e-02
      -2.2004917587725353e-02 8.6320466182615886e-03
      9.4813226621362628e-02 -2.2111926336386578e-01
      -3.4210006906736773e-01 -1.5402041220635371e-01
      -8.2014065409473730e-02 8.3424070630246164e-02
      5.7167731919154731e-02 -3.7555763374993598e-02
      -3.2879449324923538e-02 3.3101757276825433e-02
      7.6664288478381332e-02 -3.0682196795714805e-02
      -1.2696418343819621e-01 9.8316514949962127e-03
      -5.0317188125504633e-02 1.1227329091505332e-01
      -1.4289410112252837e-01 -1.0672463924550943e-01
      1.3316321145895063e-01 1.2199682541116820e-01
      3.8988982209570339e-02 -1.5266480617402739e-02
      -8.7803049497700278e-02 6.8773215119241435e-02
      -2.1532828366178250e-01 -6.2287361280735309e-02
      1.5256440338026204e-02 -1.2051137320225579e-01
      5.9499677153879632e-02 -7.8569706277051399e-02
      -4.3290928495868332e-02 1.1950943765585476e-01
      1.1843736105353959e-01 2.2012990531859677e-02
      9.0776585360909254e-02 2.3096540286381435e-02
      -1.1066354756510784e-01 4.3482150048207824e-02
      2.1316863751964766e-03 1.7154362756137209e-01
      -1.5227292590486838e-01 3.6911118740239564e-02
      -1.0054624441272737e-01 2.3765423287355517e-01
      -1.3650795944965607e-01 -8.9434033014410101e-03
      -5.1671055467063062e-02 7.3787241452125743e-02
      4.2417849043841702e-02 1.5255617066623628e-02
      -7.2423960438830648e-02 -1.3459391786757096e-02
      -1.1821730371998809e-01 5.5604273058355004e-02
      1.6001098387456225e-01 -1.6385429364187892e-02
      -9.3057905891896844e-02 -8.4020661080896855e-02
      -1.2701193794052237e-01 -1.0106192952402993e-01
      1.3792678296458155e-01 6.2668866011017996e-02
      -1.3737269662271706e-02 4.4705185804093960e-02
      -1.6691029820707784e-01 -8.4936106463580366e-02
      7.9100546893067378e-02 5.2865176030487397e-02
      -8.0969662665522760e-02 1.3873585294391838e-01
      -3.0247354525642759e-02 1.2909394332823318e-01
      1.2909525861879032e-01 -2.6791334579452302e-02
      3.1608676831227075e-02 -9.2931928041799491e-02
      -1.0080035221381531e-01 1.7382773437850207e-01
      4.1139236823795819e-03 -7.7376553445962712e-02
      3.2976543007597017e-02 2.2221298991594633e-02
      -1.6288210711056597e-01 1.3309076729556165e-02
      4.5677084073042738e-03 4.5199234251265916e-02
      9.3739653347679947e-02 2.5290902775875940e-01
      1.2502189986653950e-01 -9.1280839764527125e-02
      3.3734366693277583e-02 3.9917953637635450e-02
      1.8304118168451869e-01 3.3777274458813095e-01
      -5.5081813270427042e-02 -1.0702585048526717e-01
      6.2234040712668678e-02 -1.1468674985739637e-01
      -1.0747996715731653e-01 1.7499353368768338e-02
      1.1926624919143203e-01 -1.3318997013479732e-02
      -1.0272287741557085e-01 1.0357523484106364e-01
      -2.2875999760868793e-01 -1.8779951498223812e-01
      1.0860508735565684e-02 -1.4844170504499693e-01
      -9.1960315625240867e-03 9.9560441557589960e-02
      -1.0415888034369640e-01 2.2210014324344197e-02
      -8.7111652891744915e-03 3.1498571407745500e-02
      6.3059787184176430e-02 -4.0298827031027037e-02
      -1.5450072153440383e-01 -3.4602392699541379e-02
      7.5868494725909619e-02 -5.5692738079695686e-02
      -4.2545523493177667e-02 1.2580048203030911e-01
      1.3208712021506075e-01 3.3732316866964283e-02
      -8.1808668025727643e-02 1.3011979421975833e-01
      1.8068927450802447e-01 -1.9778052618876888e-02
      5.0042512052243387e-02 7.4698870960418537e-02
      1.4743803353108877e-02 -6.7741519592895746e-02
      -1.1983153483559512e-01 -7.8700881504648289e-03
      8.0763303777379267e-02 6.5490926070326985e-02
      -3.0280519004068135e-01 -1.0734737511891711e-01
      3.6306725389162277e-02 -8.6727924255288608e-02
      1.3681755155754516e-01 2.1963941816209420e-01
      -1.9853962716797617e-02 2.2331957592010513e-02
      -1.0905632152803246e-02 1.2248424682811193e-01
      -6.1401232588532813e-02 -1.1836263264105283e-01
      -4.2972903731208677e-02 5.2702139472692909e-03
      6.2663821632604755e-02 -5.9912235624109467e-02
      2.5541101778124181e-01 7.0100685938219208e-03
      2.8177409442252385e-02 3.4574639523765577e-02
      8.0704566185646767e-02 2.0038434887240487e-02
      -9.8301964934367214e-02 -5.8967721038441570e-02
      -4.9682222248325490e-02 9.2404275176869582e-03
      -2.4931773318226516e-01 1.8831775883459884e-01
      -9.4700196691978045e-02 -2.0938483577260490e-02
      1.6285652756788904e-01 5.8268566683139372e-02
      -3.4771392407513441e-01 8.9662897035618500e-02
      -3.8791245005259579e-02 7.5856414608915568e-02
      -5.5272517754784187e-02 -1.7226999418687761e-01
      1.2100047433410362e-01 -6.5521095759437084e-02
      1.2385788776944795e-02 -1.9771561098639843e-02
      1.6153184636453824e-01 2.5081815935669053e-02
      -6.2246690686945313e-02 -9.9563419886250615e-02
      3.4977255446924732e-02 1.0908270999405024e-01
      -5.6434500214922904e-02 -1.2583866286691053e-01
      -1.7097648614075256e-01 9.9529221759773467e-03
      6.0566317689180915e-02 7.3760109110442326e-02
      9.2644549366832599e-02 7.7538352581375689e-02
      -9.8637725960181527e-02 4.5143542788571422e-03
      -7.2812420743487857e-02 -9.7501299700093764e-03
      -8.3561674874033723e-02 1.9799748038908777e-01
      2.0321415240259619e-01 1.9094802547427253e-01
      -3.3046819831700359e-02 3.7789958738717350e-02
      1.9179574574221762e-02 -1.6054336847229350e-01
      4.8432730890445530e-02 -8.9947297163076714e-02
      2.3317641522162794e-01 -2.6747812561448114e-01
      7.4515104560130010e-02 -4.8536021696176886e-02
      1.3775431923077605e-01 8.4112891421924303e-03
      -9.1156208404845535e-02 1.4470653931753216e-01
      -7.3665513137636191e-03 6.0276089712886033e-02
      -3.2179031349254691e-02 1.3401373009234707e-01
      3.0564243138761745e-03 -7.5591358695891953e-02
      2.2120415329633582e-02 -3.4196063698942299e-02
      1.9314644714249558e-02 2.5475566849663569e-03
      3.7402697375412693e-02 -1.4517443168289302e-02
      -4.6098060124975075e-02 -2.1085128467217867e-01
      8.6476059631964891e-02 1.1270551099299497e-01
      -3.8059134148720794e-02 -7.4907773767357785e-03
      3.5899223363652794e-01 -1.1320808158880907e-01
      -4.7125685380137422e-02 -1.6083421728775171e-01
      -1.0251819877060921e-01 -1.5456075092745825e-01
      -4.3415963544313423e-02 -1.9875084919269370e-01
      5.6705950907719557e-02 -9.1597481011967782e-02
      8.9183412599635789e-02 -9.5137676049705883e-02
      -8.4548787834310413e-02 1.3811988752721160e-01
      2.2288197018562245e-02 -1.0011394170006510e-02
      7.1051645892142454e-02 -6.7185937000411422e-02
      -8.0389017740636420e-02 1.6438902009032998e-02
      -1.8190154149349474e-01 -1.1101275332304310e-01
      -1.8780818670135671e-01 -1.5240645719526436e-01
      -2.7069596018300512e-01 -9.4357384576012754e-02
      -5.4296401410397044e-02 5.6847519237734068e-02
      1.0447606229725068e-01 1.3107577578994516e-02
      -3.6495885970208204e-02 9.6100203326179204e-02
      -3.7751295801732435e-02 9.4802065997698082e-02
      -8.8991226703097642e-02 -3.8936954219885109e-03
      1.9906922934408083e-01 1.2041722636240905e-01
      -6.7156582377522145e-02 -2.7211471764662220e-02
      2.8075859009730258e-01 8.1984364835113344e-02
      6.6530338751232918e-02 3.7814923142409332e-03
      3.8632393473147543e-02 -5.3073798434059898e-02
      4.0188884258515203e-02 1.0287932167861169e-01
      1.4618637032402648e-01 1.4506876310744881e-02
      9.9294319540852299e-02 -3.5516247521978322e-02
      -8.8718340403743837e-02 -1.7566433352233644e-02
      4.6862077247095978e-02 -7.8282903416906899e-02
      2.8147886823244501e-02 -1.3348901908811101e-01
      -4.3589147937550803e-02 -2.8643304916712214e-01
      -1.4058822929180986e-01 7.2522000582097540e-02
      -1.5585493037546017e-01 -6.3020305312740693e-02
      -3.1615526830831836e-01 -4.9697107471283399e-02
      -3.3358807677967846e-02 -1.2064750658933965e-01
      8.4917871739455864e-02 1.2639251262397205e-01
      2.4834851272575051e-01 -1.8495103323491597e-02
      5.7746673680841874e-02 3.4526996133340940e-02
      1.1093575513540135e-02 1.7414296412426110e-02
      -1.7311085023937894e-01 6.7010816597720652e-02
      1.7326304593833022e-01 -1.0948988883827540e-01
      1.3842225489722476e-01 -9.8289794692631230e-03
      3.4790090678817880e-02 -7.8671619034862875e-02
      5.4210107489338147e-02 1.3910939361684335e-03
      -2.5631057786349071e-01 -1.0467692896351612e-02
      2.2143182392455165e-03 -2.1234919559752083e-01
      3.2990183496783086e-02 6.3991886271019510e-02
      1.7726546989436420e-01 -2.1626900020458414e-01
      -3.5953004844645480e-03 -3.8874501470436057e-02
      3.8296187968106972e-02 5.7280707668548807e-02
      -1.7925274360671625e-01 1.5849429925507402e-01
      1.0431313448414040e-01 2.4526308184998580e-01
      8.6735418087816610e-02 -1.2000462239129692e-01
      1.6745540857090832e-02 1.4929806566417214e-01
      -1.5312264820560526e-01 1.0690396272257922e-01
      6.2932883614748844e-02 1.9809826888290535e-01
      1.4388142412360644e-01 -1.1724650969448111e-01
      2.2085889194994546e-02 -2.6253241313631938e-03
      -1.5753723665116515e-01 1.5205119928140274e-02
      -8.2691157832661608e-02 1.0250180281488074e-01
      -1.0852830614204579e-02 -8.8516819810834715e-03
      2.3358704750695958e-02 -1.0978824854627152e-01
      -7.5727596667872418e-02 -5.2321023679651545e-02
      7.6999970978613606e-03 7.4646949099231641e-02
      7.5143296144181096e-02 7.3307936112636127e-02
      -1.2001716862223673e-01 -1.1196066399266875e-01
      -3.3573452484745711e-03 -9.3134531199267512e-02
      7.7269173855739018e-02 -3.3369145252696381e-02
      4.0759487408440431e-02 -1.1392620096464294e-01
      4.4355421604114438e-02 1.2839464730691794e-02
      1.8479939844390378e-01 -1.6872811379496613e-01
      7.9921616686447986e-03 -1.2562187998186661e-01
      -7.2270415868978907e-02 -1.8200065174511484e-01
      1.8802780509930125e-01 -2.7591859706160522e-02
      -1.3570554113078537e-01 -1.2883214015084993e-01
      9.2042054440345383e-02 8.2082558215468435e-02
      -2.2593022544221894e-01 1.0907406323335039e-01
      -1.1238620224439631e-01 1.5679415359768917e-01
      2.1211295584515111e-01 -4.5145763911969533e-02
      -1.7139720400232164e-02 4.8285354442732957e-02
      -1.0297047150111986e-01 -1.2882576013283165e-01
      -2.7327856161334846e-01 -1.5039355469537807e-01
      7.2250654076866760e-02 -2.4452880197698232e-01
      8.1733859283051255e-03 -4.1563444942703767e-02
      -1.6570980051653555e-01 4.2601116926914227e-02
      -7.2819288699814702e-02 1.0270200315685760e-01
      -3.5832378277924140e-02 -7.8763161555432212e-02
      4.1955616169483467e-01 3.8072902938496953e-02
      -7.7787703494037144e-02 5.0797347792142969e-02
      6.3683310601822113e-02 -1.7708495374612671e-01
      1.7963441519418425e-02 -2.3002286620674070e-01
      4.7249210210021084e-02 1.1511865327150980e-02
      -5.3240543251479477e-02 1.3940416619777624e-01
      -1.2652607167296798e-01 8.4929833161170327e-03
      1.2810894331235886e-01 1.1821183062407502e-01
      7.4983978384706079e-02 -1.1191535534061910e-01
      -7.2697301251186411e-02 1.9725720405182157e-01
      8.9828049971029111e-02 1.7826636679767421e-01
      -1.2015644211177492e-01 2.9943833083524496e-02
      1.1399694956784467e-01 -1.3726665484601025e-01
      -1.9507374914671144e-01 -7.2354417993619339e-03
      -1.0736411842494568e-02 4.4849674774771866e-03
      -9.5015130083481350e-02 -2.4890805059928409e-01
      1.3104869906478026e-01 2.0961836938648649e-02
      2.1602903925010769e-02 5.0231289472223044e-02
      -1.7149007233479163e-01 -1.6161634403715874e-01
      5.9164808239153689e-02 -1.7630409968310731e-01
      -7.7185274995100916e-02 -1.0693822702075029e-01
      -1.7608983964166430e-01 7.0609091261970069e-02
      1.1472623135904353e-01 -1.6297763172580269e-02
      5.6887858672219585e-02 7.0037618916766395e-02
      1.0733931436345266e-01 9.6551696989168989e-02
      -1.6903731091829407e-02 -5.5007641576703056e-02
      -3.7637971225062246e-02 2.6703235458397433e-02
      -1.1802125661351016e-01 5.9888003578906140e-02
      9.6279396159843558e-02 -7.5049675761446361e-02
      8.6370897368630253e-02 1.3685852603145693e-01
      -8.3673356310719371e-02 1.0412680854636664e-02
      1.1165096836117087e-01 -5.6727336476370030e-02
      2.2452906086334554e-01 -1.3302140136604196e-01
      -4.2691492075883027e-02 -6.1950967999283645e-02
      6.4258427407588636e-02 -7.8452998626774989e-02
      2.5281778691928519e-02 -6.9287428503651299e-02
      1.0769506300081999e-01 9.5361741112126031e-02
      -1.0404368997884081e-01 -6.7033507574732254e-02
      1.8032707795503738e-01 3.1785846215177854e-02
      -5.5070435552746953e-02 -1.6034968466100405e-02
      1.0678647417641412e-02 -5.0750351844074587e-02
      2.4760257436973663e-02 -3.3917046045086184e-02
      -1.1500326983832694e-01 -7.0054155716755395e-03
      1.3590798280113398e-01 6.7563541256275367e-02
      5.9354080539473067e-02 6.2354637166881742e-02
      7.6948833702308220e-02 9.9190910897764186e-03
      5.6707450714894587e-02 8.6307109811919663e-02
      -1.2047539401211999e-01 -8.3459284360487648e-02
      -7.2852796238385420e-02 -4.6618520428365499e-02
      -8.1564383251722092e-02 -1.2708052552142116e-01
      1.3191308044151612e-01 -4.5327555259996141e-02
      1.8350872100383893e-02 3.6471541719391327e-02
      7.5218741005242215e-02 3.5152914075923122e-02
      7.0436931684055723e-02 -5.2718201538924876e-02
      -6.2311207423359168e-02 2.5701114328448044e-02
      6.0015046391451105e-03 -5.6573485421135369e-02
      -8.6604286112231338e-02 4.6128774533439568e-02
      1.0072332536580943e-01 6.2998205432503354e-02
      -3.6996010968335193e-02 4.7827902687130148e-03
      7.1257978285130585e-02 -6.4558367237093225e-02
      3.3474824828572322e-02 -1.5167435599236861e-01
      1.9116654045225986e-01 3.0174928584733041e-01
      1.2717422934754957e-01 1.0986277373151734e-02
      -3.5424131236377505e-02 1.7541734130097972e-01
      -1.7885439265940073e-01 1.5077692193869260e-01
      -1.1214402243775669e-01 1.5288380311547381e-01
      -7.5331089517934454e-03 -9.0293002812608034e-02
      -6.1559406583511153e-02 4.1890436076251363e-02
      7.3390720487334929e-02 9.6350251719493060e-02
      -3.4066871216273491e-02 -1.4726917563242564e-01
      5.4678346970116101e-02 -1.2009722119095984e-01
      -9.9614374299259636e-02 -1.4227486820428184e-01
      1.3667338585258676e-02 1.7164559048790642e-01
      -4.3954624889507923e-02 3.9334797195026576e-02
      -1.0077547591127596e-01 -5.8350252986518074e-02
      6.6768320649874570e-03 4.5033217814835588e-02
      7.7943293058091792e-02 -5.8502937790884647e-02
      -1.0413963623711385e-01 -5.8132981880636300e-02
      -8.3634790924022206e-02 5.4359989749455363e-02
      5.1447420228906776e-02 1.1458969807438446e-03
      4.3429489783851548e-02 7.4110286056239247e-02
      -3.2876830551929200e-02 -1.1634437144300841e-01
      1.5255593804930754e-02 -5.2537971989758563e-02
      7.5813027889249943e-02 -1.5868606403778818e-01
      1.0760031372130696e-01 2.7044460349536583e-02
      -9.6261895768483194e-02 -5.9945895368749391e-02
      6.2287343643569457e-02 -6.9320229539205566e-02
      3.5135538212017092e-02 1.1051886824994517e-01
      -4.3110049726493181e-03 3.7395402520992813e-02
      1.1225695470647423e-01 -4.4708741714822392e-02
      -7.6642456789923041e-02 5.1105055842031934e-02
      1.5554706644854066e-01 -4.3932028723262004e-02
      -9.4738541651643748e-02 -5.8637820685615676e-02
      1.5487383223957481e-02 -9.8015806738803460e-02
      -7.5236604863176168e-02 -1.4605967333204878e-01
      -3.8685478783286667e-02 3.5782718533233969e-02
      -1.1916396042268491e-01 2.9034907936848840e-02
      3.0026915520282495e-02 -1.9647364458229324e-01
      1.7117622172203661e-01 9.4493932129839558e-02
      4.5885846969868843e-01 -4.1743884327894191e-04
      1.6154221122994189e-01 1.8966027627630826e-02
      -8.9230923511446139e-02 1.5863889786420232e-01
      5.0657972271926730e-03 1.8211077431983226e-02
      1.5989030231305643e-01 -4.7916189215244979e-02
      1.6740464446750505e-01 4.2798955626677349e-02
      4.3934877878311254e-02 1.4010087005513777e-01
      -8.4964754325197303e-02 -1.7720122165691488e-01
      -8.2199341500285877e-02 -1.1730114814308043e-01
      -9.1563517400325110e-03 -1.6257084654836435e-01
      4.3136188068449807e-02 1.2024482264528076e-01
      6.5025551606391035e-02 -2.0559089840340716e-01
      -7.5481878497397875e-02 -7.2498767393665550e-02
      -4.4682152312629973e-02 9.4704609133175507e-02
      -7.4882031366355267e-02 3.2048712060726126e-01
      4.7746663192468571e-02 3.0423104711927723e-01
      1.2095026010786625e-01 4.8368094640768772e-02
      -1.4089838536986535e-01 -2.8336143999462202e-02
      1.7015980421036865e-02 -8.9956284136895007e-02
      1.8383575455298320e-01 -6.9728309201210120e-02
      -4.4855010575758081e-03 -1.2219845808943480e-02
      -3.7506348532058510e-02 8.9570470863418045e-02
      -1.3429501683823114e-01 1.7794975339735009e-01
      -3.3946646752042092e-02 1.8977479351597959e-01
      1.1755392903977228e-01 3.3081826604888349e-02
      3.3341263212841199e-02 -2.3451020874521680e-01
      -3.4040192563370646e-02 1.0559118146375358e-01
      1.1314863745529026e-01 1.4277546644453926e-02
      -1.6101442873874761e-02 -5.3016492744021301e-02
      -1.5156826605676069e-01 -9.3818793164420364e-02
      -1.9485082368663927e-02 -8.1482506151478132e-02
      8.6432304355377451e-02 -1.4909692479100992e-01
      -1.8101848481202942e-02 -1.4098058008208031e-01
      -7.9198573095001418e-02 -8.1485281436901175e-02
      1.5959668325034454e-01 -1.5553877924274187e-01
      -2.1453656110614852e-02 5.8636306027940933e-02
      -1.0508832044972417e-01 -3.0841565865109128e-02
      1.4038261677595237e-01 4.9015338219809253e-02
      -1.7948156285155052e-02 -3.3477751630114239e-02
      -8.9196578659237746e-02 -8.4927788723453287e-02
      -3.7134060322293189e-01 1.0207136647521851e-01
      -1.9170049903176464e-01 2.5838572221057093e-01
      1.1367154092589520e-01 -1.2338432627566509e-02
      -4.9169877284956920e-02 -9.1284327393606951e-02
      -5.2557274477003028e-02 -1.3559819437143442e-01
      -1.7353088573789213e-01 -1.8793597072595519e-01
      5.9315692728783231e-02 -2.4919710794368014e-01
      -6.2559433335102110e-02 -9.0609750855396479e-02
      5.2763144392383769e-02 1.3519315341453123e-01
      1.5445929278461345e-02 1.6898050075963947e-01
      -4.1678838048604082e-02 -7.2673137704913682e-02
      -6.7154873804913640e-02 9.9710444273369822e-02
      -6.9126584971416882e-02 1.1410790921522478e-01
      -1.3459920566605860e-01 1.0055739338579757e-01
      -3.2808411954224743e-02 -2.3905583290413485e-03
      6.0932940612198762e-02 -8.8788070642076167e-02
      -1.4949451252487486e-01 1.2967501353999325e-01
      -2.9357191657235562e-02 -1.3066425877077259e-01
      4.8977003765874903e-02 -3.9154824444309878e-02
      -7.9521529958486978e-02 -4.3392105276609805e-02
      -9.4893302751557565e-02 1.6555623768289729e-01
      -1.0863215150759517e-02 -8.1697737402347134e-02
      5.4813382280561936e-02 1.5255855764153834e-02
      6.9157788783066651e-02 -2.0279770547752973e-01
      -7.9436943415446229e-02 -1.2124068357797020e-01
      1.4351079316650625e-01 -4.8634518257004232e-02
      -7.7431280910864639e-02 -1.0822183728935581e-02
      5.7640889008272911e-02 1.0839253995977285e-02
      -1.7003744726082284e-01 -1.6164498722169526e-01
      8.0820497712861233e-02 -5.3931228587056380e-02
      -1.5351359398784939e-01 -1.3509836018676830e-01
      1.2654336738194877e-01 -1.3648246550380266e-01
      -4.0202346768238799e-02 1.2239975361974620e-01
      4.0080070277027841e-02 -1.3534423091284675e-01
      8.5025067115242561e-02 8.3046984851307404e-02
      -1.4038503649815218e-01 -3.8497982124007568e-02
      -9.9521801249640177e-02 -1.0739030099474979e-01
      -7.4729915856977261e-02 1.2640040378394451e-01
      4.8629345042113760e-03 8.1289130079516742e-02
      1.0543116672286269e-01 7.5608073230646763e-02
      9.3059666145191164e-02 -7.0994202293666722e-02
      -6.2738016752036441e-02 -1.2327502735087066e-01
      -1.0300242025349595e-02 -2.1981501780139101e-01
      -2.1543395078951996e-01 -2.1054055005756370e-02
      1.3799953422574790e-01 -1.9410938638515915e-01
      1.5896661243449589e-01 2.7169252527098620e-01
      3.7312924872133689e-02 -3.2614351475313844e-02
      6.3143494074135914e-02 -1.0037854972019603e-01
      7.1327761721631619e-02 1.2732097658017449e-01
      -5.6953102250948212e-02 5.9351246328349988e-03
      -1.0057154009925098e-01 2.3012688304673787e-01
      2.5407473096527045e-01 4.3032848645724167e-02
      -5.4010663036638519e-02 2.5509794929403432e-02
      6.5614087912529992e-03 1.1442732136258642e-01
      -9.7036149715765116e-02 7.1316017534093473e-02
      4.7531598441071458e-02 1.5148062415126368e-01
      -1.5647400848619257e-03 1.0323306948949132e-01
      -1.7096071346424233e-01 6.5210330791588347e-02
      -1.5258446917504321e-02 2.3213618185754153e-01
      6.6341277928014405e-02 -6.0978298846872905e-02
      1.2978829866005265e-01 -9.6213680875768245e-02
      6.5925355689396394e-03 -4.3488180415910779e-02
      1.8731425572061788e-01 1.6338529356782622e-01
      1.2514598989666577e-03 -7.4469608706510163e-02
      4.1032152570199987e-02 2.0489302780226034e-02
      -4.3704801429120713e-02 -1.7617820512591012e-01
      4.7561794523995775e-02 -1.3940484739945116e-01
      4.2909830843319681e-02 -1.4380623501381765e-01
      -2.9689558175800856e-01 5.2427896318877093e-02
      2.4302921321266802e-01 -4.2699554269586319e-02
      2.4434457371114503e-02 5.4912135664739889e-02
      -7.4270541034276244e-02 -1.2498436525297407e-01
      -4.4514957502288163e-02 -1.5303968525149692e-01
      -7.1031352632364458e-02 -1.4512071818359926e-01
      -9.1870462271527745e-02 -4.6287964515073048e-02
      -1.4972975408740533e-01 1.3554836414943866e-02
      -3.8065232613207850e-02 1.9466248353611132e-01
      1.1185434811965882e-01 7.4825291176030678e-02
      -9.8330227020670319e-02 -4.7795858082387399e-02
      1.0536741456246170e-02 -5.3254907211647461e-02
      -3.3578584598027045e-01 2.7886637311983885e-02
      1.1842718634430466e-01 -2.9152179687189271e-02
      -1.5128008864911816e-02 -1.2163591643742873e-01
      1.7348986510808520e-01 5.3912207787408128e-02
      2.1940568879929204e-01 2.1405568014356720e-02
      8.8437037810912278e-02 -9.9985203390597480e-02
      2.5158384803820971e-01 5.8626322047692171e-02
      -1.2254846876138022e-01 -6.1981147884983691e-02
      9.1111135353767150e-02 1.6841620351261471e-03
      5.0374926124640722e-02 -6.9085273623878243e-02
      3.2689505003702483e-02 7.0841950445613699e-02
      6.6696696001427441e-02 1.6392806726980566e-01
      -1.3647595539853474e-01 2.8019919819287455e-02
      -2.4061710213992695e-02 2.3027667476620255e-02
      1.0905581817673507e-01 -1.2854107897142136e-01
      1.0748882139497876e-02 1.1273459837664558e-01
      5.9923029410440525e-02 1.8850316898047917e-01
      1.0654768055869231e-01 2.4704426632399103e-02
      -7.1444358512342682e-02 -1.8004991405361578e-01
      1.2057741378921456e-01 1.1387971015294465e-01
      -4.9717693905702416e-02 -6.7549610119371800e-02
      1.5302979386883606e-01 -7.9621955115496690e-02
      -3.7686072289555332e-02 1.6808631808432884e-02
      6.5291511590653786e-02 -1.9291879120796918e-01
      6.2061824969896894e-02 1.0979431573124394e-01
      -9.9328935621198461e-02 3.9296650161655591e-03
      7.8354992369103954e-02 9.1507515082084767e-02
      -2.0681779288567922e-01 -1.3946730797960968e-01
      -1.2888148018484183e-01 3.1670235376244853e-02
      8.2333153772789949e-02 -1.4743776416808196e-01
      -7.2047237799015140e-01 -1.0328263092881648e-02
      -1.5728463291824153e-02 -2.3595993268643693e-02
      3.9462316264569725e-02 -1.4338925387339954e-02
      7.9029602150220007e-02 2.7503194538926353e-02
      -5.8166614339992912e-03 6.3304269713884628e-02
      3.7217178443355960e-02 3.9811518944152927e-02
      1.3883558072960889e-01 -8.7982939624048573e-02
      -1.8201739129609987e-02 5.9849226212107788e-02
      -8.8699452945559962e-02 4.5374014064322607e-02
      -7.9283408039650491e-02 1.0414426538046406e-01
      7.7499979364928917e-02 1.7891777681887763e-03
      -4.7375290361202096e-02 1.5627954183392509e-01
      1.2677318879529739e-02 -2.7066917721825297e-02
      -1.0039225006336075e-01 -5.0950310743584332e-02
      6.3625773254582130e-02 3.6054505406939741e-01
      8.2782424669783847e-02 -2.7428966190717365e-02
      8.5353627702895285e-02 6.4279102924296172e-03
      -9.6016319025077901e-02 7.5934554125202891e-02
      7.3993991679337207e-02 -1.2566104000015504e-01
      8.8035045734303388e-02 7.3155320614367136e-02
      -1.8858601591576826e-01 1.3132473841206652e-02
      6.0451130514075663e-02 8.4449256434255826e-02
      2.3965597886559140e-02 1.1989088745320320e-01
      1.4935740542862092e-01 5.4772109079092017e-02
      1.6209168767965182e-01 8.9050214837002664e-02
      -6.9772728867123976e-02 5.3775433479521295e-02
      1.5014057734047279e-01 -2.5579224607311737e-02
      1.4858729324264880e-01 -2.2594012732446120e-01
      8.3842056108240332e-02 1.3411172004623365e-02
      9.0873327516659164e-02 1.3839872148509094e-01
      8.0745622523307817e-02 5.5550608005386547e-02
      -9.9906408151017936e-02 4.6475865086205201e-02
      -2.0932328541768272e-01 7.0972329633749456e-02
      6.2573069456948079e-03 7.1034649817910689e-02
      -1.0744359786576904e-01 1.1732455887253357e-01
      6.1709879202443363e-02 2.1229328908423886e-01
      6.9157924422903944e-02 2.6590551355074134e-02
      5.8181360420273762e-02 -1.4800689709468526e-01
      1.1728868038153227e-01 1.4035396179912654e-01
      4.0597324491345524e-02 -4.2659660431129925e-02
      7.8821804868049752e-02 -9.4178954125665973e-02
      -2.8764061952312438e-02 -1.1891971737739436e-01
      1.0078677462800962e-02 -1.2761972328492825e-02
      1.4041136286304015e-01 -1.1133071889463756e-02
      -3.0351253609891656e-02 1.8159606898181435e-01
      1.8071022114032168e-01 -2.0721746385481862e-01
      7.4362386843973144e-02 -1.2227471446556297e-01
      2.6231249319756803e-02 3.3981907114997205e-02
      -1.0593651295132947e-01 7.6789959008038908e-02
      -2.8350435118579972e-03 2.0815252641348987e-02
      -4.0015694083785858e-02 1.8419674235777267e-01
      -2.3590660504523020e-01 -1.4772084423872708e-01
      -2.7310985879998717e-01 -2.7336218961275267e-02
      -8.1665133888729521e-02 4.9564283375461919e-02
      9.1703532977256641e-02 -7.5414541711407934e-02
      2.3810318501017999e-01 3.8931236479256871e-02
      -1.4751810201401305e-01 -8.1795741052725135e-02
      5.4028436767468269e-02 -1.0853253271398497e-01
      1.5609032412088855e-01 1.9229186246455691e-02
      4.8819465619169243e-02 8.4849428582021033e-02
      1.9571586475790678e-01 -6.9928722915869393e-02
      -2.2821745869348396e-02 1.3416670661419397e-02
      1.9962210914082745e-03 -1.1565386623519912e-01
      4.2484827646889427e-02 1.2117327922860854e-01
      1.0080163536407585e-01 5.6203567855279371e-02
      1.6494662931710515e-02 1.3154078808244310e-01
      2.7695993700298082e-02 -8.2868786232729696e-02
      -1.7850119675179016e-01 1.2386875659371324e-01
      -3.8141545247652089e-03 -2.0111831893270590e-01
      -8.0409930579319212e-03 -8.0920593054080961e-02
      1.8599050197692368e-02 1.1524660042260788e-01
      -7.7069787018261296e-02 -8.8035117009058542e-03
      -1.5113844087111635e-02 -1.5915642084163576e-02
      7.4972692773162625e-02 -4.7450504751582412e-02
      1.0871940219315381e-01 2.5312673089004010e-02
      3.4953379224718745e-01 7.2939313523170374e-02
      2.1616638459908014e-01 6.7927852942270120e-02
      1.1247398681520143e-01 5.4884963260606309e-02
      -8.0845230479193064e-02 -1.1081108090652882e-01
      2.2888256401615517e-01 -6.2036368591268071e-02
      1.1924096904884482e-01 1.6797683676609634e-02
      -9.3424938092960749e-03 1.5188727144969327e-01
      1.3328537983595706e-01 -9.4544053830445174e-02
      -9.2705848410627831e-02 -4.3955129436765578e-02
      4.5921651070138486e-02 -7.1402227059338699e-02
      -5.7701951304850882e-02 2.2252470435726875e-02
      1.0085974040511701e-01 -1.4255024381718770e-01
      -2.2823684728291573e-02 -3.1934238988516510e-03
      3.0494011675496861e-02 5.6716687459437483e-02
      -1.7411192629183343e-02 1.8094312916938912e-01
      -1.6792911770692331e-01 -6.2816120940561637e-03
      1.6856877359881683e-01 -5.3084079419436075e-02
      -8.2349713823069715e-02 1.8249554745292985e-02
      -1.0593836232997331e-01 1.9102012286930571e-02
      1.7128213106188514e-01 5.4373955112025987e-02
      4.0799387277898336e-02 -9.2733792552421854e-02
      9.0367815125909287e-02 1.9533669875093522e-02
      6.0291307679948454e-02 1.4645071307809188e-01
      4.7795608618690838e-02 -5.8188783137730305e-03
      1.9803817295078268e-03 1.4170549225704834e-03
      -4.2280410514974838e-02 1.6202606399072510e-03
      -1.2711370603270239e-01 2.5489836026537127e-01
      7.9787698073438981e-02 2.6996079540563239e-02
      -6.0255192367250895e-02 -3.5912234756209755e-03
      -8.8093947473349699e-02 -1.0982001134726161e-02
      -5.3900782554213968e-02 7.6004222081246978e-02
      6.1474080421211559e-02 -5.3753051396380133e-02
      -1.3052066918669231e-01 5.2923103842214998e-03
      1.0643875064866462e-01 -1.9003343607759074e-01
      1.3312848736885055e-01 -1.3899381034914446e-01
      1.0473757556011244e-01 7.2930721238171473e-02
      -7.6656637487292553e-02 -1.2995151789037782e-01
      1.3698547891766927e-01 1.1793390929002324e-01
      -2.7526094335276873e-02 -3.4480490978528164e-02
      1.2809719107082741e-02 3.3053496493411758e-02
      -2.0708526168966362e-01 2.2155584656189439e-01
      -9.5275184052578024e-02 -1.2049191619433972e-01
      -3.3109642799579811e-04 -1.3767756949523957e-01
      -3.0998502277147528e-02 -3.8282597866420243e-02
      -5.8639451999843009e-02 -1.1334497060064029e-01
      -1.3028594882595051e-01 -1.9140106954709349e-01
      6.0695037186578024e-02 -1.5508680376412762e+00
      -1.3533396079243751e-01 -5.2944711365163960e-02
      -1.8034374597808578e-01 1.7473423862473972e-01
      -1.7277872957118615e-01 6.8818869317677500e-02
      4.1541486084602917e-02 -1.3145353471180551e-01
      5.7321496870082714e-02 1.4565449847964354e-01
      5.1744672942253156e-02 4.3995320734249201e-02
      -7.2494004599854930e-02 -1.5518466517063692e-01
      2.3126062938451035e-02 -1.5941214993683939e-01
      -1.3489490648602978e-01 -2.4314234144187850e-02
      -8.5656201576045046e-02 1.1655248079148925e-01
      1.3069478664835940e-01 -1.8876480812362350e-03
      1.2890754879182917e-02 -5.4691943552840690e-02
      -9.9757280181967153e-02 -1.0969839596118731e-01
      -2.4122329451105682e-02 6.4656309848374158e-02
      9.2906986592075455e-02 -2.0665510131511786e-01
      -1.7372648227006110e-01 -4.6640021834060241e-02
      -1.1252487176045436e-01 -5.9955935938556484e-02
      -1.2675550928705390e-01 -9.8954159837890091e-02
      3.4986614808441951e-02 -3.2035083677500700e-02
      -1.3365445617544144e-01 -1.8795864747859695e-01
      1.1661202625079706e-01 2.0522284303509719e-02
      -1.2468902619688406e-01 1.0530184629661000e-02
      -2.6516050216372761e-01 -3.2048651974064965e-02
      -4.0292251781616918e-02 -9.7981351092374935e-02
      4.1385220722689998e-02 6.8126248303899642e-02</_>
    <_>
      -4.7016382333621730e-02 -1.2361738621071315e-02
      1.3847780147289493e-01 8.4700982556608087e-02
      4.6302451606994754e-02 1.5437329522517715e-01
      8.9319632160635001e-02 1.2627930178023182e-02
      9.0344295511513642e-02 1.3029451388357522e-03
      -2.4455918228118398e-01 5.1050318371604037e-02
      -1.7808386119319619e-02 -3.7454695308841622e-02
      -3.2324848080080015e-02 1.7962060396786364e-01
      3.0042203822680462e-02 4.9640514778277113e-02
      -8.9408002440093448e-02 1.0901019435421196e-01
      1.4489924162437684e-02 -4.3452898153655925e-02
      -8.6019410277045058e-02 1.9861717414038412e-02
      1.5451520539989393e-02 3.5422982036393054e-02
      1.0910621388050689e-02 4.0681872795904878e-01
      8.7020592757058646e-02 -1.8661504565975390e-02
      1.0664981868663256e-02 -5.2583294597942642e-02
      -1.4562853321347885e-01 -1.9050139635794522e-02
      4.3347654666225567e-02 7.9745673082651888e-02
      7.9845338570722568e-02 -1.0112667476705572e-01
      -5.9790740158876060e-02 6.8181139600922286e-02
      6.1441161406456578e-02 -2.0436742347565579e-01
      -1.1827249676032917e-02 -4.1298600095333249e-01
      7.2562551387206228e-02 -6.9689735020526042e-02
      -5.2066240258959534e-02 1.7589866933664936e-02
      -8.2164201421930233e-02 -3.5301486225286068e-02
      5.3705066795078873e-02 1.4345828175701920e-02
      -1.0967818152057809e-01 6.7968675753172780e-02
      1.5300059337312620e-02 8.6945982693679702e-02
      -1.8327956197980621e-02 7.2190345324472105e-02
      7.5652359985900502e-02 -2.4072533867737264e-02
      -1.6824411541206997e-02 3.4446524485593447e-02
      -4.2536118323833541e-02 -5.4021665384846471e-02
      7.5759657161731553e-02 -7.1454232224351158e-04
      -1.4637000852843376e-01 1.3384882661803971e-01
      6.6464267972300636e-02 4.4842111939504124e-02
      8.6098512368835770e-02 -5.0383522986573455e-02
      -2.5562924464715583e-02 2.7887523846183954e-01
      6.8856707662571515e-02 -2.6692595653438962e-02
      -6.8118437562894346e-02 -5.6254241582260889e-02
      -1.6214903703343681e-02 4.1402178045859564e-02
      9.3973346047843132e-02 -1.7875727955302328e-02
      4.4502621439887917e-02 -6.8634573556653044e-03
      -9.5554881222498439e-04 -2.8942270385825003e-01
      6.1027174284389904e-02 -3.2184868000837578e-02
      3.7061962644658365e-03 2.8286704536096493e-02
      1.5376487054194298e-02 2.1422929266679779e-02
      2.8633880391702164e-02 1.6540483883562673e-02
      1.1287577558595240e-01 -1.5083409478232574e-02
      8.3167955090186055e-02 2.4785541991347151e-02
      -3.5055687652815526e-02 -9.8885193204435794e-04
      -9.7900703158952003e-03 -5.4257960566699584e-02
      4.0615007828628411e-02 4.8093265033706652e-02
      6.2265201115796920e-02 1.5976212219809046e-02
      2.8737148893963820e-02 7.0488343292201314e-02
      -2.2864066825032153e-02 4.6427983812369379e-02
      -9.6134728232754665e-02 -5.2691494066000447e-02
      5.7865967298895690e-02 2.8182963855874335e-02
      3.5989126244083409e-02 3.4277411397258028e-03
      -1.1199326506474640e-01 -8.8245985391070137e-03
      -1.9351440854254931e-01 3.5431894954980572e-02
      8.3696978050518858e-02 -7.3534324496779782e-02
      3.5361199853218797e-02 4.0310126962679145e-03
      3.3051048588006116e-02 3.1072106341173446e-02
      1.7920958664655075e-02 -2.6432354645573086e-02
      -4.9317732693406578e-02 1.3717706101298079e-02
      -3.7128949947306401e-02 -2.7005134806863729e-02
      8.1285956276441196e-03 8.0958660364293569e-02
      -1.0890613278603592e-02 -1.7904336437350472e-02
      -1.8181762328311354e-02 -5.9274867544548478e-02
      4.7801780790355422e-02 -1.3774497140633833e-02
      -1.3182462399734822e-02 -3.9485743835258776e-02
      -8.9959205398027584e-02 1.5078747828288575e-02
      3.0903902804368815e-02 5.7051913416776706e-02
      5.1045853918666784e-02 3.4065802271808061e-02
      1.4222954405818647e-01 2.0525419338339120e-02
      -2.7891847417912775e-02 9.9824327069252469e-03
      -5.7235613051247726e-02 4.5196842540124266e-02
      1.0420876650462067e-02 -1.0455569524523325e-01
      -2.5015916879776900e-02 1.5981544308740672e-03
      2.1384885015118371e-02 -3.8525089880572051e-02
      -1.9694990609886845e-02 -6.2508508224059539e-02
      1.0143834802948722e-02 1.7936289766073324e-02
      -6.2071624034694328e-03 -2.7820416847867940e-02
      4.5109095427772507e-02 -2.4423694129496337e-02
      3.3780333891909181e-02 1.2594346712063583e-02
      2.1386442857729867e-03 -1.3984950214251909e-02
      1.0760273625884309e-03 -9.1848132468769373e-03
      6.2468228512850305e-02 2.7352270895756498e-02
      4.9851343510558723e-03 4.9682244998660779e-02
      -2.4300111584716285e-02 -2.9173999803703870e-02
      -7.0332714327903641e-03 -1.4787970423964316e-02
      -1.1839505208712248e-01 8.8640049494451118e-05
      -1.3059675886085764e-02 -2.3935800211295218e-02
      -2.0121302721589244e-02 -2.5831980006931383e-02
      4.9486381080054404e-02 -4.6132479667089325e-04
      3.9203105672725398e-02 2.0823507689925304e-03
      1.9032006043081195e-02 1.1716593323289934e-02
      -7.9115888332797688e-03 1.7040783257835593e-02
      -3.7054817033582980e-02 4.1157701355832937e-02
      4.3885288754193008e-02 -1.2932253433929942e-02
      5.7422293183762036e-03 -4.5324517172766150e-02
      4.9560890778112899e-03 -6.4258806035947413e-02
      -1.0308381365624789e-02 2.9819288344775006e-03
      5.8516654580207340e-03 2.9080162286871593e-03
      -1.2714552240292146e-02 -5.8910839626794755e-02
      -3.1113333755607906e-02 2.7788780718242263e-02
      -5.8536582737997731e-03 4.8124508678704367e-02
      -1.0231545039626022e-01 3.6929280775152361e-02
      2.6731190066945021e-02 4.1958432819449810e-02
      5.3039435181984694e-02 -4.2665490217963120e-02
      -1.4047300834429061e-02 7.4063489750627723e-02
      2.2238598885260322e-02 -1.4783651986166599e-01
      -1.5067091662415783e-02 -7.3690531386875022e-02
      -1.1188541534855291e-01 4.2727717899714343e-02
      4.0719910956369197e-02 -3.2859534589270073e-02
      2.2437137033648621e-02 -3.6369190433772791e-02
      1.8056452030831713e-02 7.2806254719768329e-02
      -2.3578535426485549e-02 -1.6858525965368004e-01
      9.8536293129407565e-02 -4.7185348101486453e-02
      -1.8701757917783217e-02 5.4702371709975585e-02
      6.5884329425276713e-03 1.1035509028620100e-02
      -2.2125003711757723e-02 -2.2366119545229341e-02
      4.9909130546324787e-02 5.2774225640201670e-02
      1.8518729574646986e-01 5.4136606592841210e-02
      -5.6826099251425989e-02 -8.2704632661757038e-02
      3.3310253701835284e-03 -4.4243922749779806e-02
      1.1311146101381930e-01 9.9929063266763180e-02
      -3.0078724669083977e-02 1.4913883451303648e-02
      -3.2910507262948925e-02 -1.0509560246613106e-01
      -4.1506973335193910e-02 5.4370281920608395e-02
      -6.1315768648874912e-02 1.2455501881186359e-02
      -4.1573826418032381e-02 6.3235100029957988e-04
      1.9933472801645816e-02 1.3412258016274575e-02
      -2.1068584507057420e-01 -4.3458477858756865e-03
      -1.4579544480319886e-01 2.5104339222878004e-02
      1.2184541671733269e-01 1.2440604995766536e-02
      -3.1842870092612746e-02 -2.1525368977573369e-02
      -5.8273460112639626e-03 7.7971833580251976e-02
      9.1489038938371195e-02 5.0070278238778541e-02
      -4.2273510874864133e-02 2.5234241288124036e-02
      -3.9650176990397960e-02 1.8654895007322061e-02
      -1.7048175476265106e-02 -1.8131028478306839e-02
      -2.8335296069478731e-02 -5.9534564488189215e-03
      -7.9309911830255566e-03 1.5648121721260088e-03
      6.4211791253287062e-02 -2.7745151170413020e-02
      3.7380578297992401e-03 -1.8713182352687031e-02
      -3.0895637191884436e-02 1.6264580266906428e-02
      7.1467805327858153e-02 2.3457206827079306e-02
      4.4393575544287214e-03 9.5151657062249456e-03
      9.0313351990940316e-02 3.3465263204746333e-02
      -2.0681751055913566e-03 4.1233242023917219e-02
      -8.7567107421680876e-02 -3.9533542471815876e-02
      3.4753555711234750e-02 3.2770378557667464e-02
      3.4181347481201468e-02 7.7631255383982887e-03
      -2.1091321394337819e-02 5.2499698551582187e-02
      9.8942122081952508e-02 -4.3997404021680973e-02
      -7.3165081029336176e-03 2.0892661183394154e-02
      -1.1889508705483071e-02 9.3131348474664918e-03
      -2.2070683580059185e-02 2.3701320307927716e-02
      1.7240274193991503e-02 -3.8344955187244602e-02
      -3.3464564629204135e-02 -1.4392000920884749e-02
      -2.4641269059534145e-02 8.6858263144914630e-03
      -2.4873979360490435e-03 2.0204626870413127e-02
      3.0343254481684401e-02 -1.0365335410700099e-01
      -3.2414313939298056e-02 1.2882635284223884e-02
      -1.0408501300842588e-03 2.5059432583052162e-02
      1.4994337388260011e-02 -1.2780200670291647e-02
      8.3461398644271382e-03 2.2058921197386335e-02
      1.1093300744426568e-02 -6.8543532412274222e-03
      3.4392688838447614e-03 -1.9241043428015126e-02
      1.0213954280556129e-02 1.0258070673479173e-03
      -8.8054662313890447e-03 4.8353923454590685e-02
      -1.1960184313642135e-02 -8.4151309570326516e-02
      1.0356193710096238e-02 3.5272883693060679e-03
      2.1209263799101614e-02 -5.6646130726742613e-03
      6.3701210388505836e-03 -9.0040059799653491e-03
      -3.8618501140397297e-02 -3.2135791674950898e-02
      -1.0644574372583924e-02 2.6382127067593950e-02
      -4.6758321306132550e-03 9.9232839855633755e-03
      6.5418583992833809e-03 -8.3584584670574683e-03
      -1.9597795095465945e-02 2.7821138696359052e-02
      4.8333006538521708e-03 1.2459830290400290e-02
      3.6813865869775600e-02 -1.1586423509040517e-02
      2.2813756780472927e-02 -1.9068033737579211e-02
      -4.8294616150716101e-03 -2.4946975972761746e-02
      -2.1290441164553708e-02 1.4733783377609094e-02
      -2.0088085250706449e-03 7.9680820238328315e-02
      -2.0688666821981776e-02 1.2132503632842075e-01
      4.2118153578961426e-02 -3.6099453125748260e-01
      -6.3188422277534406e-02 1.8354190845718658e-02
      -9.2233315587912451e-02 4.0972437962654134e-03
      -1.0082051318105764e-02 -9.8769495639750182e-02
      1.6838915548183564e-02 1.9558239595903840e-01
      -8.4263575713044256e-02 6.4712230427684661e-02
      3.9699579114866261e-02 7.1233547650845523e-03
      -5.2761359503834565e-02 -3.9895205742931261e-02
      1.0556048679912467e-02 1.6196667467661221e-03
      -6.9737651432134826e-02 -7.3231109678009318e-02
      -1.2450770608064222e-01 -2.9633144977317782e-02
      4.8591501003524731e-02 8.6027315605794422e-02
      -2.2757262976264354e-02 8.4249769015872292e-03
      -3.1623026698417683e-01 -7.0729222980797798e-02
      5.0755907231876028e-02 3.5605464387369411e-02
      2.0333865195925879e-02 1.0121204585548466e-01
      9.9237995744106855e-02 -1.3593439053634160e-01
      -1.9650399418123909e-02 1.8698481081402901e-02
      1.6900562342402597e-02 -2.1937435259071103e-02
      -6.1914560427738012e-02 -4.3662294800308595e-02
      2.0023068288512763e-01 -2.2816336501687788e-02
      2.5453094307921281e-01 -9.3421091727606737e-02
      -1.2482314008766592e-03 7.9720207085224551e-02
      3.5591657138461248e-02 -1.3715928757485129e-02
      4.3456041865788785e-03 -8.8689679677728381e-02
      -3.4359202079887526e-02 3.0879199661171912e-02
      4.5709126415532701e-02 -5.3329756779277922e-03
      6.1631349935136375e-03 2.5828438728645819e-02
      -4.2879641210706775e-02 1.8367401108376414e-02
      3.4108794544084720e-02 7.3176926517931701e-02
      -5.4265827481549962e-02 2.6056551676615951e-02
      -4.5246387264199266e-02 6.3740015640055006e-02
      -3.5488765578188752e-02 5.5209624931438640e-02
      -2.7490653800269271e-02 -3.1361513570734197e-02
      -9.7007540910082721e-02 -4.6552346310996008e-02
      -3.3607122555136426e-02 3.7539254677189257e-02
      -3.9767832955679933e-01 -4.9075473192014878e-02
      2.7854322576168056e-01 1.0714839020211496e-02
      -7.8032176467877590e-01 -1.8844361603395793e-01
      -6.1231199377527419e-02 -7.8075393603100396e-02
      4.2619442758860628e-02 5.5393465677918167e-03
      -1.6524140861368056e-01 1.3849852234901561e-01
      2.5639561242513054e-01 -1.6096585322986776e-01
      1.0019706841736761e-01 7.7173319134476726e-02
      8.0163067172485211e-02 -9.3895625326347584e-02
      -1.5682277834579109e-01 7.7012736127185288e-02
      -5.9594130180780837e-02 1.2850205319375380e-01
      -4.1391971809404599e-02 -1.2606559007861064e-02
      6.4843345966316121e-02 7.9774158688823010e-02
      1.4136089171926691e-01 -4.3230189977467519e-02
      -1.3453911367633578e-01 -3.7097150641636667e-01
      -1.0292221452180943e-01 2.4606073404824114e-01
      1.1538036492903032e-01 1.6759252866417731e-01
      4.9267138154058915e-01 2.3106861012592422e-01
      -3.7173503303045630e-01 -5.3691541104350309e-02
      -1.7075402257034220e-01 2.3861874409059878e-02
      -1.7347495979704597e-01 -2.4482117699138540e-02
      -1.0545766695189433e-01 1.5900887741230862e-01
      -5.7463894984221615e-02 3.8089985306216639e-01
      -2.8513543813458903e-01 1.4414685749777489e-01
      8.8961020503444926e-02 -2.1280480603052800e-02
      -1.0571368008109087e-01 9.3757417329523557e-02
      -1.6220619229173278e-01 -5.6607363479306255e-02
      -6.6198983756557694e-02 2.9589913191189959e-02
      2.2265332174092808e-02 -2.2697791326651933e-02
      -1.8108382288162597e-02 -9.8599624888984314e-02
      2.4437501127367992e-01 1.8276464180917654e-01
      1.6901753573557302e-01 -1.6061058985776211e-01
      -2.5787174122742933e-02 -1.7902368706900987e-02
      1.0108179256446950e-01 -1.7521402061016453e-01
