<?xml version="1.0"?>
<opencv_storage>
<opencv_ml_ann_mlp>
  <format>3</format>
  <layer_sizes>
    23 125 75 75 10</layer_sizes>
  <activation_function>SIGMOID_SYM</activation_function>
  <f_param1>6.6666666666666663e-01</f_param1>
  <f_param2>1.7159000000000000e+00</f_param2>
  <min_val>-9.4999999999999996e-01</min_val>
  <max_val>9.4999999999999996e-01</max_val>
  <min_val1>-9.7999999999999998e-01</min_val1>
  <max_val1>9.7999999999999998e-01</max_val1>
  <training_params>
    <train_method>BACKPROP</train_method>
    <dw_scale>1.0000000000000000e-03</dw_scale>
    <moment_scale>0.</moment_scale>
    <term_criteria>
      <iterations>1400</iterations></term_criteria></training_params>
  <input_scale>
    1. -2. 4.3063845746333707e+00 -2.7921089719231746e+00
    9.1056008668327841e+00 -2.3858959025878379e+00
    8.8122114646414431e+00 -2.3269498509009940e+00
    8.9391614693256525e+00 -2.0942619081700533e+00
    8.5255210259265422e+00 -1.3584131368912808e+00
    1.6787679009784249e+01 -1.5663345789270597e+00
    2.9979511297397615e+01 -1.8753929992597318e+00
    3.9701503636914190e+01 -1.8898993333563880e+00
    5.1434998233097218e+01 -2.0715259645341271e+00
    5.9516446619750681e+01 -1.9210069024057113e+00
    6.9609817000246707e+01 -2.1394324624040197e+00
    8.0658050365144604e+01 -2.0539534473495342e+00
    8.0269050122219056e+01 -2.0366400036505348e+00
    9.0432022145845778e+01 -2.0271426814194062e+00
    9.7083916355504741e+01 -1.9378455860420112e+00
    1.0226064341861245e+02 -1.8858491488782807e+00
    1.2293366562585314e+02 -1.9375469627284112e+00
    1.4328909751100429e+02 -2.0226025793540940e+00
    1.7070375493479219e+02 -2.1570833686984234e+00
    1.8517221798611109e+02 -2.0967679848407674e+00
    1.8429892989601746e+02 -1.9887934490745176e+00
    2.0756545241453821e+02 -2.0659416475955834e+00</input_scale>
  <output_scale>
    5.2631578947368418e-01 4.9999999999999994e-01 5.2631578947368418e-01
    4.9999999999999994e-01 5.2631578947368418e-01 4.9999999999999994e-01
    5.2631578947368418e-01 4.9999999999999994e-01 5.2631578947368418e-01
    4.9999999999999994e-01 5.2631578947368418e-01 4.9999999999999994e-01
    5.2631578947368418e-01 4.9999999999999994e-01 5.2631578947368418e-01
    4.9999999999999994e-01 5.2631578947368418e-01 4.9999999999999994e-01
    5.2631578947368418e-01 4.9999999999999994e-01</output_scale>
  <inv_output_scale>
    1.8999999999999999e+00 -9.4999999999999996e-01
    1.8999999999999999e+00 -9.4999999999999996e-01
    1.8999999999999999e+00 -9.4999999999999996e-01
    1.8999999999999999e+00 -9.4999999999999996e-01
    1.8999999999999999e+00 -9.4999999999999996e-01
    1.8999999999999999e+00 -9.4999999999999996e-01
    1.8999999999999999e+00 -9.4999999999999996e-01
    1.8999999999999999e+00 -9.4999999999999996e-01
    1.8999999999999999e+00 -9.4999999999999996e-01
    1.8999999999999999e+00 -9.4999999999999996e-01</inv_output_scale>
  <weights>
    <_>
      -7.3276274333934438e-02 4.6365065882576183e-02
      3.3021299636672247e-02 6.5292098038584698e-02
      -3.8683323295415198e-02 2.2183031239372417e-02
      6.0238727066489001e-02 -3.9660943684388080e-03
      -9.1305222740376751e-02 -6.2043753563672248e-02
      -6.4699624344172396e-02 -6.2049673427477386e-02
      4.5763089814132962e-02 8.6304919161631619e-02
      5.8642888858504577e-02 5.7449475519839331e-02
      -6.2674763200850220e-02 -3.0475554425049567e-02
      -3.6959945822560084e-02 6.3521808709916333e-02
      -5.2993044913860733e-02 -6.4429857228614273e-02
      2.3557111104254059e-02 -3.9340920822800524e-02
      -1.0141082575154742e-02 -2.5486818010368378e-02
      -6.5347681779553871e-02 6.3198102223156513e-02
      -8.7861299370344328e-03 3.2208283565842551e-02
      2.5987987058232669e-02 3.0296009201308614e-02
      7.9919652938215638e-02 5.4028272043875419e-02
      5.7100166316692326e-02 -7.7280328058814712e-02
      -1.3934591981918180e-02 -6.5766497783591713e-02
      -6.5104441585867312e-02 1.0907309359339194e-02
      7.4784748773378845e-02 4.1227395092765073e-02
      8.1400689769324533e-02 1.4755331247203275e-02
      6.2409894536218403e-02 -7.8373715090428564e-02
      8.3987315213565616e-02 -3.7017014783249681e-02
      2.6947774510008619e-02 6.5294895665331865e-02
      5.2180571523932816e-02 -6.3529861104316743e-02
      4.2683812431459960e-02 8.4656866392540012e-02
      -2.6564062440383986e-02 5.0029294258217699e-02
      1.1772338831383886e-02 -4.3010108143802413e-03
      6.6677946728673040e-02 6.4622064101418866e-02
      2.3745668859097895e-02 7.6693086875193953e-02
      5.8552492632922351e-02 -7.9076657042695786e-02
      -8.5167053608154325e-02 7.9965534320793646e-02
      3.3298617821276459e-02 5.3905576701300043e-02
      -3.5563546872627597e-02 2.2097430803319520e-02
      1.2426667425795858e-02 7.9133515664426030e-02
      -3.8648760855965393e-02 -7.7589800713226506e-02
      -6.6226936256963992e-02 4.3497986767453374e-02
      -2.3786619529088383e-02 9.6765214512035222e-02
      7.2189191765981583e-02 1.5980847081160571e-02
      -5.8135867030686676e-02 3.8937574519078061e-02
      4.5745276031717533e-02 1.2711194626392131e-02
      2.8351972003432019e-03 -5.3015624480332701e-02
      3.4603244681625719e-02 -4.7320733037085477e-02
      -6.4164431289719243e-02 4.3913035338914393e-02
      6.4896130229453480e-02 -6.5395628256423130e-02
      4.4041912254787527e-02 1.3142362727908894e-02
      2.2515260871561086e-02 4.9897481504283893e-02
      -6.0111047015259718e-02 -5.6111030894862843e-02
      6.9930560919237425e-02 -5.8914871977388136e-02
      3.5083140653579294e-02 -7.4387673867868764e-02
      5.5194862165904843e-02 2.8314303876797054e-02
      -1.0889898674468637e-02 -1.5607975502275278e-02
      -4.3399453526207311e-02 -6.3567221004059773e-02
      1.4191840433674540e-02 2.2561814314889697e-02
      -1.0718251108509541e-03 5.0554041920085474e-03
      -9.4009504473765243e-02 5.3918346639758433e-02
      -5.8933301874021161e-02 -8.1071705557375598e-02
      5.9917173817351128e-02 -5.1903634535406383e-02
      9.0013080155500441e-02 4.5679832919612251e-02
      3.1988303846365154e-02 -7.1784872453308668e-02
      3.7119690651250974e-02 -3.1018631021987424e-02
      3.8179812944120761e-02 1.6903608314144696e+00
      -1.6873476550936678e-01 -1.3267619016790683e-01
      -2.4469963925326280e-01 1.0100101862085547e+00
      2.3519524486146734e-02 -1.8781479922074321e-01
      -3.7334880666240855e-02 -2.1275751237323140e-01
      -1.7069903827444088e-01 -2.6041542400382328e-01
      -2.4641886589739917e-01 3.3003527722261901e-02
      -8.9005848614479771e-02 2.8622072604518495e-01
      -1.3264114116971107e-01 3.1259828464991457e-01
      -1.6048142402532864e-01 -4.3373450658743075e-02
      -9.8381265525735576e-02 -9.0258294984801601e-01
      1.4121513584932052e-01 2.6756328940257640e-01
      6.8065742929171752e-02 -2.9188475551923432e-01
      -2.0765973974361376e-01 -1.0678302216097217e-01
      2.8518499915631229e-01 -9.0561497212277797e-02
      1.8944119766925535e-01 1.6509953633300634e-01
      -6.4362304882796706e-02 -2.4822791352847148e-01
      -5.7237648627388366e-02 4.6284765486391224e-02
      -1.4793519108092720e-01 -4.8819076752286486e-02
      -9.0385579154502099e-02 3.0421243532801562e-01
      -1.4516143115613606e-01 1.3298226325092111e-01
      -3.0420781666701585e-01 2.9243189742052828e-02
      1.6787402106085128e-01 -2.4292798899252090e-02
      1.9960861624039877e-01 1.3294113427562332e-01
      -8.1671519899936429e-02 9.2069828918648608e-02
      -2.4322416520034068e-01 2.9883101093088876e-01
      2.9642214069341899e-01 1.2601557371418373e-01
      1.5637170071879844e-01 4.5658422124258788e-02
      1.5669294984269663e-01 -1.4943003544517822e-01
      3.1399555322159473e-01 1.6515317929900586e-01
      -2.6107120936521616e-01 2.8697139940722288e-02
      1.4093024635774215e-01 -6.5748298464628008e-01
      -9.5682229081537739e-03 1.3076172398513408e-01
      -4.8309193838754838e-01 2.1465671995890687e-01
      2.1974140056107258e-01 2.6760974450687956e-02
      -1.3076773715810272e-01 3.1633796836740352e-01
      1.9897062251831923e-01 8.3368851921620898e-02
      3.0647827252749033e-01 -1.0780121511781966e-01
      3.1675179988906360e-01 2.8412080705671988e-01
      -4.0224591416968736e-01 9.7033003589413608e-02
      4.3354040179136949e-01 -3.6614446923110344e-01
      2.8438751390073314e-01 1.2809626498981913e-01
      -8.6033989397037908e-02 -1.2971884235112346e-01
      -3.1882371320881653e-01 4.5383197124024255e-01
      -3.2531118682157595e-01 -2.2545839800593975e-02
      -2.5296519283402152e-01 1.3045120028040862e-02
      -1.2497332676423563e-01 6.7962634149031997e-01
      2.2330691997813318e-01 -1.3837526230650288e-01
      -1.4316638779033953e-02 2.8308786807693015e-01
      -2.0623397136754146e-01 -2.3562600501180131e-01
      8.4322852366427850e-02 -2.4758319948328741e-01
      -1.1646656128172969e-01 -2.9623887538718230e-01
      2.4866523535711373e-02 -1.4363389669455032e-01
      -7.0687685409633202e-02 1.9331583961757712e-01
      6.7776505095433329e-02 -2.7116365428367456e-01
      -2.7048335690925707e-01 -3.9337681324275543e-02
      2.3705290147501164e-02 -3.3208031284985906e-01
      6.6324715830944569e-01 6.0449753001591604e-02
      -2.8964542586037173e-01 -2.1164247604441265e-02
      -4.3656467785756589e-02 -1.1524616920653100e-01
      1.4015115297750314e-01 -2.1542036797539560e-01
      2.9337270218615593e-02 -7.8340182124194441e-02
      -2.3713059948148343e-01 6.1058287712971060e-02
      -5.8909022504092423e-01 -2.5476372200253994e-01
      -1.4556214616174534e-01 -7.9570479919462894e-02
      -3.6978048120972266e-02 2.2686801034225551e-01
      -1.6947724520107565e-02 6.5290926179626119e-02
      2.4724226525485843e-01 1.9376514083449942e-03
      -1.5351216005617832e-01 -5.0985130955309425e-02
      -5.4156635774342224e-02 -7.4339016380338102e-02
      1.9871580300352060e-01 -1.6727998613407111e-01
      1.4135891010399884e-01 3.0744387686327873e-01
      1.6842362654202198e-01 -2.5647269428299319e-01
      -4.5115076918887755e-02 1.5348359170227538e-01
      -4.0375509093007989e-01 -5.0116052150334456e-01
      -9.8528549240698857e-02 -4.1533466591828209e-02
      -2.9430972559469165e-01 2.3968894483339620e-01
      -2.6358521346858060e-01 1.7344332441500926e-01
      1.0314729726491087e-01 2.5557521892448001e-03
      -4.2398725614316408e-02 4.4629890940577821e-01
      -3.1568739262122542e-01 4.1358996669582274e-02
      4.3493611913919414e-02 -6.8589530077206140e-01
      -1.0006198519238214e-01 -3.3978914728800859e-02
      -1.9808257516085487e-01 1.2491755634797759e-01
      2.3345439940891610e-01 1.6643236447505386e-01
      6.3838774068933984e-02 2.5768435526824429e-01
      2.7510067735511551e-01 1.0603509907442170e-01
      -5.6454819889388587e-02 -1.5579515053765913e-01
      1.8797548673971096e-01 2.0861151524463711e-01
      2.2459386170199333e-01 3.5944340652288648e-01
      -4.1097321732996156e-03 -2.8047907506199218e-02
      -4.5717639482231245e-02 3.0314540331764822e-01
      1.0552881118767515e-01 -5.2297753768037636e-02
      2.8759028899462576e-02 -3.1710560397837961e-01
      -8.9235705882461547e-02 -2.4591986886780337e-01
      -6.3120962065962238e-02 -1.7035305084070429e-01
      -5.1475816764133729e-02 -4.0334166511953769e-02
      1.1750815359970394e-01 -6.6170816228739396e-02
      -4.7205857818710301e-01 3.6635543134200824e-02
      2.1798778371095694e-02 -4.7031934020457813e-02
      -2.4647875386332532e-01 -7.1643280149297106e-01
      2.1087077241235017e-01 -1.7601118300726804e-01
      3.2274779003984194e-01 -1.2270567135117168e-01
      1.0574255689539683e-01 -1.1050590182083654e-01
      -2.5527876411045930e-01 3.9523753603445821e-01
      -4.1716169409271586e-01 -2.4325999302427490e-01
      -3.7107484386441941e-01 5.1477626627372042e-01
      2.9325856375385956e-02 8.7784382724406529e-02
      -1.5315904988155682e-02 -1.5939024680756073e-01
      2.8434819000121109e-01 -1.3006870089316666e-01
      2.1265490511534071e-01 1.6005514471204643e-01
      1.0600448087645402e+00 8.7552594550192611e-02
      -2.2963189089225619e-01 5.0925138927940448e-02
      -1.3244846299791111e-02 2.0489911380726261e-01
      -2.6562067300823439e-01 -3.7403253644046945e-02
      3.0456384777773546e-02 3.9898785610266545e-02
      -4.4031619206661911e-02 -4.8586296846692363e-02
      -2.5997189498070239e-01 -1.6052485661673283e-01
      -6.0816818287308679e-02 8.3624927462025475e-02
      -1.7428695911407660e-01 2.9038579019713978e-01
      -2.7909174474234102e-02 1.8692352829719064e-01
      -1.9870509646450457e-01 -2.2082391070430551e-01
      1.0732109418439958e-03 2.7799365590630526e-01
      -4.4392269811780516e-01 -3.9743526861252565e-01
      6.6977915889915807e-02 3.2292419070545003e-01
      9.2533660571230164e-02 -2.6088839476326620e-01
      -1.7202383834935234e-01 -1.6971395538509969e-02
      3.1410844422907973e-02 -6.3687514078476304e-01
      6.7905101617742358e-01 2.0604224891581510e-01
      2.6075610395422549e-01 -4.1464863550097653e-02
      -5.0576642568207750e-02 -3.6903439682965034e-01
      -4.7256795513564143e-01 4.7511988079061684e-01
      3.9782183238284219e-01 -8.7675969772255935e-01
      1.0354688218043648e-01 -1.5393476389511954e-01
      3.2153966295541769e-01 1.9635406021734780e-01
      -7.1540751594751006e-01 -5.5996228646829294e-01
      -1.8074522572538609e-01 -5.8075762475302395e-01
      6.5151220815606870e-01 6.2813318577046651e-01
      3.1303077916912003e-01 -1.2304126139111522e-01
      3.0800967496010978e-01 3.2077537006487189e-01
      -1.9334643583895542e-01 -8.9486135584557428e-03
      5.6475885573556583e-01 7.5156240629359206e-01
      4.1069523119671619e-01 -3.0122721554848469e-01
      -6.8373030048319416e-01 -2.1272631703021622e-01
      -2.4413281588613586e-01 -3.6958329030947601e-01
      2.6531335508395598e-01 1.3605239861616972e-01
      -9.5656335694755609e-02 1.8046759081226851e-01
      7.9251892505784141e-02 -1.2065320048710108e-01
      2.6990292691024126e-01 -3.5239420183050302e-03
      4.3645993443935960e-01 -2.4254151955531639e-01
      -1.6665585072199277e-01 -4.5647849788769918e-01
      3.9507506047882690e-01 1.0595251884369915e-01
      5.2678796431263726e-02 4.0200930221362269e-01
      -1.2174605566215818e-01 4.6231667590641007e-01
      -3.5809737225397248e-01 4.1152249419925346e-01
      -8.5603338585743226e-03 -1.5257910473740671e-01
      -8.3504138201557970e-02 -3.6016184667378846e-02
      3.4540488913019701e-01 -5.2900461917703179e-01
      -2.7765538233156500e-01 1.3889792129578016e-01
      1.3310342993999122e-02 3.5983987979812876e-01
      -7.1826186023347921e-02 -5.9991866163509114e-02
      2.1072756898234485e-01 1.7449789582894188e-03
      -3.1357431145990355e-01 1.5833912176686074e-01
      -3.5472220900552792e-01 5.9407466603454799e-02
      -9.8346998334146382e-02 -3.8094619641093164e-01
      -2.1890026185709910e-01 8.2894023969160860e-02
      2.1107213143542444e-01 -3.1871463758194263e-01
      -2.8703631760804649e-01 5.9219583373464044e-02
      -2.4666211270315314e-01 3.8743630984830374e-01
      -4.8472278481767189e-01 2.3794183796756799e-01
      -1.6770050388252966e-01 -2.5310553516490536e-01
      2.1126048198778477e-01 -8.1399987767197413e-01
      1.7066748011890419e-02 -6.1558527939430514e-02
      -3.2717572575012011e-02 6.2391584897678287e-01
      -2.6407343905466613e-01 6.0458762172942238e-03
      -1.4478472282731259e-02 -5.7210018638174355e-02
      3.4770145857132555e-02 -1.0262776184615947e-01
      1.5817428870055387e-02 3.0430865889610076e-01
      9.9378130819665872e-02 1.4357887895756125e-01
      -3.1221977768926375e-02 -7.1600699373954232e-02
      5.0445526163473853e-01 -3.9097538688353445e-01
      6.0055495811985460e-01 2.4793868004312850e-01
      3.3391703328241451e-01 4.0087198467335278e-01
      -1.6356856604099398e-01 3.5208342328433601e-01
      -2.5107936365453754e-01 3.2024137036592226e-01
      2.9543882984305653e-01 -2.9358516814303570e-01
      1.8193295946627935e-01 -2.0470122683117692e-01
      1.5813794274101967e-01 1.1926052550081799e-01
      -1.0771152451343196e+00 8.6748923887072393e-02
      -3.3913205592624722e-02 2.0339900643741339e-02
      1.4170322007220970e+00 -6.5954918841974020e-01
      -1.0535123619654142e-01 8.0680838897735987e-02
      -2.5101567751760551e-01 -1.2511492775585584e-01
      -3.8055048933694419e-01 -3.3335420625318868e-01
      1.2829491850595234e-01 -3.3048933139796810e-01
      1.6142551623426274e-01 4.7938970682038223e-01
      1.5979182533475975e-01 -5.6731222113909061e-02
      1.8960354885680103e-01 -1.2447429953434232e-01
      -1.7664628199892212e+00 2.1926521890102310e-01
      -9.5647826621169954e-02 1.3157776745899549e-01
      2.2876478353433299e-01 1.7418111975640534e-02
      4.8513488217928313e-01 -4.1381459035255627e-02
      2.5690539318222427e-01 -1.7764886264543667e-01
      2.7288452720336592e-01 -2.2313179320836565e-01
      1.2794914619273229e-01 -5.0590562811979288e-03
      -2.3586526884497411e-01 -2.5440118969657652e-03
      -5.5899844209857663e-02 2.9826343105795428e-01
      7.2017677968836569e-01 -6.7843657299133678e-02
      3.9222308306586762e-01 1.4011204273590542e-02
      -2.6136990456759879e-01 6.2293035156374806e-02
      -5.1087175195785962e-02 3.4113906401282451e-01
      -1.2831224557335069e-01 -2.1646498232401296e-01
      2.1789159510642400e-01 -3.8831910353175436e-01
      2.0105927445311708e-01 7.3665540162338894e-02
      2.0935439058437866e-02 3.2075107111090946e-03
      -1.5180968950471355e-01 1.1279682185514671e-03
      -5.1420522861895723e-01 6.8933156806441620e-01
      -4.7116207571685949e-02 3.0558996065230732e-02
      3.3310680896667988e-01 -5.4283037551267892e-02
      -2.7986210167694159e-01 4.4441744232173930e-01
      3.0491200527533047e-01 -8.4020049756691847e-02
      3.2768222922810497e-01 3.3790641658302234e-01
      2.6152134567608876e-01 -3.2664661371714093e-01
      2.6747537179971786e-01 1.0684953257709040e-01
      2.2139697734002806e-01 4.8687350098848829e-02
      -7.1973802663757011e-02 -1.0079927003745895e-02
      3.7619991142484122e-01 -4.0757860112724413e-02
      -1.2086028034679690e-01 3.2317883483099891e-01
      -9.9635651350163251e-02 -1.9728181459884042e-04
      -6.5433547041770235e-02 -7.7621019074472986e-01
      6.0278024669817194e-03 -1.0612985084540505e-01
      4.3080652410084591e-01 -5.5850103324029832e-01
      -5.7164586766191905e-01 -2.5367457499679069e-01
      -9.0872119322131836e-02 1.7513269744145182e-01
      -4.2848387759368406e-01 -2.1195864594669184e-01
      2.1013616959319872e-01 -3.4416752951499048e-02
      -1.6669971412381201e-02 2.7659667293240731e-01
      -6.7910626459694604e-02 -1.8527806801820434e-02
      3.9599810838297153e-02 -5.1110972942988064e-01
      3.1984655166083134e-02 3.9231095982222730e-01
      -3.0001961761102025e-01 -1.2691130241399318e-01
      3.1484654761032238e-01 3.0690984929160908e-01
      -2.3067994514682294e-01 -6.8469670873823940e-02
      -1.1503933793832512e-01 -1.5451775583459995e-02
      -4.9485750323347788e-01 2.7410683743029124e-01
      -8.7822948291492009e-02 -1.2246857749536595e-01
      1.8655242154782209e-01 3.5188819940211120e-02
      -5.2638183277520112e-01 -2.4560527267072419e-03
      9.8850143212315195e-02 3.8483248427265998e-01
      -2.8362245573077122e-01 -5.1381089367732745e-02
      1.5547630374934854e-01 -6.8111425033786199e-02
      -4.2224532875224313e-01 -1.7950715121341437e-01
      -3.6173731002231890e-01 1.3478527707390846e+00
      1.6047465455128521e-01 4.0084792589057217e-01
      2.1733431310169116e-01 2.1944172435219847e-01
      2.2361287921309637e-02 1.4441874825659237e-01
      -1.2108022156472997e-02 -2.3226779804585840e-01
      -3.0093725746033501e-01 3.3076006734502306e-01
      -1.5221618693153607e-01 3.6188977972840336e-01
      -4.5542257823699756e-01 1.2827160375331662e-01
      1.8828101896089985e-01 -4.1628383141525477e-01
      2.0373339734028217e-01 2.4930694437643782e-02
      -4.9343994444953646e-02 -1.1966694573135657e-01
      -9.5733465619296542e-04 4.4347705894364059e-01
      -1.1171420553689047e-01 2.3209703804433465e-01
      2.5318906183921935e-02 1.6275786645650939e-01
      -5.8247350452596669e-01 -3.2100031727867545e-02
      1.9094252551958263e-01 -3.3497829071909996e-01
      1.0403074433769863e-01 -3.8826577219656429e-03
      -7.1301841020890244e-01 2.8590778610418777e-01
      3.6603821942986658e-01 1.8842636564503379e-01
      -4.1980394157759665e-01 8.9837746149020001e-02
      1.6836873982588435e-01 -6.8076880017493083e-02
      2.2807808273652713e-01 2.9131648993953962e-01
      -2.9599899482226366e-01 -8.0399447473933267e-02
      -1.2110010250134572e-01 1.6881897737612669e-02
      -9.2318681542163002e-03 1.7276856982113776e-02
      -4.4208724202680537e-02 -2.6913505006932709e-01
      -2.7016361387505938e-01 -4.7964553440095303e-01
      -2.8524017279767166e-01 1.0856602579465718e-01
      1.6771024407690086e-02 3.6019872652825619e-01
      -4.6535624196042041e-02 8.7509315210102835e-03
      -1.6190855237005339e-01 2.5836642496867951e-01
      -2.0694775538419866e-01 -1.1657987946796322e-01
      1.1565773772796055e-01 -1.3175914698867933e-01
      -1.4601970362910205e-01 -1.9855086631723867e-01
      -1.6271211522326517e-01 7.7050569047580203e-02
      3.2711544877475257e-01 -3.2146720167867809e-01
      -1.0094804606722450e-01 2.0678715658619001e-01
      -3.2424849136250225e-02 2.9097911997437814e-01
      5.6688928044176724e-02 -3.6941448119144404e-01
      -1.9723027231948097e-02 -1.3730140619377282e-01
      -1.8422377169848256e-01 -4.0851622730400089e-01
      -1.2876260296548644e-01 -4.3298333162326746e-01
      -4.2439890041173489e-01 -4.3681741794942791e-01
      -1.4554776629602015e-01 3.3114488594831770e-01
      8.7433241679964538e-02 1.9240477419457795e+00
      -5.1767187499557410e-01 2.4024836738268726e-01
      1.4850196689876702e-01 -2.7004416252043151e-01
      1.2010436576288759e-01 2.2252618454237133e-01
      -3.6816910053736079e-01 -3.6367687811951721e-01
      8.8892255132278931e-03 5.1021824583324257e-02
      -3.7908443271735301e-02 2.2459115528771828e-01
      5.4610067529326338e-02 3.9611596131226179e-01
      -8.0518899606118050e-02 -1.5220695428372330e-01
      -3.4003656573308788e-01 -9.8306174139104918e-02
      -3.0421655787965873e-01 -4.4819587176860666e-02
      -9.6560475297878853e-02 5.4238839220071874e-02
      -3.4651644722592967e-01 1.1442963276283781e-02
      -4.1116962024615844e-01 -4.5875348707786023e-01
      -1.6406799778434754e-02 -1.1565389832388112e-01
      -2.2694503371111144e-01 -3.0908535676559112e-01
      -5.6714189324650289e-03 7.7225749339151328e-02
      6.8290129313139755e-02 -3.5023738258405990e-01
      -3.8017194069077892e-01 -2.5450619408526132e-01
      -3.2546454059529578e-01 7.6666814525972946e-02
      3.0373767190538881e-01 -9.8948631047431363e-03
      2.7849958009773695e-01 -3.5509263161273300e-02
      2.8985212658736553e-01 -1.2747480948769657e-01
      -2.4464856773785784e-01 4.6783825488382592e-02
      6.4989597521979825e-01 -3.5281476417078378e-01
      2.6959521717537199e-01 -5.5531362719211463e-01
      1.3173900329438926e-01 -9.2376941359539916e-02
      2.6805977366330841e-01 2.6469692583801774e-01
      -9.5746312070441331e-01 -5.1239475871625206e-01
      -2.5371868318244772e-01 -1.2558375490680956e-01
      2.5175496631780370e-01 2.9369761613401502e-01
      7.3413314772435442e-02 9.3197988981301688e-02
      2.0395626475538955e-03 -2.0411528595916600e-01
      -6.0055472880186322e-01 -4.0163485273499708e-02
      -4.4210954728938212e-01 3.0363747209868730e-01
      3.2178856933957140e-01 -9.5945217422209961e-02
      1.8835984969338143e-01 -1.5028219901042977e-01
      2.1422684192908592e-01 -1.9533464325594713e-01
      4.9247688453758770e-01 4.0173118445202544e-01
      2.7067634320833370e-03 -1.3049262332860703e-01
      2.7440043007832349e-01 -3.2370954031055943e-01
      1.3114195787150340e-01 2.6093198273570432e-02
      1.4452300728209228e-01 -8.4204769856261158e-02
      -1.5734602067182860e-01 3.1842489519330247e-01
      -3.4673891175862609e-01 4.2777272231975486e-02
      -7.3835206394231759e-02 -1.1800017589593859e-01
      -2.5448113107499148e-01 -3.4653311000679299e-01
      3.2429397468758575e-01 -2.7714451412297027e-02
      1.8361779990205551e-01 -1.2630458034683581e-01
      1.8017703806072266e-01 1.3577129213833986e-01
      -2.9123020833356944e-01 3.5949112441417547e-01
      -1.1472778990050572e-01 -8.3033960378874838e-02
      -2.0199072385411318e-01 -8.4768238043098181e-03
      -1.1416439071077000e-01 3.5956099082105331e-01
      -3.1581740499733785e-01 -3.3854400064780618e-02
      2.8401528302497447e-01 -2.7978766890225826e-01
      4.3466932848927020e-01 -1.6360531716381559e-02
      -1.1668273632977871e-01 -1.7743407535025787e-01
      -1.0423274488650391e-01 -4.8438486415664517e-01
      -1.4205588667359109e-01 -2.5352554677789246e-01
      -3.8168990420528576e-01 -6.1867927742060874e-02
      -3.8172390541295936e-01 -3.7318147730428602e-01
      2.7035785003173052e-01 -1.6868498507209187e-01
      3.9531182232404777e-01 -1.3579080530164050e-01
      2.3097548497173875e-01 2.5573754061431814e-01
      2.5431754563175474e-01 1.3965252849235688e-01
      1.0940241538554840e-01 -1.8047706771117153e-01
      -3.4335493836275988e-02 -2.8370168802578699e-01
      -1.5254565722417249e-01 1.2980664288355651e-01
      -7.5929780438815098e-02 5.6556027721486192e-02
      1.8093747059902296e-01 -5.0498479577054078e-01
      -2.9708589371089451e-02 -1.2611375115547413e-01
      -1.6450908487560520e-01 -3.4012141513113142e-01
      4.0807482384356453e-01 -1.1516376597478961e-01
      5.5464108921054418e-02 -2.7153339304160706e-01
      2.3256984298392447e-03 -2.2833994827700535e-01
      -1.7618270637058014e-01 -9.9075765431628229e-02
      -3.0455630823507207e-01 -4.3451725728774621e-01
      -4.0097751164470824e-01 -5.1096660206400235e-01
      2.3184666743160601e-01 -1.0246185587537715e+00
      -2.4634230712099206e-01 -3.1307520035103692e-01
      -2.0602887317883034e-01 2.7242274694707763e-01
      4.8749475575398382e-01 3.0515176038443442e-01
      3.5175182349831285e-01 2.5251851029687256e-01
      -1.5021688515786842e-02 7.1771806007769057e-02
      3.2202682949879553e-02 1.7906584943155633e-02
      -6.3892935024487410e-02 9.6545379831324926e-02
      -6.6587604942553572e-02 1.2434438082888405e-01
      -6.0896882226138249e-01 8.5922592676329401e-02
      1.2157076077040724e-01 -1.6468433865418577e-01
      1.7548088939850481e-01 -8.5893579570730028e-01
      -6.6395697178419721e-01 2.9464568461627764e-02
      4.8002100551414413e-02 3.0584532440702462e-02
      2.3489750111843072e-01 3.3623959747602211e-02
      9.0248004751597860e-03 -6.3291771613917913e-02
      -1.3045147280891786e-01 -1.5916978318615208e-01
      3.7784051776165761e-01 -1.4878347949438120e-01
      -3.4618256853918103e-02 -1.3885717337847700e-01
      -7.0673816065830053e-01 -4.7926096713687652e-02
      1.7338512529583863e-01 1.3065170284535044e-01
      -5.5358157327371227e-01 1.8590492997484306e-01
      2.4241423492632225e-02 -1.8660511676910030e-01
      2.6575300387089756e-01 4.3460673660529797e-01
      -1.1308307163898379e-01 -4.0607610013098622e-01
      -3.1358881951963617e-02 1.8136987348367964e-01
      1.2434047545204617e-01 3.2188589542934527e-02
      4.7094137460426608e-02 -1.0006014336254371e-01
      -1.1611258010457284e-01 -9.4015496395784270e-02
      -1.7947620623362626e-01 -9.6638171308181364e-02
      -1.8630712183776285e-01 6.4146809802424253e-03
      -2.1936714508881221e-02 -2.6524890526976141e-01
      -4.9264388945846518e-02 1.5836441660488088e-01
      -8.2290405271476685e-02 7.5353130512768630e-03
      2.8120326835666021e-01 6.0840782543105293e-02
      1.1820100977135413e-01 -9.3901443974053894e-02
      -6.9253830846974507e-02 -3.6840944080826707e-02
      1.2766899714106319e-02 2.0700194369221186e-02
      -2.4488831938349248e-01 1.3403179998691532e-02
      -2.3145755874654061e-01 -4.6546972224462968e-02
      2.1624299635900379e-01 -2.9020105490429521e-01
      2.5524163590348248e-01 -4.0928461108445120e-02
      -5.2706561979068173e-02 5.5832360059809093e-02
      -1.6283873480514824e-01 -2.9166876900054173e-01
      -1.2516029407063625e-01 -1.7081143271975616e-01
      -3.8286011925251481e-02 9.1392016744236294e-03
      -2.7147778017333085e-01 5.2292475138424610e-01
      -3.7567703925394774e-01 -2.1679507680270015e-02
      1.1735354106296658e-01 1.2078874740919634e+00
      -1.4625005129125931e-01 7.3194062833964027e-02
      -2.6510176729907992e-01 -2.7422812777555527e-01
      1.1872489660062395e-01 9.1959563272367859e-02
      -1.7628912324020651e-01 2.5334176449852563e-01
      -1.5736910950754948e-01 1.7251937488360747e-01
      1.1337282681031005e-01 -9.7512017224480385e-02
      -1.8275845624619133e-01 -1.9544927734674311e-01
      -2.1427280155936129e-02 1.5242140921406025e-01
      1.2271823628389675e-01 2.6702929154814309e-01
      -2.7467964008801948e-01 7.4240451898864371e-02
      -3.1142056685261915e-01 -1.8718229681533691e-01
      1.0886501511940000e-01 5.8396610921233966e-02
      -2.8431653982877597e-01 -3.2394072493161602e-01
      -5.2114395748655706e-01 -6.5293577560910684e-02
      -9.6549878430705038e-01 1.8303283777412714e-02
      -2.1106827327161853e-01 -1.0525759747813873e-01
      -2.2679921287657717e-01 8.0522482687832034e-02
      2.0272001781812346e-01 -2.1099853168197943e-02
      1.2523345125827570e-01 9.7763664663270411e-02
      2.7538491200244675e-01 1.8312042333546191e-01
      -7.9647125558565415e-02 -9.5162544852116591e-03
      -3.2711251930228802e-01 1.7622564442363889e-01
      -9.8419325480125316e-02 4.0952336586774951e-01
      -2.1734344454310679e-02 -7.9067995010504863e-02
      7.0733963415163692e-02 4.9219942283796635e-02
      -9.4704216715911449e-01 2.5875958568594367e-02
      3.5576671450652304e-02 -6.2773323493821254e-02
      1.3047301918398818e-01 -8.8206002299908784e-03
      6.3960434791505427e-02 1.5863863459944999e-01
      8.0034039971722593e-02 7.7793623852162555e-02
      5.2734421443524881e-01 8.9654364179062647e-04
      1.0154366776848325e-01 1.1555081382514780e-02
      -2.4405818724204654e-02 -2.2709039625265620e-01
      -1.2630705774133819e-01 1.0297498454878500e-02
      -3.4358394286552740e-02 -1.6232077508057083e-01
      9.0458118031460366e-02 5.4624741424183013e-02
      -8.3406051328926978e-02 2.8834475843542307e-01
      3.3805459879792797e-02 -3.3825002045708298e-02
      -3.1806206031657747e-01 -9.7223429296008509e-02
      -2.0268459118919355e-01 1.7550853472732411e-01
      1.6323558786319831e-01 1.2080075127756205e-01
      -2.1870519337925881e-01 7.4719102240005858e-02
      -1.3102554689924584e-01 -9.5772304359910007e-02
      -1.3373156292226496e-01 -1.4802151586390494e-01
      1.1528774755591989e-01 -1.5502738955318487e-01
      4.6959018047038020e-01 1.5405104312238621e-01
      2.9317473513965957e-02 -2.1206101903161832e-02
      -3.6682770926933089e-02 7.5003726992236008e-02
      1.7473507028991465e-02 -1.6798853797872920e-02
      -1.7684930903598908e-01 2.5634740024568786e-01
      1.6557259746096983e-01 7.6179635834215623e-02
      -1.1006862538603457e-01 4.5331989833666619e-01
      4.4503368404060502e-02 -3.2920514819441909e-01
      2.0914815815994375e-01 -1.4605695385340908e-01
      -2.7553441446321125e-01 1.3696090291366064e-01
      -1.4709110732525049e-01 1.6302355092881835e-02
      4.0371112954863821e-02 -2.3478359330049231e-01
      -6.1171934262545691e-01 -3.1663425429589220e-02
      -1.1226751106071187e-01 -1.3621337517452622e-01
      6.2088058514359772e-02 1.7371788268590091e-01
      1.0333857627478715e+00 -5.6473505943979130e-01
      4.3880259780252151e-01 2.8843957478809429e-01
      1.8942590047623736e-01 -5.9892117890189958e-02
      1.5485613588499919e-01 -2.2111912064397773e-01
      7.7034286468340124e-02 1.1716873923695816e-01
      -3.1776978086279284e-01 -1.3403562388568893e-01
      -1.1390867054260725e-01 -2.8581615408456162e-01
      -8.9065366159849613e-02 4.1076626817599132e-02
      -7.6326072266841613e-02 1.4079231995779723e-01
      -8.4216429743397131e-02 -1.2561212395119453e-01
      1.4852753239391184e-01 -1.9209889481302692e-01
      1.1815454149360767e-01 8.1914521915265867e-02
      2.6899458391702852e-01 4.9911401213302051e-02
      1.5837445368040096e-01 -8.5127314592373174e-02
      -1.1660857536609565e-01 -1.9488432151180890e-01
      -2.8817361607207388e-02 -1.8740085187313729e-01
      -3.1844850410046012e-02 1.7801261280921793e-01
      -5.4279499744281146e-02 -4.7503514197105540e-01
      -4.2800881891412967e-01 -2.6764674587412390e-01
      5.0952019769288170e-01 3.9108182237499572e-01
      -1.0660811418898777e-01 -5.5325711665999040e-02
      1.8312044620977994e-01 3.5973454610434330e-01
      -1.4677886622528866e-01 6.2670458498644679e-02
      5.5991546357298999e-02 5.1637703564761828e-02
      -2.9909813625941994e-01 1.5554113596230487e-01
      -1.2359228452801982e-01 -3.7737694539439329e-02
      -6.8731580892928898e-02 6.4638398769624239e-02
      -1.1345334276423595e-01 -6.1189603936676702e-04
      -9.2270833683687950e-02 1.7755632673141342e-01
      1.1308148886408755e-01 4.7753865837375120e-02
      2.0641250463380331e-01 1.7929392001696740e-01
      4.6658182179211652e-02 -1.8491279723438667e-01
      -8.3482475191225425e-02 -2.5824957435610546e-01
      2.0995540376424057e-01 -3.5311112138724354e-01
      -1.6401689085362232e-02 8.6808937555675120e-02
      -5.9513988618408487e-01 3.7632176004818114e-02
      2.2891307920679693e-01 2.3358864374112584e-01
      -4.1891802291425645e-01 2.9228124893185636e-01
      3.3229629346030948e-01 -2.1997026795012442e-01
      1.6886403064254465e-01 3.4696320156838151e-01
      -1.5641614406344109e-02 -2.0559507175340838e-01
      1.3773940549967562e-01 -3.1195823628153857e-01
      8.2556608419158128e-02 6.2424821311706465e-02
      8.2862225994173852e-02 -9.1916745407241457e-02
      -1.0570449834100377e-01 -1.1386872588444183e-01
      -2.2885883891488648e-01 9.1222593789891879e-02
      -3.1976125695191265e-01 2.6949805138969868e-01
      -6.1914375203020768e-02 -1.2824349615334790e-01
      9.5209787297055148e-02 5.9820160556619754e-02
      -2.0083431594240733e-01 -3.2692879398358510e-01
      3.5383692919432946e-01 5.8816072331285267e-02
      -4.1252337321986653e-02 -1.0641062845131496e-01
      2.4452976138097219e-02 -1.1551151885519528e-01
      5.8360083933260545e-02 1.2743496263431868e-02
      -1.2420592289462235e-03 1.9610140481331473e-01
      -4.3318314399577884e-01 9.8271966756999729e-02
      1.4495961965834878e-01 -2.7911889502689452e-01
      1.0604755672960062e-01 -4.6565720239161404e-02
      1.2825457790838893e-01 2.4941528425656304e-01
      -2.2986062870205221e-01 -1.0903360415081942e-01
      -5.7823950378247613e-01 -2.6985677290900134e-01
      -1.0225870719046469e-01 2.3611711248054118e-01
      7.9134634411154439e-02 4.4897755406224416e-01
      -3.4198763298872020e-01 -1.7836882156088138e-01
      -2.2489019188194206e-02 1.6154652375128636e-01
      -2.6388017830710025e-01 -8.5252047259743197e-02
      8.8426245278659818e-02 6.1300171269971650e-02
      -8.8010126240478506e-02 -2.8905613737939917e-01
      -4.3047882602815633e-02 7.4167354500758566e-03
      -9.4720311964303000e-02 4.9445331299265989e-02
      1.5325098328334888e-01 -4.9708016253493463e-02
      4.9673787116976233e-03 2.2408898932338248e-02
      1.2509981987509156e-01 4.0630908158385981e-01
      -1.7263433954661467e-01 1.9764055421072086e-02
      -3.2140251180473178e-01 9.5913654058569678e-02
      -7.7669636338718170e-03 -3.4324777210066987e-01
      -1.7395834908621044e-01 -1.3938494487817035e-01
      -3.1212584692005912e-01 -8.5344221841426524e-02
      -4.5837044584206860e-01 4.3638988512444285e-02
      -7.4347860521683323e-02 -7.2932111785526541e-02
      -1.1675238735702835e-01 -1.3416913616851756e-01
      -1.6105569803854927e-01 4.2986681607307381e-01
      2.6184738619046660e-01 1.0915642295476602e-01
      1.4549218319519730e-01 -9.8965108194058543e-02
      2.3129137812378042e-01 9.1644341408452054e-02
      -3.2758857658210816e-01 -1.3217229964852546e-02
      4.6522336328341651e-01 -3.7209933170501254e-03
      -8.6779819125025442e-02 5.5692736091610051e-01
      1.8119182985760066e-01 4.9517000276805355e-02
      -1.4663195110002655e-02 2.6445644154751764e-02
      1.4581185325095175e-01 -6.4932233668966033e-01
      9.0270600295703371e-02 -8.7063617655745565e-02
      1.8338297500518994e-01 1.1898510869580783e-01
      1.6757273001804435e-01 -4.4062461460067349e-02
      2.0947391767952439e-01 1.6515655779499927e-02
      -1.0964743366104200e-01 1.8971738351433182e-01
      -1.1342418658356794e-01 1.2778178607766372e-01
      1.2448090768843535e-01 -3.8690912476274397e-01
      -8.8768025218624869e-02 8.5501680943269334e-02
      9.5640327771149100e-02 -2.5865308922940280e-02
      1.3213936877517840e-01 2.3987500086547991e-01
      1.3476010002072883e-01 4.6574928642472230e-01
      3.0632565906329862e-02 -4.5315570053303839e-01
      -2.5697700152702946e-01 2.6147871233860204e-01
      3.2925896567101126e-02 5.7745185057460256e-02
      2.2088066566931522e-01 -9.2167262328314084e-02
      1.4391229323924903e-01 5.9011767644785697e-02
      -1.2055332415034384e-01 -1.8183546081353841e-01
      -2.2123139448201465e-01 -2.5737590802700883e-01
      -1.3818095603708768e-02 3.9968153073303918e-02
      1.9756948775953131e-01 -1.2349779533631931e-01
      2.3063598406494487e-01 2.5301117022376085e-01
      7.5598270202831580e-02 -7.7990833824851096e-03
      1.3145091780991441e-01 -1.6383182420236678e-01
      -2.5156936654478435e-01 1.6911739691847424e-01
      1.2536182524655767e-01 3.8832900463649910e-03
      -6.8711252652700686e-02 -2.4490703605473496e-01
      2.7643590526028250e-01 -1.8220827981508322e-01
      9.6016197979693532e-02 -5.8205681312245683e-02
      -1.3178692425944194e-01 -9.8679730027713894e-02
      -1.3682570343217157e-01 -5.6378242557878122e-01
      -1.0207230652844944e-01 5.0790575794122640e-02
      -6.7613281292334182e-01 6.3053314518241796e-02
      -9.3206940801815776e-03 -3.5565475349021503e-01
      2.5786465354580040e-01 -4.1631051830546814e-02
      5.5613162058430599e-01 -4.3970944722744809e-01
      4.4688865769225766e-01 2.7263848647782674e-01
      -2.9544444240523545e-02 -9.2757084336955550e-02
      -1.3597862447842660e-01 5.8931171648482494e-02
      -1.7585408442434591e-01 -1.2533220067242112e-01
      -1.3912094376865633e-01 -3.8563644013975586e-02
      7.3626065957510062e-02 -2.0894680608315561e-01
      1.3472863129529800e-01 -1.8094302401812673e-01
      -9.0371804210019058e-02 -2.3363328346860943e-01
      3.1201992881412455e-02 -1.7738553425198111e-01
      2.7352500892936116e-01 2.4364222445265763e-02
      2.1968902665432352e-01 -1.3288510067104969e-01
      1.7715336617925367e-01 -1.5194417103500091e-01
      2.1695431309024207e-02 -1.8411180336573466e-01
      -1.3640176558417874e-01 -1.8959725740937081e-01
      -3.8034746698870525e-01 -6.6644719935666608e-01
      2.9964394968780261e-01 8.6506377603343176e-02
      -1.8739150684748154e-01 -6.5347407405281346e-02
      -1.9182112665938911e-01 -2.0412639023711204e-01
      3.3562424634936844e-01 -3.2732392962820718e-02
      2.4156132520313320e-01 -1.5917724285840729e-01
      -2.9397804364429153e-01 -1.7512533392331714e-01
      2.0812731036367429e-01 -1.2983465423799825e-01
      -1.0613344451633570e-01 3.7662469608859640e-02
      1.5196724211287138e-01 2.2872800430253085e-01
      -6.9183796638361861e-01 6.2077803969259035e-02
      1.9316671641681678e-03 -1.5410097543483148e-01
      1.0013887420463394e-01 2.4787202754494733e-01
      1.8722351934259443e-01 -1.0227662936381428e-01
      -1.8883179217552085e-01 1.7606681057176865e-01
      -1.0717301331269099e-02 -2.4922530171932220e-02
      1.5421948151620138e-01 -4.5015925834839134e-02
      -3.2773056511066012e-01 -6.1182397590788473e-02
      2.5886741513008021e-01 -1.8225397625091919e-01
      6.2559282988507367e-02 3.0945853010726283e-02
      2.7318483921014425e-01 7.8995040370044983e-02
      -1.5690213143426693e-01 -2.3747363106411061e-02
      -1.9561266831511309e-01 -4.1674975828716848e-02
      1.3341134648471958e-01 -2.1054971077933166e-01
      -3.0388241715912939e-01 1.9852580360906447e-01
      -2.4840223986868876e-01 -1.7268419564246601e-01
      -5.0252790294986652e-02 -4.7426649179891317e-01
      1.6333183563567169e-01 2.7833373149580216e-04
      8.5824648043263507e-02 -2.7300219820467436e-01
      5.4684963550083704e-02 -1.6629569849854389e-01
      -1.6051169921733188e-01 2.2748826008588588e-01
      -1.4059697826196191e-01 2.2594731712277277e-01
      -1.0132566386418868e-01 1.0864450798716148e-01
      -2.0435325827385989e-01 2.8410262648891401e-02
      -9.9517031144367406e-03 -1.0106212787749048e-01
      9.2667287082343515e-03 -8.8827082766929938e-02
      -2.1950827001804860e-01 -4.0216820010912718e-01
      -1.4220595859769229e-02 1.4290127858390787e-02
      1.9854974374250689e-01 -2.7827998710476193e-01
      -8.6236772188604915e-01 -1.9272455177678177e-01
      -1.2800677941803174e-01 9.6707460457033642e-02
      1.6569196518185686e-01 -8.9394119178069678e-02
      -2.6628157852058711e-02 -2.5626730674501375e-01
      -6.4379684783526447e-01 -2.9034438179358291e-01
      -2.7760163304857172e-01 -4.9883201268960391e-02
      -5.8642111793528462e-01 -1.1878401158429489e-01
      -1.2313402146338602e-01 -1.3326082801065897e-01
      1.5166826099350739e-01 4.6863147612161517e-02
      -1.9026455006619988e-01 2.6369343443201615e-01
      2.0175259934441447e-01 -8.8324334834078033e-02
      3.0875755663611282e-01 3.0945234376000851e-02
      1.6946992773239591e-01 -1.3651048365079888e-01
      -2.5549379298809197e-02 -3.7280567287332200e-02
      2.5910116625798785e-01 8.1780302169123617e-02
      -1.9583136618080324e-01 -8.7200829480441597e-02
      -2.6287370626246459e-01 -1.1273353079678920e-01
      -2.4895915451678974e-01 -3.0838637376705602e-01
      1.2811567512260985e-01 9.3395658604311219e-02
      -5.4455201073143514e-02 2.3271182926747827e-01
      -9.7555755093797658e-02 -5.8656931212710444e-03
      -1.2404678183248148e-01 -1.6743733710228254e-01
      1.2869747464490242e-01 -3.0682288377140809e-01
      -3.3446698497843924e-01 -1.2402124350008798e-02
      -1.6814711615088293e-01 -2.9704510887795688e-02
      -4.9477044425624911e-01 -1.1219661486219262e-01
      8.2919197519917789e-02 -1.8339657342178264e-01
      -5.2670291524362176e-03 2.3255929157116373e-01
      -6.3775969479788433e-02 2.6841912067140256e-01
      -1.4171688650890246e-01 -1.3727340032580612e-01
      -1.4250720692527238e-01 4.9891860094184393e-02
      -5.5128482495407881e-02 -2.6688164770555833e-01
      3.6130104246294420e-01 1.1936896445658339e-01
      -7.7374340585852300e-03 -3.8082149966836698e-01
      4.8268607094179870e-02 -2.7763772269123121e-01
      -2.3779434567114066e-01 -6.5536670333223621e-02
      3.1254137929289444e-01 4.9111392690596556e-01
      2.1019500703992522e-01 8.8956240273642906e-02
      1.3557549650093390e-01 5.5283855951365604e-02
      1.4535255719576382e-01 -7.4771690224151977e-02
      -2.5294093069695930e-02 -3.8887112317647238e-01
      -5.7416483674291885e-01 1.2384333165939608e-01
      1.6857830886269382e-02 -7.9994939347908967e-02
      1.0821350356386926e-01 -2.2939010503235518e-01
      1.9153944023471384e-01 1.8016292994285968e-01
      9.6351878838267999e-02 -1.9213382146540028e-01
      -1.1832376107026404e-01 -4.3284331071657821e-02
      -1.6362557298275340e-01 3.2506912130601640e-02
      -1.2453120263536012e-01 -5.5726706709769402e-01
      4.6189917845709416e-02 1.0981803080849882e-01
      -9.3732486344341059e-02 -5.3793860437138095e-02
      1.2197039534458623e-01 5.8657469350661552e-02
      -2.3563349063899938e-02 9.9549143877409083e-02
      5.9711496629146772e-02 6.1165922204807807e-02
      7.7857622003715876e-02 -7.8911673612877736e-02
      -9.0348063333220596e-02 6.7633523197106870e-03
      -1.0636479362924953e-01 1.2426885404196106e-01
      2.2340848929932897e-01 1.1888818770239484e-01
      2.1094235145490114e-01 1.6108111280813103e-01
      -2.2517335827536303e-02 2.6883553455808354e-02
      -1.0536256656604301e-01 2.2658222792816406e-03
      -1.8297402318438322e-02 7.2895843236210386e-02
      1.2082101462483232e-02 -1.0847084778818770e-01
      -4.7496838390388971e-02 1.3655031776762316e-01
      -1.2347182063724541e-01 1.5358661126468143e-01
      -2.4513066530319405e-01 -4.6474257737908919e-02
      -1.5419484581921344e-01 -4.6793449756648736e-01
      1.3079844971398655e-01 7.8225696437834710e-02
      2.3725310734611479e-01 -2.2568927731391641e-01
      1.0952227258219202e-01 -6.3820542558575041e-02
      5.0618260873702713e-02 1.1306797924099087e-01
      -3.3418404721109790e-01 4.9087781398199642e-01
      2.6810185912087819e-01 5.4230541275740313e-02
      4.4458311382824006e-01 2.6481218810666847e-02
      1.4189635121072878e-02 -2.1036365482415574e-02
      -2.8145679172401794e-02 -2.2625815345084163e-02
      -8.7215759024773520e-02 1.0046597239376770e-01
      -1.6573811570452909e-01 -1.9734609796972363e-01
      -2.7849460267583111e-02 1.0458006362645010e-01
      -1.1400962048709860e-02 -4.7234411982668811e-02
      -1.7027649958368926e-01 1.1931446835560579e-01
      -1.0404684991895632e-01 1.6307486711568822e-01
      1.9487396670625953e-01 1.0622637286661562e-02
      1.8666352391308070e-02 6.7349041690424757e-02
      1.7866936542047067e-02 1.6790088445982698e-01
      1.8307242274899851e-02 1.4976506607341078e-01
      -3.9617819134736595e-02 -2.5868120933680439e-01
      2.0112099005619008e-01 -2.7420836772152912e-01
      2.3735878580183393e-02 -3.1899354918687582e-02
      -1.3462331861926999e-01 -3.4828242714566207e-02
      2.8610945064190130e-01 -6.9027777387023145e-04
      1.1573574271607734e-01 -9.5258118115997450e-02
      -9.8640338812483408e-02 8.4507229200142218e-03
      1.8291290112293429e-01 8.1053660212081040e-03
      -2.2917637558816517e-01 -1.0976342220253237e-01
      2.1541228873787049e-01 1.7274689689894795e-01
      -2.9998414231584142e-01 1.2265771762660613e-01
      -3.3324229482788598e-01 -3.5342184890238321e-01
      1.8336119082909528e-02 -2.1086498563617240e-01
      6.5663101642297261e-01 -2.2416435692930964e-01
      1.0276644562177921e-01 8.8355385045955068e-02
      1.2935066035669637e-01 2.7152255311842394e-01
      -8.7935349141456856e-02 8.8129753578839787e-02
      -4.1208939287986947e-02 -4.1662930546252819e-01
      -2.9083113825291534e-02 1.7760866201542214e-01
      -3.0724011052845335e-01 -7.9396751272987065e-02
      5.4347208963608673e-02 1.5111249898198062e-01
      9.7531797400217862e-02 -7.6754232306338682e-02
      -1.7536419359819128e-01 -2.2223090806706947e-01
      7.4006179043041825e-02 -5.1848607751143833e-02
      7.1431071332606804e-03 -1.5415040110154724e-01
      -5.8364738347290765e-02 -1.9369797861720101e-01
      -5.4476392787319201e-02 -1.5013303009277898e-01
      8.9048335989399222e-02 5.5031188939094561e-02
      -2.8266084890694907e-02 -3.6944486165238120e-02
      1.5623314734533802e-01 2.6322975632869028e-01
      -4.4691862987633439e-03 2.1594131172933698e-01
      -1.8786575235634895e-01 1.4345010234629890e-01
      1.5209445116560474e-01 5.1518485688328446e-02
      -7.8088769381280940e-02 1.4179141341580453e-01
      -3.1465983858831952e-03 1.4634176221088085e-01
      -1.7567395640252438e-03 -6.0950008396305697e-02
      -1.7107314346987743e-01 -1.3894814166631697e-01
      1.5040307841240994e-01 1.3655883384101059e-01
      8.3926898181377080e-02 -2.6168191426871124e-03
      1.9505082112760203e-01 9.1448490463054227e-02
      -2.3795050967803624e-02 -4.0011269682554841e-02
      1.1248515403295527e-01 -1.9575315059598200e-01
      1.2455154956269628e-01 -2.0655019559914631e-01
      -1.9740077714552190e-01 1.0025376222480881e-01
      -1.4129203735741766e-01 -1.5240227770289219e-01
      -1.2700676837211602e-01 1.0704524366556914e-01
      -2.3927831268505070e-01 -2.6839371487723005e-02
      2.9374505008202290e-01 -4.0771460751728622e-01
      3.3165938698659841e-01 3.3168930849528067e-01
      1.9155752385843941e-01 -8.5122398006274011e-02
      1.4611854287774056e-01 2.4244572953506474e-02
      5.6770636295803679e-02 2.3252920388604055e-02
      -1.2409334817363737e-01 -5.8921213209472065e-03
      2.8272228549488077e-01 -1.5618823226853359e-02
      -2.5202846991032746e-01 -1.1174090733106576e-01
      1.8679535866760971e-01 -7.3440763495106212e-02
      2.5360531177388044e-02 -5.9502834325834128e-02
      2.9686714444595869e-01 7.0021242528161803e-02
      4.7352802946888192e-02 9.3068418666414576e-02
      -1.4902437385904516e-02 1.4234024882793339e-01
      -3.6979148771668559e-02 1.2326546255190293e-02
      -1.4450485472071917e-01 -1.8652844519835299e-01
      -3.1527500800317083e-04 2.8071233390686473e-01
      -9.5136648615636712e-02 2.0495150149391755e-01
      -1.2817312551962526e-01 1.5709232628981371e-01
      -1.9380171731135565e-01 1.3652092418705075e-01
      2.4128286335417570e-01 6.6604395034874822e-02
      1.2378933432396426e-01 -1.2517452864659523e-01
      -2.3693974450266925e-01 -1.9264295246255414e-01
      -9.7421406638653479e-02 7.0046346793091338e-02
      1.3106637263732920e-01 -4.4073556831185752e-02
      -2.3896231869899232e-01 1.2700126564199957e-01
      -1.6806876348980294e-02 5.4687283255052599e-01
      1.9412922966562254e-01 -3.7366400153950974e-01
      1.6545868626021404e-01 -1.8816132724289232e-02
      9.1898255219417482e-02 7.4562386084951471e-01
      5.8622012210015270e-02 1.0332667601133845e-01
      -8.4533653883983526e-02 1.1040190115088179e-01
      1.1803311763322241e-01 4.1834268903197060e-02
      1.7395693429568898e-01 1.0420377050539399e-02
      -2.6203473288645290e-01 2.9114451218720655e-01
      6.4599107014045292e-03 -3.2697793331688402e-01
      -1.0109111331701637e-01 2.3550942353055423e-01
      -9.0525951679565189e-02 3.4858957212532149e-01
      -5.5809270161745334e-02 -8.0717986891616134e-02
      -5.9278194072900303e-02 1.5638898268618456e-01
      -3.4934081559188757e-02 6.8996883592662528e-01
      2.0841566106572865e-01 1.8219428644301378e-01
      -4.0780300960635646e-01 1.0625068314412742e-01
      -2.7043873660744439e-01 8.7462275359564801e-02
      3.9796394624899104e-02 1.1646732396146707e-02
      1.4928011741474426e-01 -1.5253927021935012e-02
      2.8929921055360658e-01 -1.5152239213622024e-01
      1.0974432942903790e-01 -1.1099059332109662e-01
      1.1507182396657621e-01 1.1049155487910525e-01
      -1.3472142009609100e-01 -3.6823664201649613e-02
      -6.8799825530865708e-02 -2.8349609002299586e-01
      7.5699067506878395e-02 7.0104837240934845e-02
      1.5949861423893513e-01 -1.7521555861936960e-01
      1.0249715326841928e-01 1.6163401117713266e-01
      2.0141737722718486e-01 -1.4413503702592476e-01
      -1.0924733168904950e-01 6.1380960950933511e-02
      2.0142511187839676e-01 -1.5924220604008374e-01
      1.2690536313699236e-01 -6.8578328015979864e-02
      -1.3389043046600449e-01 4.1703739498702201e-02
      -1.8074902309033677e-01 -8.5356551509071399e-02
      8.4527698399417608e-02 -6.6284806524479017e-02
      -2.5384218782952112e-01 -2.4093919196089422e-01
      3.2566843834502118e-01 3.2366455432993248e-02
      6.6868682104390065e-02 1.0971606849153434e-01
      -1.0236539824586954e-01 6.5652117492228490e-01
      1.7757773512746784e-02 1.1349832112059408e-01
      -3.4595077716713080e-01 2.8140906798424313e-02
      -1.7364269698098157e-02 2.0450989548083129e-01
      6.4013273287859218e-02 9.6218436282416039e-02
      -1.0635838992317757e-01 -7.0726323897250407e-02
      -5.3856272579055960e-02 -2.4977424904418502e-01
      -2.4850869821350821e-01 -1.9619660866086290e-02
      -3.4127803403474016e-02 1.9441184427755237e-01
      1.2501528842541410e-01 3.7634689454360998e-01
      3.9656603450438033e-02 6.5299693740345457e-02
      3.4060639012007891e-02 -4.5928480792234170e-03
      -8.4229172851782216e-03 -2.8257543510586382e-02
      1.3136468508952423e-01 1.2599252721723378e-01
      -1.1520681968009534e-01 1.0927733626277122e-01
      3.7857280219886080e-01 1.1524398271615290e-01
      1.7691227874840099e-01 -6.4097153863434930e-01
      9.9088532534813117e-02 -3.9194081662366161e-02
      6.6243147205494124e-02 1.0352416868373539e-02
      6.6387978465101374e-02 4.8914449207718824e-03
      4.3347354269581542e-02 -1.0482062169090436e-01
      1.4909162736170875e-01 -6.3454491246876521e-02
      1.1837686965910756e-01 6.3500126090768966e-02
      8.3024507532644301e-02 -9.4141240969560936e-03
      -1.4783981800636606e-01 1.5204907656694280e-01
      2.3261403013080029e-01 9.2924358559947254e-02
      9.9068641609592958e-02 2.4044860852317651e-01
      -1.0515658437319096e-01 -6.5507583641424849e-01
      5.9277164926305699e-02 -2.2249770438302796e-01
      -2.2201754789834033e-01 6.1079187739905352e-02
      2.1118273174678454e-01 -2.9494430475949851e-01
      1.1730192974339307e-01 1.0882745377417358e-01
      -2.4867848012859423e-01 -1.7467526829136823e-01
      1.8442337758442742e-02 -8.4179105113253078e-02
      1.0894382706043762e-01 1.3347700731874754e-01
      4.3741842754589239e-01 -8.2734909099056439e-02
      1.6580069752873355e-01 -1.7305182918704887e-01
      2.2569952345176331e-01 -2.3896904909272748e-03
      1.5975275327731789e-01 -3.9228494900917663e-02
      2.9970971911921840e-01 6.8328925803064572e-02
      -9.4606552124943608e-02 9.2971544063279454e-02
      -3.0575643348530527e-02 -2.2856528008065169e-01
      1.6041437695121030e-01 6.5157088399633911e-02
      1.7553570664344825e-01 1.4276184671017772e-01
      -2.5222617539598015e-02 -1.7156523098233023e-01
      -2.5524181210292735e-01 2.2278282644964631e-01
      6.2088420810295010e-02 -2.1069549611261746e-02
      -1.4905413424965419e-01 -1.2282393645391308e-01
      -1.0703833102148320e-01 8.3730901326067711e-02
      -2.6947219324795768e-01 1.8146297579098120e-01
      -2.7256765264019134e-01 1.1228552925447849e-01
      4.4795928098419674e-02 4.6575715548530516e-02
      1.3530591919646468e-02 2.2079792865189710e-01
      1.8544982338236385e-01 2.4217137863723974e-02
      -2.5909914977049459e-01 2.2604351065383155e-01
      -1.0860775255910764e-01 1.5744433754345658e-01
      1.0194341673863062e-01 -6.4989853439824274e-02
      2.7326873080330341e-03 6.9439591848003482e-02
      -4.8666182506912986e-01 -3.7727695360762009e-01
      -7.7600824517680689e-02 1.3141956203064312e-01
      -1.3399412241307282e-01 1.4148283553262472e-01
      -1.0343667222768720e-01 1.3289523778166631e-01
      -1.9773581305246288e-01 8.1754408145722934e-01
      1.5489675256474611e-01 1.2764217407687239e-01
      2.1314730973333060e-01 -3.0468664561780162e-01
      -9.6105029434058274e-03 3.4602374765609706e-02
      -1.0150440496740329e-01 -3.2935554677884477e-02
      -3.9008492815703753e-02 -1.8290140763681806e-01
      5.5654362202050750e-02 1.9528355962834579e-01
      -9.6345266564267618e-02 -6.7588170262320973e-02
      -4.2070370271136903e-01 -1.7363635505848551e-01
      -8.8461341599347917e-02 1.5565046866797683e-01
      3.5718336491505728e-02 2.5058691303685384e-03
      1.7125262714672126e-01 -2.7915475151931201e-03
      -5.1307924977001353e-02 9.4975138374042894e-02
      -1.9451624800873590e-01 3.0802614150347390e-02
      -9.3129614249504999e-02 -2.2196107899348944e-01
      1.3242871215634910e-01 4.0723000763377565e-01
      4.2947549890601033e-04 -1.0204790529773151e-01
      -2.6888311510227986e-01 -6.8678600739516121e-02
      -1.1524245691476692e-01 2.1712901478768171e-02
      8.2676480836106903e-01 -1.8630506651314457e-01
      -1.2257579419892767e-02 -7.2386273540782517e-02
      -1.8659854257236996e-02 9.2062025486537441e-02
      2.0609602465176849e-01 -2.5736899938160172e-02
      -2.1570334037372726e-01 -1.0812058085282421e-01
      -5.4351647512978905e-02 -5.1620909155092015e-02
      5.5372228290643512e-02 -4.5486318469058790e-01
      8.4194364078253356e-02 1.5340593840679614e-01
      1.5229291826920338e-02 -1.3006058137886478e-01
      3.9573478554858765e-01 -2.6311815788702675e-01
      -1.0176352043562979e-01 -3.4771258334382903e-02
      -1.8309576658536211e-01 -5.8546848380546170e-02
      -6.9697696270625428e-02 -1.0340954548492830e-01
      -8.9958726598894895e-02 -1.4193790244133284e-01
      3.5489953123658419e-01 -2.1729945543810572e-01
      -2.4994281585118555e-01 1.8677769956448043e-01
      2.0859913597790114e-01 8.3755212872205886e-01
      -7.1431623695924859e-02 -1.0674069548156494e-01
      -1.0310506085264884e-01 1.6096016068325550e-01
      1.6388470367694458e-01 2.2017252836366721e-01
      1.3822694673960631e-01 -2.6980586662507777e-01
      3.4964604677842196e-03 1.6893032613473635e-01
      -8.1005578247384441e-02 -4.0852999584161262e-02
      -9.1728130674801789e-02 5.6077589416627847e-02
      -1.1913792832086838e-01 -1.0959876440077490e-01
      2.8940583656426755e-01 -1.4515096910073660e-01
      1.4278144280835636e-01 1.4147051099517086e-01
      7.6363809975423524e-02 -4.3291829062604162e-02
      1.1583794708464037e-01 9.6843284717779587e-02
      1.7132229788869469e-01 -2.4614773161015426e-02
      1.0965568756464825e-02 -1.8753739370532516e-01
      -8.2619416514411445e-02 -4.7358747285416974e-02
      -2.8485951240450247e-01 6.0001359445332469e-03
      2.0849289876279259e-01 -8.6434452753665653e-02
      -6.1403941324247851e-03 9.6886341134343371e-02
      -1.0834291184652081e-02 -1.5308309053859082e-01
      2.9083450678350969e-02 -2.0987971139904746e-01
      -6.0874172061517746e-02 2.0334271144457929e-02
      1.2967119435533178e-01 4.3708790021776356e-02
      1.4524212531825242e-01 -3.0656431234192066e-01
      3.9241715674934653e-02 -1.1596617968188326e-01
      -5.7129695159021510e-01 1.9586943178775448e-02
      -1.2087800115439516e-01 -3.9815391832183418e-02
      7.5333773796685696e-02 -9.8013237324170693e-02
      8.0187235756965702e-01 -3.0497321727816451e-01
      -1.5635325766694971e-01 -1.0791266003238487e-01
      3.0355782050775709e-01 -8.7938716082291341e-02
      -1.0787385685229202e-01 1.5677124988500261e-02
      5.8086922021472129e-02 -1.5382163924548450e-01
      1.5497934337691952e-01 1.5427616757677184e-01
      -3.4850742141070014e-02 -5.5899573288704457e-02
      -7.5069574871401437e-02 -2.5698889240320039e-01
      -5.4592975432865010e-03 -9.0757453711110520e-02
      6.1390651208427745e-02 -3.3184097432302079e-02
      -1.8225403230135273e-01 1.1773948983170922e-01
      -1.6037596417158895e-01 -4.1247718438449189e-02
      4.0473787972395564e-02 5.0269667117628050e-02
      -3.3271444219465651e-01 -2.9634195989330623e-02
      2.7847919866479509e-01 4.0580883863409273e-01
      3.8862622690119315e-02 -5.7282077098275076e-02
      1.9444717897931288e-01 -2.5824073388335600e-01
      2.2569517255489099e-02 -1.7982722826718794e-01
      -4.2780422499237115e-02 1.1144679193987614e+00
      2.3728719556399760e-01 3.2667100500318173e-02
      2.0655670003325599e-01 -8.6617838123025620e-02
      -2.8415376767892294e-02 1.2612932892773776e-01
      6.6858811679684729e-02 -2.1034328314870971e-02
      -9.9197945994349543e-02 -4.9745798728680228e-02
      5.3198458047349635e-02 9.4353821187752138e-02
      -4.2227469412705149e-01 1.3287444031240023e-01
      -1.3704560563148477e-01 -1.6569108298207189e-01
      -1.6390224312933885e-01 -1.3741638716691232e-01
      1.6278782384473905e-01 -1.3553532693870138e-01
      -3.3133779170177652e-02 1.8138733811577082e-01
      1.1667248308651573e-01 -9.5973089194706027e-02
      -1.8740742494956081e-01 1.1007905407041529e-01
      -2.7986615077323085e-01 1.4896601691851163e-01
      1.0012894354018281e-01 -3.2734155616064525e-01
      -5.4768734928317589e-02 9.3415116775199231e-02
      -1.1587997282439880e-01 4.4212685824181620e-02
      1.7621168315656410e-01 7.2368232284924200e-02
      -9.8673007033000068e-02 1.4372461395427503e-02
      7.5284223676454945e-02 -1.1079712251369395e-01
      -2.2640313386291688e-01 3.6782551346326020e-01
      -1.7499742796153989e-01 -2.4163424151221810e-01
      8.2733822490369049e-02 -9.1999031305747464e-02
      1.6294485778761328e-01 2.6065192751960398e-01
      1.6703895455870241e-02 -2.9646684314514924e-02
      5.0866262132349370e-03 -1.7510081738755107e-01
      1.2150756333044581e-01 -9.2399945714201140e-02
      -8.2766156748113162e-02 4.5550396601981430e-02
      -6.7414615158490579e-02 1.9473405055914658e-01
      -1.6007643780247441e-01 2.7776862121585721e-01
      -2.7880798394962719e-01 -1.0794183751843203e-02
      -3.2656409915698188e-02 -6.2010443239747935e-02
      -6.0280022433185469e-03 1.7726879398096401e-01
      1.3543803343999009e-01 -3.7396395236496953e-02
      1.1840996172183378e-01 -4.3024799685327776e-02
      -6.3451506573895533e-01 -8.9256973155029784e-02
      -2.7906076379766331e-01 1.9452709924177303e-02
      -9.2126588500285378e-02 1.3781914704910164e-01
      1.2616523077404232e-01 9.1097047463526690e-02
      1.6596111019087437e-01 -2.2270255915121186e-02
      -1.9190037205990190e-01 -4.0360333795719394e-01
      -3.0059987908855376e-02 8.3992487515920811e-02
      -1.0740759308037669e-02 -2.3737949228690328e-02
      -1.0149038521367500e-03 8.0060146691460365e-01
      -1.0805719542839475e-01 3.9302318077433246e-01
      1.5971334077540295e-01 2.8800630867967331e-01
      -1.2872673875856164e-01 -1.3944697064870132e-01
      -1.2000136383655184e-01 3.3237972197374489e-02
      3.3229554517334545e-02 -1.8560909289852032e-01
      1.6490261935169379e-01 1.0338316922493956e-01
      -7.0683461293871194e-02 -2.1996080109977570e-01
      -9.1668118310965233e-02 9.7798240211711934e-02
      -1.2513241256092653e-01 -9.8162214260694047e-02
      1.1800197409847793e-01 -1.2715456944628900e-01
      -2.8828714088482704e-01 7.4571191167377870e-02
      -9.9832227908096191e-02 -5.8012889629561970e-02
      -1.1332322307432079e-01 8.1279099444534667e-02
      2.3217374089816820e-01 5.7535708110728570e-02
      -1.5091679070310360e-01 2.4571285027910175e-01
      -1.0451605288150392e-01 -1.4325673088095764e-01
      -6.8365720752749559e-01 -9.5045263260013797e-03
      1.4522395513768729e-01 -7.6629156315385680e-02
      2.6717562628442415e-01 2.5883819393518920e-01
      -2.3547656862207805e-01 -1.3802783572117286e-01
      2.1135045172803738e-02 1.8525803988912667e-01
      1.8367283936127573e-02 -1.7260621667403591e-02
      6.4298649942004044e-02 -3.4237477869929624e-02
      3.0482506953763949e-01 -2.2452435325359560e-01
      1.1095936780258456e-01 1.4574989554611362e-01
      1.2362489825144027e-01 -2.7690755002267581e-01
      7.2020592120970756e-02 6.4878213785235325e-02
      -8.6737569783195856e-01 2.1616461038813034e-01
      1.5469996501248984e-01 1.6465872256994399e-01
      -1.2504101956156941e-01 -4.4779833783034503e-02
      5.1323044864929793e-02 -5.1756713640843471e-02
      -8.2468859880822309e-02 -7.8465676886926780e-03
      -1.1654775370751377e-01 2.5377994178071644e-01
      -1.0226893384064846e-01 -3.7772409945825686e-01
      2.0289933066034837e-02 -3.5142984266766891e-01
      1.1114813012035948e-01 1.9546534749793945e-01
      -2.7173024665095625e-02 -1.6540408977959511e-01
      1.6798234691741304e-01 -5.1061762163908002e-02
      1.3526716780071640e-01 -8.4530858927760272e-02
      3.7314770287048098e-02 -2.1342712158003044e-02
      -1.7888273009487896e-02 6.3093064408689059e-02
      -6.5628202432729182e-02 1.4741193590425469e-01
      -5.6725350910720965e-02 -7.9682228053566992e-02
      -1.7951768244738844e-01 7.0459754251369217e-02
      1.2882216310355527e-01 2.2022749528791588e-01
      3.7199184030331900e-02 4.3697381080246060e-02
      1.3567289925052559e-01 -1.8774583973560735e-01
      3.7917088706126534e-02 -1.3158142293499636e-01
      -1.4872618504717477e-01 8.8905671536175616e-03
      -4.6799790175419992e-02 5.5357129116871372e-02
      1.7376228857676887e-01 -3.2235566474996591e-02
      -1.2438313657992486e-02 -3.8444162307153779e-02
      -4.6144614723255761e-02 2.8132367153502209e-02
      -1.8889611096321346e-01 2.5351143936212289e-01
      -7.7157016984942164e-02 -1.2001324133663399e-01
      -2.2934140390078232e-02 -1.6675820977431104e-03
      -1.7488547329379070e-01 -3.6487430435773537e-02
      -5.9544258238282702e-02 1.3877746123243917e-01
      -1.8287676604742636e-01 -4.9820512298960808e-03
      -2.7606943248413884e-01 1.2238164432405647e-01
      1.7961888917060381e-01 -4.5007519552344374e-02
      -5.4638685413374369e-02 2.9700345329130667e-01
      1.1058404398636339e-01 4.1756623393575509e-01
      2.8875983494407087e-01 2.2733366698494195e-01
      -3.7626896197395698e-01 6.9173642061359564e-02
      1.1205883944722224e-01 8.9643057349927099e-02
      1.2393161329471035e-01 3.7539063194530674e-02
      -3.7914084151903830e-02 -2.5092206475432224e-02
      1.0569041886428476e-01 -1.8597868896454536e-01
      -1.0336065154011694e-01 1.2567927611582050e-01
      -7.7157149975259215e-02 4.2935327510982635e-03
      -6.3333140086314563e-02 -3.3589326238289814e-02
      -5.7984609767559467e-02 -8.6412530882286023e-02
      2.6586275191201634e-02 5.4776203313989941e-02
      2.2832945446400352e-01 6.5849124951180907e-02
      9.3827441899382830e-02 3.5169358221110681e-03
      -5.5106745726513041e-03 -3.0629260768500310e-01
      4.0163967173012620e-02 1.3485143596863766e-01
      -1.7679557079024591e-01 -1.6624296585781984e-01
      4.2656018342593811e-02 -1.8835339552857130e-01
      -3.1029698327410225e-02 4.7133691494107804e-01
      -1.2818125489421139e-01 -1.2296058866260416e-01
      2.2195807273118293e-02 -2.3851089744858313e-02
      2.5089491232894892e-04 1.2597343399304767e-01
      -2.2944589589872697e-02 1.6724526735992246e-01
      -6.8927060910174767e-02 2.6731739813804289e-02
      -1.3339495881237182e-01 -1.3414934471207121e-01
      9.2319890931491802e-02 -7.6480911154133954e-02
      1.6216391246338624e-01 4.9974364522119626e-02
      5.8568975368258225e-02 -5.8814191388710535e-01
      -2.9845807010496006e-01 -1.8238260410640006e-01
      1.1365655498804829e-01 -1.0867933386043145e-01
      -3.0620168830550139e-02 -1.0111165694292379e-01
      -8.1512955078784699e-02 1.4299115167177223e-01
      1.4988779687289833e-01 2.2343349705114669e-03
      5.9593386814252122e-02 -1.1686522760261581e-01
      -2.0237409842758280e-01 -1.8737328372062725e-01
      1.6540419019903554e-01 -7.9750609076315579e-02
      6.7286187836247957e-02 -1.8863558375836934e-01
      -1.7649858593108153e-01 9.9194649426276274e-02
      3.3927843280525498e-02 -1.5604083421912024e-01
      4.3116017660659400e-01 1.0040141170945600e-01
      -1.2345442473099874e-01 -9.9514547503513753e-02
      -3.7590436930743321e-02 -1.2668014177668646e-01
      -1.1974159296354786e-01 -2.7095333701977704e-02
      8.6747514005313525e-02 -1.7035298637213853e-01
      6.4218483619057271e-02 5.7708566382050581e-02
      5.6294134146129098e-02 -1.1619945966299018e-02
      -5.2333455986299293e-02 9.0407034143627371e-02
      1.6291873855723091e-01 3.1189220112223326e-01
      -6.1258426902097048e-02 2.4926509745576170e-02
      8.9679873102789423e-02 -4.3793749761892022e-02
      1.6276652752589776e-01 1.1195627203721879e-02
      -3.5914630494544665e-02 2.7891079879861019e-01
      1.4343273121325403e-01 1.3044053187386861e-01
      -1.1729980638865270e-01 2.8841726634311241e-02
      -3.7695401367620096e-01 -2.3080221154415767e-03
      -1.2838099948575110e-01 -8.4340168394891613e-02
      2.9612519857704162e-02 -7.4902291533180537e-02
      1.2978071948477687e-01 -2.8394424813393649e-02
      3.7420776917155524e-01 7.3069366958675913e-02
      8.7764511894554531e-02 -4.3197575414177025e-01
      -2.1320392451740156e-01 -1.0183254868873819e-01
      2.1998773377273666e-02 5.7343245883660694e-02
      3.2467826359248958e-03 3.2718906057166708e-01
      2.3385987757560006e-01 1.4249296536083067e-01
      1.1082701092381114e-01 -1.3047707639764086e-01
      -1.4085074864915328e-01 5.0414894383457198e-02
      2.2424979655699825e-03 -1.5335280263787129e-02
      2.3459975043382991e-01 -6.4649499272509431e-02
      -1.1908568938349047e-01 1.2937008424374627e-01
      -3.8638177226723858e-02 -1.1182426951140055e-01
      2.6095745959713151e-01 1.6601653071093864e-02
      -5.1982703310928163e-02 6.3425518717370538e-02
      9.5962852991699238e-02 -1.1303184652811397e-01
      5.6827194665487163e-02 -1.1171364466521583e-02
      -9.2826192065300656e-02 -1.9982903951007505e-01
      -3.1956446785625897e-02 -1.7765492165232721e-01
      7.4913097965767159e-02 -8.8888975334308451e-02
      4.5643453703497643e-02 1.1220920547676702e-01
      -1.1284948706460678e-02 -7.1785237066894880e-02
      -3.4725761647458037e-01 -1.2924933282304935e-01
      -9.2001666470100982e-02 -1.1066033771944508e-01
      5.0278379720220923e-02 -3.2261896132537070e-02
      5.3402330712266632e-02 -5.3195875017112669e-03
      3.0174559040876563e-02 -1.0923397088740353e-01
      6.1179936867890666e-02 -1.2983789603594531e-01
      4.5492468664342315e-03 8.8097807890155963e-02
      -6.0829394042630762e-02 6.1342585645216448e-02
      -5.4341878171961754e-02 -1.1138900354355788e-01
      2.2723778635266795e-01 -1.3546526810694956e-01
      6.6365451515955937e-02 1.9119181342973543e-01
      -6.5253713167798078e-01 1.2792244702397143e-01
      5.5010637290394876e-02 -6.0166131687475109e-02
      9.7716953773612589e-03 -6.6587203225956459e-02
      -9.4581037490732461e-02 2.3861306143816458e-02
      4.1575051876258276e-02 -1.2260377698936445e-01
      -4.4229410267995972e-01 -1.1892389722836293e-01
      -1.9031238048655416e-01 1.7701653787659077e-01
      2.0021145747424049e-01 5.3606855751267524e-01
      -1.2224039614557085e-01 3.9910703013882065e-01
      -4.5437422358243724e-02 1.9751309310562234e-02
      1.9556120435502666e-01 1.8968261312734461e-01
      -9.9617611311659804e-03 1.2922602669006122e-01
      2.5899279130733222e-01 -1.6027936418834651e-01
      -6.0063807244933223e-02 2.1765713872423091e-02
      -4.3322130473982610e-02 -1.5434739191918811e-01
      8.7049480179412067e-02 4.7001311799406469e-02
      4.2446324080710873e-03 2.7584230470252297e-02
      1.0246866144623505e-01 -1.3017068187184366e-01
      6.4005704399471175e-02 -2.3713268400566156e-01
      -8.3398687372343017e-02 3.5621187326325993e-02
      -7.7985888492430724e-02 -9.0221005557208259e-02
      -3.1639767517317015e-02 2.2245526724291048e-01
      -1.0221715333016843e-01 1.1380435073671118e-01
      4.2539097322659356e-02 4.7513642828550903e-02
      1.6474914503281501e-01 -5.2766564229320197e-02
      -2.7938431976767215e-02 -3.6283292221035153e-03
      -8.2397755297229786e-03 -1.6092908698000993e-01
      7.1362868426316187e-02 1.1928101592692353e-01
      5.6351790066881305e-02 -4.4716143248781587e-03
      1.4663675540765292e-01 -5.4684719038978528e-02
      -1.4162862305054996e-01 -1.7509061667671946e-01
      -4.2051405965478794e-02 1.5878926820745412e-01
      -2.8974953039341317e-01 -6.6414859407751714e-02
      1.3177595544033979e-01 8.5664205394945514e-02
      6.9083035505088944e-02 -8.0229246138793522e-02
      -2.5675688857335682e-01 2.3939507407761945e-01
      -1.6263734835023864e-02 5.7534330950923716e-02
      -3.0523611495630820e-02 2.6360724842274919e-01
      -6.7522143172701957e-03 -1.6987872726794667e-02
      1.2882299024151883e-01 9.7591754115657042e-02
      -1.4865087432532195e-01 2.2970847883370088e-01
      1.4197110261366808e-01 3.7879191127199792e-02
      2.1588059668235106e-02 -3.5172299159780951e-01
      1.0861476915735710e-01 -4.8145296128154751e-03
      6.8048026218804278e-02 1.0636200164084533e-01
      1.2829098350646518e-02 -3.7331477023059161e-02
      1.1298267010719454e-01 -5.5443718296499994e-02
      -2.6397310213414099e-02 -4.7772171265376619e-02
      -1.2249150889802085e-01 -1.2725795020105349e-01
      -1.0039359570917329e-01 6.0023117787192021e-02
      8.8064265975701619e-02 -1.4830499280069184e-01
      7.0876133676424938e-02 7.6955945668112896e-02
      1.4068616487751615e-01 -2.8232473443074696e-01
      1.5073188842297965e-02 1.1861409326503827e-01
      1.9899776560428781e-01 -2.9382823780719141e-02
      1.7859015279881599e-01 -6.3078438928360445e-02
      6.6261963457991567e-03 1.1952300203796264e-01
      1.0686742864810835e-01 6.4605349807770066e-02
      1.5645605559850032e-01 -7.7015862365381896e-02
      -1.0648042069435138e-02 1.3045048121616712e-02
      1.1274755315479307e-02 3.0476262973148111e-02
      -8.0223420253057679e-03 2.4868763413419323e-01
      -5.0123525168706211e-02 -9.6933794989857214e-02
      3.2509319039304829e-01 -1.4631754641566813e-01
      -1.6228078837819587e-01 -1.9704522910501027e-01
      -1.9302586179244366e-02 -1.0514515237989164e-01
      -3.1723564325147800e-02 4.0086439252589215e-02
      1.5187352320783887e-01 -5.6595137531250533e-02
      -7.8687115126585966e-02 -6.2345896919993447e-02
      1.8154801973685392e-01 1.0568631957113110e-01
      1.6735608367123123e-01 -1.6806557730874899e-01
      -3.4075763720853247e-02 3.0521013275553632e-02
      1.6044191788318918e-01 1.2242722839682374e-01
      -3.3456520800877250e-02 2.5875597168127706e-02
      -2.6094600135761103e-01 7.4323425545066948e-02
      1.0286716390581155e-01 -7.3407991101877609e-02
      -3.6514275946852040e-02 -5.1549196713440944e-02
      2.5362712390599774e-02 1.2651919975214060e-01
      6.2183432792099320e-02 2.7137606641474582e-01
      -9.5376041994483463e-02 -2.7808597116621259e-01
      -1.4279863167689541e-01 1.5829534221011185e-01
      2.7454375407963968e-02 -1.3336893134678243e-01
      1.1768983263431421e-01 -1.2685273921133453e-01
      -1.8303319347559197e-01 1.6982831483904898e-01
      -1.7428733028940077e-01 1.3669364836146297e-01
      -8.5197912343509846e-02 -9.2314115263129413e-03
      -1.7889856457604836e-01 4.9274740813734744e-02
      1.2111139073139092e-01 -1.4381408422953987e-01
      2.0095271501535397e-01 -8.2362714244704635e-02
      -2.3707172510669522e-01 2.2665986814527833e-01
      -1.3091318953277783e-01 1.7634586671475251e-02
      -1.5663619921548341e-01 3.3741618790588034e-02
      1.0182652990263912e-01 -9.5192135612187576e-02
      -3.7376136019845504e-02 1.0970980695609826e-01
      1.3712364221836323e-02 -1.9819157171750548e-01
      -1.7288449204103429e-01 -1.4148478643534868e-01
      -5.7620461634336755e-02 1.8835703081470317e-01
      -1.3274543536361066e-01 6.6133648951633939e-01
      1.0070290563929750e-01 9.5865073551656035e-02
      1.0294150918482944e-01 1.0743620625159268e-01
      -4.5400897264901438e-03 1.0554787349214867e-01
      -6.6921135160193421e-02 1.2224560180379726e-02
      1.3692276638855350e-01 9.6830523691184296e-03
      -2.8784763258014091e-02 2.6656417739528526e-01
      1.7701436049596873e-02 -1.8913833283186629e-01
      -2.6817449045064634e-01 -1.2919748042518145e-01
      9.1574585904012476e-02 -5.4654716686299704e-02
      2.8960827771167708e-02 7.7370425934409640e-02
      4.8384726226026062e-02 1.7211193173579381e-01
      -7.5229869473358121e-02 -2.0257361015897099e-01
      -1.1598720173780154e-01 1.0847591442627794e-01
      -1.5952985731992764e-01 3.6951632697865174e-02
      1.4918694198807669e-01 2.3941604838280078e-01
      -3.8406970202827500e-03 1.5470283425162015e-01
      -3.3657821544670663e-01 1.0961380183275007e-01
      -2.1813397616494628e-02 7.7416686558212697e-02
      -3.0772058310256561e-02 -4.3127926940120470e-01
      1.0129477782452151e-01 6.6352896405781528e-02
      -2.0396046169119594e-01 -1.0426784552761785e-01
      -3.8559457208987874e-02 1.4307888564409477e-01
      1.6907025738392378e-01 1.6240474779305184e-02
      -2.8849201484916442e-01 2.0369417365396492e-01
      -1.6421480338719904e-01 4.1530178785146393e-02
      -1.1197059380537321e-02 6.8654450343684031e-02
      -9.8698769275180925e-02 -9.4607941031222165e-02
      -3.7175214046365784e-01 9.5494629119831101e-02
      -1.2517894673069319e-01 -1.8226550011599646e-01
      -1.1650053930200768e-02 1.3185843641460912e-01
      -2.0539311852044731e-01 -3.4631054213391514e-02
      -2.7893958449478245e-03 6.3534939138527008e-02
      1.9389659688492158e-01 -5.9859317089521247e-02
      -8.3549363953027839e-02 1.0601660716252842e-01
      1.6140779134141134e-01 4.3263542252468845e-01
      -9.9799153833210849e-02 7.7940028075154780e-02
      -3.1604360147965041e-02 3.2125540958299670e-01
      -8.9811960499129304e-02 1.2522903031936614e-01
      -2.3676167594185681e-02 -1.1410376598087429e-01
      1.5230233205567750e-01 -9.3408270985624056e-02
      -2.1087178510133840e-02 -1.7645411561104937e-02
      -1.5029824591941882e-01 8.3116724834882375e-02
      1.6998706558486898e-01 -5.5567137289647212e-02
      9.4290463009831682e-02 5.5362361775292808e-02
      1.1421320481844448e-03 -1.1357434061446715e-01
      2.3983983351907076e-01 5.2447486366028931e-02
      -9.8356971504344415e-02 -9.6715571628779112e-02
      2.8022830892293304e-01 -2.5225008410841793e-01
      5.2937616165285611e-02 4.2650705337874094e-02
      -1.7442855146848867e-02 -1.0838507865726069e-01
      1.1266385394006426e-01 -5.8824013249712086e-02
      -7.9948320924085478e-02 2.0991223478929254e-02
      1.1062257984441547e-01 1.5208039234247689e-01
      2.2567020352922205e-02 -1.3418803425554293e-01
      2.8678698684860698e-01 -8.7823496365871390e-02
      1.0897630390490907e-01 -7.6861663256765550e-02
      2.4950222815186614e-02 -9.3457251037286804e-02
      1.0958163597024745e-01 9.7337762096806960e-02
      -1.4216034080924297e-01 -8.1640832125763341e-03
      -4.0294983729114175e-01 -2.5551859849055764e-01
      4.0968486866447024e-02 4.5085062129207487e-02
      3.4537717807710932e-03 9.5820773436515766e-02
      3.7315617563046272e-01 -2.6430533332791523e-01
      2.3382746816772046e-01 -1.7828976961310891e-01
      -1.9243901170395408e-01 1.0692451837815635e-01
      -2.4040199519643385e-01 7.9165937494661331e-02
      7.1999204250456075e-03 -2.2761316066861736e-01
      -3.1992195099554512e-02 3.3802043100245305e-01
      -5.7550677338153187e-02 -1.2544740465463700e-01
      1.0449000964728212e-02 -2.1479790519852129e-01
      -1.6990332890085269e-01 6.3881435462926047e-03
      6.7025599975766806e-02 8.1383905327230624e-02
      5.8456282417942490e-03 1.4817916761979003e-01
      7.2197159741265560e-02 1.3722243975745004e-02
      -4.0278882906976121e-03 7.6810261481064790e-02
      -5.0122921197363737e-02 -5.0866043806274908e-02
      8.0844204128527289e-02 5.7968655209005321e-02
      3.5468065769464879e-01 -1.8287876085461410e-01
      1.0375966325028606e-01 4.6846160710400703e-01
      -1.0214956603336978e-01 -1.0264438577626055e-01
      1.7361573199985381e-02 3.2654068517415497e-01
      -2.7810989892971705e-01 1.1984806877699145e-01
      2.8763473573262199e-01 1.5086808458228324e-02
      -1.6533650625095067e-01 1.0124234713690246e-01
      -6.2983004472203397e-02 -1.3640542331877853e-01
      -1.7676509027604809e-01 -2.6999162300301088e-01
      1.2166946393967704e-01 1.3466838220707616e-01
      -2.2832900715507649e-02 8.8157952709518095e-02
      -1.5349647456675566e-01 1.8158882813316440e-01
      6.8521773136988498e-02 -6.5322654753943743e-01
      1.0356857253255555e-01 -1.6020190226596730e-04
      1.1719504845798881e-02 4.7111068202477024e-01
      1.3571255985279007e-01 1.2164157965805503e-01
      3.4266598672283266e-02 1.2953516267187892e-01
      -1.3179637257025784e-01 -1.7157546009627653e-01
      1.2146419835171023e-01 -1.0532982095140701e-01
      -3.1895599801550115e-02 -1.1499242034356670e-02
      3.4622159634901423e-02 1.4015943512117282e-01
      -8.6292610475311213e-02 1.9743439681305394e-01
      8.9051628580077535e-02 2.3853191140236524e-01
      1.2823955627833869e-01 -4.2158842161386045e-02
      4.8345290143380765e-01 -3.3475261368200407e-02
      -3.4546946384290500e-01 -5.7111728667115107e-02
      -2.2201484484346365e-01 8.2211101127571157e-02
      2.2328621912495580e-01 -1.7571644425350273e-02
      1.0720386763907125e-01 -1.2818051037053846e-01
      9.0046774521389174e-03 -2.7878177512015967e-01
      -1.2496471325837934e-01 1.2920343219144226e-01
      -1.7077744793297703e-01 1.5544609980425220e-01
      -9.3019428542659793e-02 -1.1602021206869574e-01
      3.6536322642090344e-03 2.3593474740894702e-01
      -1.5166656102010875e-01 1.7812342936271496e-02
      2.2909453940028257e-01 1.6620939043436433e-02
      -1.7541990279132966e-01 1.1149666629034689e-03
      -4.7382735328974756e-03 3.8229272136052435e-02
      1.2706928293517930e-01 -4.2515686851200697e-02
      -4.9701489942967469e-01 1.2169867313417614e-01
      -8.0120914314691358e-02 4.2102669071050453e-02
      7.7776483103060318e-02 -4.7232689161351905e-02
      -2.8546718745556362e-02 -1.5651150922700882e-01
      1.5377637543675282e-01 -1.1171994700217683e-01
      -3.1668212819233588e-01 -9.3211928756279372e-02
      -7.9253978060870700e-02 -2.7263134295792607e-01
      -3.4067207858599335e-01 -4.8885446259203401e-02
      -1.4056935693559031e-02 7.9547054823318875e-01
      -9.2339469899524990e-02 7.3416917710219617e-02
      -2.0488335127212404e-02 6.3798982447922048e-01
      1.1011165660300129e-01 7.4739590672461553e-02
      -2.0000599350987317e-03 -1.5682636928704857e-01
      -7.7059604439298338e-02 -7.8703659690159064e-02
      1.0687018561429938e-01 2.2249186478986938e-01
      -2.1970208736767999e-02 6.2795756752503401e-02
      -1.6770820855705421e-01 -3.5138475931960067e-01
      -7.2561590062160966e-02 -3.0756929582946896e-01
      -6.0368962888708869e-02 -5.0978649755830191e-02
      2.3365975992121069e-01 4.4474214157192486e-02
      -2.1775600867711373e-01 1.9674999033181506e-01
      -2.2458484879293808e-01 -2.5612894818653975e-01
      3.9838626457910538e-02 -2.1923178402530163e-01
      -9.5701769065635392e-02 -8.9139945233430648e-02
      -5.8697057074815284e-01 -7.0754578769939777e-02</_>
    <_>
      5.8683721898527767e-02 1.3492764620362646e-01
      -3.9610259258955595e-02 -2.1494163171960379e-01
      1.8983659155356208e-01 -1.3848048378218437e-02
      2.7067449312520322e-02 -2.5460073919142856e-01
      1.7401689559941375e-01 1.6729566672264298e-01
      -1.3909487058751827e-01 -8.6922472279700111e-02
      1.5168655396516578e-01 -4.9295511457383340e-02
      1.6638851551993478e-01 2.2880173293316608e-01
      -2.1060731086707399e-01 -5.0328107706212899e-01
      5.7545348217149561e-01 -2.1622680691214580e-01
      4.9224989764634913e-01 1.5926357994699405e-01
      -9.6941635029848386e-02 4.3679247194571957e-01
      1.3196870023542795e-01 1.9802776796196603e-01
      1.0203729223927842e-01 -1.1118560056383191e-01
      4.4116479744366881e-02 1.4287227466811214e-01
      -5.2221040126268027e-02 -8.6543364424473995e-02
      -8.7356734532278865e-02 1.1307162042761175e-01
      2.3490423148871695e-01 1.9450594449116995e-01
      -3.0049603329916384e-02 -4.3565113468208599e-01
      9.5168055278386468e-02 -4.8018726084601483e-02
      3.4382538448775937e-02 -1.7724684257999460e-01
      -2.2324753080396744e-02 1.6963283619850311e-01
      -1.9738134310929634e-01 -8.3298387530154272e-01
      1.0477347545368978e-01 1.0722443119889269e-02
      2.3025750400980718e-02 9.7937828355655496e-02
      -1.9237012260243578e-02 -1.8561746730383712e-02
      4.5052137500010365e-02 1.8633938351549154e-01
      2.0749479825815451e-01 -2.2848921668256798e-02
      -3.9141440496783697e-02 -1.0822267783306333e-01
      -1.8486173224740748e-01 5.5697545160388148e-02
      -1.0036198970011578e-01 -1.0930418491593920e-01
      1.8021504918319581e-01 7.4235932075439881e-02
      4.6500611621775656e-02 -9.7660394890675697e-02
      1.1908730434010866e-02 -5.7707750307565620e-01
      2.5641895632498277e-02 -5.1230115837765301e-02
      -3.0622812211059841e-01 1.6888554377913274e-02
      1.8119860201309049e-01 -1.2865422983218014e-01
      -3.5409696189705575e-01 -3.2518721302610576e-02
      1.7037013115290624e-02 -6.5674633307227392e-02
      2.5771874789469441e-02 6.5308587910640273e-02
      -5.1218363195773060e-02 6.3609483916276882e-02
      -2.1354931868702848e-01 3.8676939223031316e-02
      2.4723378796126825e-02 -4.4418377688457925e-02
      2.8643415573933412e-01 7.0908334499208678e-02
      -4.9842870499280705e-02 -4.8111220383997823e-02
      3.9484042308410815e-02 -5.1418490995346700e-03
      8.8461229913748260e-02 1.0117040454704500e-01
      -6.0596587823272506e-02 5.5944202796795975e-02
      6.1616398500308908e-02 -2.0192379007086699e-02
      -7.2312053423765316e-02 1.8166810981303969e-03
      6.9398296674659701e-02 7.8572415036452237e-02
      1.5782351086853949e-01 5.9818059561771442e-02
      6.1062006603032959e-02 -4.7389831144662643e-02
      -2.8424135946126260e-02 -9.2062224268869897e-02
      5.2883689525851922e-02 1.1551628200456719e-01
      8.4304194173896688e-02 -3.4571265511274749e-02
      -6.1695342173563462e-02 -3.8021055084950052e-02
      -3.0499208721096863e-02 3.9067427064469702e-02
      6.6183734774075284e-02 -6.2044577119026462e-03
      2.2155174615739823e-03 -4.9661812991493741e-02
      7.2497707287562316e-02 7.9112530289643254e-02
      -2.3289676171450152e-01 -7.3848483173752352e-02
      2.3879682935342480e-02 4.2126332457075441e-03
      -5.4266737618824619e-02 -1.0810209254598788e-02
      3.6380624540899485e-02 -1.5654515544759789e-01
      5.2842584022545928e-02 -5.8686985572647461e-02
      5.2225188159066675e-03 -2.7268088473150688e-02
      2.2737414225068940e-02 -1.7201679342989603e-02
      -4.3710284082276493e-02 -1.1210126026641093e-01
      -1.9230143712297278e-02 3.9960964561847015e-02
      5.4426630263463921e-02 -4.6174175948083693e-02
      1.6182297890568095e-01 1.8438408741937376e-02
      -5.4019310142339313e-04 -1.1441443559632755e-01
      -6.2988450062448451e-02 4.9775751007654426e-02
      -1.7340600380098542e-01 -1.6669025312270624e-01
      -1.4462075516192785e-01 -8.1742495704885260e-03
      1.2417781689078615e-02 -1.0458611031371183e-02
      5.2900157880458668e-02 -6.3597543861590625e-02
      2.6531334158389205e-02 -8.8022729939330413e-02
      1.0485569458147159e-01 4.4931826294279560e-02
      -9.0001225390265935e-02 1.5829067699413302e-01
      8.4233167770897538e-02 -1.3505452189613755e-02
      -1.0350332013733973e-02 8.0992751736554916e-02
      -4.1200977660047405e-02 -2.5120756075936912e-01
      -1.7212533549614703e-02 -5.7654849703394760e-02
      6.0435602970029256e-02 8.2572638004459895e-02
      -5.7556806461658830e-03 7.1752934862129381e-03
      5.0655454811055205e-02 5.8402702860046764e-02
      4.3343743453379435e-02 9.6347233633768667e-02
      2.0086418883480551e-02 7.9305956670888397e-02
      2.7791618131707027e-03 -7.9501430147492072e-02
      -5.2504112242530827e-02 3.1500646916410122e-02
      6.5562317839946843e-02 5.0532749492114150e-02
      -1.4715009765450365e-01 -1.2489956587381137e-01
      2.1490167954240438e-02 -5.9245318537150829e-02
      9.1997569952032301e-02 1.0710388765984093e-01
      6.7969153110426549e-03 4.1612378883992579e-02
      1.3210544066668342e-02 2.4426772042524292e-02
      4.2090419033805851e-02 -2.7711022903732899e-05
      6.5979751724163191e-02 3.9775601187734842e-02
      -1.0536369839612567e-02 -1.0055145241852897e-01
      3.5195670249981892e-03 1.6608291127348365e-01
      -2.9986169306249730e-02 -1.1440338457652030e-02
      -2.3796743041538071e-01 -1.6462273443303789e-02
      -7.5428835021382437e-02 1.3016989447191663e-01
      -1.0423506250500120e-01 -4.4173660470415071e-02
      -1.9546176511748878e-02 9.6944851559317407e-03
      6.2186559438541233e-02 2.6872404587249984e-02
      -2.1235037316161050e-03 1.3263114535510517e-01
      6.9363156444432209e-02 -5.4213130418779822e-02
      -1.9501659322131212e-01 -2.0285348765126294e-02
      2.1243697122327790e-01 -1.7239899521222932e-01
      -1.5204197705742883e-01 -6.9219689424193626e-02
      -3.1168782641036313e-02 -1.6800779299404028e-02
      4.3471850486765780e-02 1.5358093338715115e-01
      -4.2838228960805164e-02 -1.8894164885661993e-02
      -1.6847853742259439e-01 4.0167489827537747e-02
      -2.4070140260412959e-02 -8.7905776320572601e-02
      1.8226583250790146e-01 1.2424820750498472e-02
      -6.7865951388711042e-03 -3.2532247909957450e-02
      1.1353793943037212e-02 5.8109161469503609e-02
      -1.1431483467112795e-01 4.1018296577604890e-02
      -6.7938317619630637e-02 9.6688962358948000e-02
      6.0293876501486834e-02 2.4736072847528330e-02
      -1.6870481320595831e-01 2.2689297137460537e-02
      3.7744722027228145e-02 -1.4815899049155701e-02
      2.0402661288194018e-01 -4.2769519813033101e-04
      6.0247323062433876e-02 -2.3544220374299409e-02
      -1.9381963270937257e-02 -2.9489844482410005e-02
      4.9126492113604349e-02 5.6593347745903737e-02
      1.5408853889068802e-01 -4.2096177086823817e-02
      -7.4995658805138990e-02 1.1652139988598025e-01
      -4.6198062354867973e-02 6.0186032050746678e-02
      5.6193880002232605e-02 3.2203462706428252e-03
      -2.1156501834221533e-02 -7.2188041755549964e-02
      9.5441873414672876e-02 7.9253810744033641e-03
      -1.2263820371122153e-01 -1.4233767123209587e-01
      -6.5704337953712945e-03 -4.1274613545933377e-02
      -5.0676152604199352e-02 8.5079660028919313e-02
      1.5460022011630542e-01 9.8518196854356158e-03
      3.9136547234675051e-02 -1.7011440841457851e-01
      -1.5629491160703668e-02 -7.3712189139126194e-02
      5.3036975162225164e-02 -4.8775266262089334e-02
      -5.9090955222673054e-02 -1.6582060641650859e-01
      1.5477631514139643e-02 5.1880064725028513e-02
      1.1750434756423289e-02 -5.1207951792638540e-02
      1.4907712355184713e-01 1.0929914448850424e-02
      -4.7238340405197220e-02 -1.7387326140368051e-01
      -7.9945830739523396e-02 1.1522619461923073e-01
      -1.9012539527556471e-01 -2.4870563685622632e-01
      -1.3096337548250339e-01 -2.3543492839881955e-01
      1.9462580095335855e-01 -2.7254055612716849e-01
      2.7224441033368457e-01 -1.8900515141679872e-01
      3.0862340363528640e-02 1.6353687886615259e-01
      3.1367540612410427e-01 -1.4337330893486358e-01
      1.7254129168212706e-01 2.5430750311178490e-01
      5.5719576700120940e-02 6.8780338747221947e-02
      6.3903137825938638e-01 -1.7147768899889712e-01
      -2.3977591451576977e-01 2.3293228696642743e-01
      -1.5754410383506273e-01 -3.1165505231949046e-02
      -2.0461539812977136e-01 -1.8540967677126929e-01
      -5.5156271342923661e-02 6.2249741379885459e-01
      1.0417715968230526e-01 5.4379129383507974e-01
      -2.4411979307280070e-02 6.9529653833293223e-02
      -1.2279278651188670e-02 -7.7759053693308683e-02
      1.5851361598146690e-01 -7.1571575989148248e-02
      -4.1700287790723978e-01 -1.7618643880458201e-01
      -1.0498490507411332e-01 -6.8473335340114727e-01
      2.3070668703293010e-01 9.7556517821395045e-02
      9.6160018942132691e-02 -7.9160397253874804e-02
      1.6534570109618191e-01 -8.3068804721806125e-02
      9.9539746276889676e-02 2.8128886263296099e-01
      2.3486058508607138e-01 9.6948990286391586e-03
      2.1200876509956834e-02 1.5974872680295515e-01
      -5.8209288788035642e-03 8.3644014787294801e-02
      1.3981889574107828e-01 -9.8787199508547863e-02
      -1.7733333800960688e-01 -1.1255450274474728e-01
      6.8479794893889140e-02 1.2159675539544798e-01
      4.8572092554305818e-01 -7.8006182298110488e-02
      -7.1796350401517883e-03 -1.9974982104795641e-01
      -1.9341338360300123e-01 -1.0464814166549291e-01
      3.2265699863748892e-01 -1.5036173248252370e-02
      -1.4324912138928908e-01 1.5808159508774525e-01
      1.2911326996221184e-01 6.2162691655341684e-01
      3.0118254878496359e-01 -1.8052634283598376e-01
      6.0247175286561976e-02 4.9151457823080696e-01
      -9.4525389093493395e-02 -9.7700058645274715e-02
      -2.2517566695228128e-01 2.3629437164476677e-01
      2.5675613537271047e-01 2.2503731021199302e-02
      -8.9282537337178294e-02 -1.9831736440722177e-02
      7.0335775685984078e-02 -1.8756885119822791e-02
      3.7304267736921448e-01 2.9230356552188509e-02
      1.9398981315778752e-01 7.7432698353047155e-02
      -2.2147538593105293e-01 -2.2207604921842405e-04
      -5.1235673725580431e-02 -2.8010123200487014e-01
      1.2547579763069164e-01 -2.4919685272121483e-01
      -3.0488223768453629e-02 1.1471492512795124e-01
      -2.5376207760596573e-02 -1.8476215926928280e-01
      -1.6265504708063178e-02 -1.9603058040674878e-01
      8.9306964992465751e-02 8.1409750945034068e-02
      -2.2347461052973272e-01 9.0793656159425959e-02
      -1.1278150546523662e-01 9.9787018439192798e-02
      2.6930986859912642e-02 3.1508226427543570e-02
      3.2914008119388036e-02 2.6323285789139272e-01
      -7.1971339314407620e-02 -2.5084904100523088e-02
      -1.2785380078282957e-01 9.0578766875839711e-02
      5.6593174281262378e-02 -1.6170245512997466e-01
      -2.0976742561931497e-02 -4.0743363415339184e-02
      5.2520290816576937e-03 -1.3764778645102319e-01
      1.8386398145137509e-01 -1.3644750313846504e-01
      -9.7452399024578598e-02 -9.6360902160250485e-03
      -8.4086068080531762e-02 2.3231462605258785e-02
      7.8216761716702402e-02 1.9642826975373578e-01
      1.0283227361384978e-01 5.6141012260671412e-02
      -6.8214127212907122e-02 -8.1281465856391802e-02
      2.1253127820005935e-01 2.0359402688307190e-01
      -7.9763054616214177e-02 -2.8403841155034582e-02
      -1.1850840795141233e-01 1.2729158420765633e-02
      1.8161830329811532e-01 -1.4893773071874492e-01
      7.8011671182192543e-02 -9.9216088149634715e-02
      -2.4014881732346713e-01 1.5319016179973496e-01
      -8.7910107031518303e-02 1.3060163398690584e-02
      4.3335823079801369e-02 4.3324092029344524e-01
      6.8966952087953934e-02 1.2971038583652813e-02
      1.1712865955976517e-01 4.6693089154945400e-01
      7.5695542092758472e-02 -5.8326193139773039e-02
      1.7627938809552733e-02 3.4134097086236811e-02
      1.1170733331002811e-02 7.4083636386310450e-03
      8.2578990692511883e-04 1.1769472249566433e-01
      -4.9474908410121650e-02 -1.1777847789149687e-01
      5.0656985420707831e-02 -2.5783364680882304e-01
      -3.9058772326158175e-02 4.0072619059548946e-02
      6.7293199383677491e-02 -1.1747240582378242e-01
      7.6771995167731741e-02 6.0061211997807770e-02
      -1.0524388921458951e-01 9.5848623898865282e-02
      -2.7894847880166951e-01 -5.5278351658303061e-02
      3.8575691859845641e-02 1.4104651710535542e-03
      -4.2798049490716764e-02 6.0837282857741641e-02
      3.4140029935620569e-02 -6.1829955251681886e-03
      -6.5024689880868016e-03 -3.2210832072795341e-02
      1.9408507913422791e-02 3.1683939179193488e-02
      8.1338423314848959e-02 -6.0549990497550926e-03
      -7.6716390301448140e-02 -5.2281260967144867e-02
      1.4094179503458637e-01 -4.1127730144459853e-03
      4.3830124827169366e-02 1.2947858231694285e-02
      -6.2989701238591142e-02 -2.1320178966649744e-01
      5.3835981551641016e-02 -2.3543607180038818e-02
      5.0188183637869914e-02 -4.8154753573787436e-02
      -3.9907570942692865e-02 6.4393330768285267e-02
      -1.4816987853119121e-01 -4.7091075463432545e-02
      -4.7194879798102732e-02 2.6630563751753361e-03
      6.2950485933519873e-02 -1.6039403345945930e-01
      1.1552255144835258e-01 -2.7893610497635959e-02
      1.8915698748154236e-01 2.8433326531506580e-02
      2.3026379117459674e-02 -5.2608236608747361e-02
      -1.5477314229083233e-03 1.0201037817330880e-02
      -2.4275567573477642e-02 -5.6529779486579723e-02
      -5.5174440159692605e-02 -1.0720500803921630e-02
      1.9509624640499691e-02 -1.7891137236272195e-01
      -1.2893284641788403e-02 4.0420345191171360e-02
      1.1038916319688452e-02 6.1426140497684106e-02
      -1.1520924503407411e-01 5.9501966225076017e-02
      1.7896512392525926e-01 2.8401181494589468e-02
      -1.6605372719929613e-03 -1.1220072887139282e-02
      -7.0645986398515173e-02 -1.6066300171246758e-02
      3.6838430120704528e-02 -2.6058710357301819e-02
      1.9817746554505192e-01 -4.1395247654097835e-02
      2.8862430221395876e-03 5.4937678848832466e-02
      -1.6566838721942737e-01 -4.5277592524247443e-02
      3.7297996987287751e-02 -1.1292588382380910e-01
      -8.2892584542698294e-02 -3.3658415752314305e-02
      -1.7866919978179185e-01 5.6208193182661716e-02
      1.1422156437311186e-01 -2.3224904548896219e-01
      -1.2810602081932748e-02 -2.9782716667871779e-02
      2.2664935020916929e-02 -3.7734611495148625e-02
      -1.1777127866152115e-01 -4.2162474150971132e-03
      -2.0832768645769998e-02 -1.6052668220819011e-02
      -4.2048084461190037e-02 -4.6891530918354313e-03
      2.0717408905278716e-02 5.2700885251302891e-02
      -2.3013701467780430e-02 -5.2298048414052618e-02
      -1.0702730892349775e-01 9.3480699059991894e-03
      -1.1020081087289631e-02 -1.6008913050542711e-01
      8.7984330462926481e-03 -3.7468639796573729e-02
      -4.8574622851819467e-02 -4.9581117111008460e-03
      6.0781316081497408e-02 -8.7535939086439501e-02
      5.4571773494647008e-02 -2.6548358467488233e-02
      7.3183674855993627e-02 1.6422540702608662e-03
      -4.5411009489884815e-02 -1.7553089663069183e-03
      2.7720605847550817e-02 9.5471432588213181e-02
      -1.0089902191669858e-02 2.7577778656084345e-01
      7.3472927325568246e-02 1.4143933199676822e-01
      1.0164616694160064e-02 1.4826586321125292e-02
      -4.4825506952247927e-02 -1.0110735060842454e-02
      -3.0136519412408080e-02 -7.8857803498441140e-02
      1.8588533695196179e-02 -7.8783569275444845e-02
      -7.2405917718743051e-02 2.8139713410407437e-02
      3.4184014151159493e-02 -4.8925319852087236e-02
      3.5204637800816820e-02 1.1411598193335240e-01
      8.9517100040388195e-02 -2.2894299968999401e-02
      1.1086448334159832e-01 3.9539854176094940e-03
      4.5054280384921132e-02 3.2388538209842874e-02
      2.6164696968927312e-03 9.8779238289684115e-02
      -4.1656267777631102e-02 2.9991879769484475e-02
      -4.6836348295054023e-02 6.8320034105795027e-02
      -1.6035453041817312e-02 1.1555028804569899e-02
      -2.6581274999792300e-02 -1.6572537320078234e-01
      -4.2057475666313862e-02 8.8852306714755705e-03
      3.6698247753204224e-02 1.5242278710863711e-02
      1.1313164129881564e-02 -5.1294124027711274e-02
      -2.1057359851360818e-01 -5.1075458659052997e-02
      -7.3784678694118033e-02 -2.2471284056042994e-02
      7.0901040056516748e-02 -6.7634523401820634e-02
      -1.9761699564765291e-02 -1.5449145915389723e-01
      2.1227041060429639e-02 -2.1907252042315941e-02
      -2.6385258882279980e-02 -1.9123505053063997e-02
      5.3667006026530489e-02 2.6365029366637451e-02
      6.6567351420370957e-02 -2.4670558837432514e-02
      -5.5777438426705878e-02 1.6446354051121995e-01
      6.5226143303279638e-02 6.6403122174337290e-02
      -6.9385831202960812e-03 3.1444211180781702e-02
      8.0638441216169220e-04 3.6803572407111518e-02
      -2.3891447253276059e-03 -1.3530046775804658e-01
      1.3667200032922211e-01 -9.3563321543299049e-02
      -7.5552529761965331e-02 6.6001221224744430e-02
      6.2638330064439265e-02 -3.8609806969505167e-02
      -7.4399318366634298e-02 2.6622705565980325e-02
      1.1568453337361397e-03 -3.4506838885660800e-02
      8.8331469880813612e-02 -3.9928269990705957e-02
      1.2449901834710245e-01 4.1213024636399254e-02
      1.4400572607782283e-02 9.9394507495785597e-03
