<?xml version="1.0"?>
<opencv_storage>
<opencv_ml_ann_mlp>
  <format>3</format>
  <layer_sizes>
    20 150 75 50 10</layer_sizes>
  <activation_function>SIGMOID_SYM</activation_function>
  <f_param1>6.6666666666666663e-01</f_param1>
  <f_param2>1.7159000000000000e+00</f_param2>
  <min_val>-9.4999999999999996e-01</min_val>
  <max_val>9.4999999999999996e-01</max_val>
  <min_val1>-9.7999999999999998e-01</min_val1>
  <max_val1>9.7999999999999998e-01</max_val1>
  <training_params>
    <train_method>BACKPROP</train_method>
    <dw_scale>1.0000000000000000e-03</dw_scale>
    <moment_scale>0.</moment_scale>
    <term_criteria>
      <iterations>1000</iterations></term_criteria></training_params>
  <input_scale>
    1. -2. 4.3669278633738813e+00 -2.8721727464128386e+00
    1.0007395309235573e+01 -2.6019248951615550e+00
    8.7173529749334460e+00 -2.2047262661174889e+00
    9.1847216365311457e+00 -2.1023834804381560e+00
    8.3942494303633772e+00 -1.2214912925233845e+00
    1.7441631119057721e+01 -1.4600061259104871e+00
    3.2733830866213673e+01 -1.8886216271731224e+00
    4.2066182457299981e+01 -1.8044771530411003e+00
    5.4679698617154564e+01 -2.0481681699380898e+00
    6.2355238343803791e+01 -1.9023831378102860e+00
    7.5015743131499065e+01 -2.1380244471424432e+00
    8.0511798581562843e+01 -1.9845564873999482e+00
    7.8682718802280036e+01 -1.8528961982799175e+00
    1.0779857674069844e+02 -2.2166906276318161e+00
    9.4979635295613974e+01 -1.7533312614097623e+00
    1.2286582292167100e+02 -1.9745397826676687e+00
    1.2523133002514435e+02 -1.7783090396412109e+00
    1.6249803043294671e+02 -2.1135800785564256e+00
    1.7704272613283914e+02 -2.0206113956057634e+00</input_scale>
  <output_scale>
    5.2631578947368418e-01 4.9999999999999994e-01 5.2631578947368418e-01
    4.9999999999999994e-01 5.2631578947368418e-01 4.9999999999999994e-01
    5.2631578947368418e-01 4.9999999999999994e-01 5.2631578947368418e-01
    4.9999999999999994e-01 5.2631578947368418e-01 4.9999999999999994e-01
    5.2631578947368418e-01 4.9999999999999994e-01 5.2631578947368418e-01
    4.9999999999999994e-01 5.2631578947368418e-01 4.9999999999999994e-01
    5.2631578947368418e-01 4.9999999999999994e-01</output_scale>
  <inv_output_scale>
    1.8999999999999999e+00 -9.4999999999999996e-01
    1.8999999999999999e+00 -9.4999999999999996e-01
    1.8999999999999999e+00 -9.4999999999999996e-01
    1.8999999999999999e+00 -9.4999999999999996e-01
    1.8999999999999999e+00 -9.4999999999999996e-01
    1.8999999999999999e+00 -9.4999999999999996e-01
    1.8999999999999999e+00 -9.4999999999999996e-01
    1.8999999999999999e+00 -9.4999999999999996e-01
    1.8999999999999999e+00 -9.4999999999999996e-01
    1.8999999999999999e+00 -9.4999999999999996e-01</inv_output_scale>
  <weights>
    <_>
      -8.2757375802817140e-02 -4.7866296170495669e-02
      3.4799286754172418e-02 1.0465182886868873e-02
      -6.3697334291805213e-02 -8.6234548285038196e-02
      -1.1445358691538033e-02 7.3685600362118353e-02
      -5.0660506134697090e-03 9.5160058597561353e-02
      -6.0278613996802184e-02 6.6914096614628729e-02
      -3.9220677919977506e-02 -1.0159472843014404e-01
      -3.3911932085716502e-02 1.0202277929104334e-01
      6.4828097844873644e-02 -7.1049133855389135e-02
      -5.5272994134809489e-02 6.2658411754898127e-02
      -6.8442624477581829e-02 -8.9596732792398173e-02
      -7.3253678237775371e-02 -5.6049129640898795e-02
      -7.9909447943857528e-02 -5.8272751711757644e-02
      -2.9950947491489289e-02 -3.3675491912360564e-02
      1.0887421210055713e-01 8.5374271519676123e-02
      7.0016702585746340e-02 4.5126919606790800e-02
      -1.0100103065925332e-02 5.3427916649144196e-02
      -7.5552662125942138e-02 6.6526966510134587e-04
      -6.7249086113210871e-02 2.4296619566502365e-03
      3.0655761775786757e-03 -9.1507509860408981e-02
      -8.9056608041319568e-02 5.6056992877279270e-02
      6.7124470396462188e-02 7.8598302745719967e-02
      1.3938701970644727e-02 7.2431789689251916e-02
      6.1816637407110422e-02 3.1664321133639456e-02
      9.7763002104283014e-02 -4.4481179692044952e-02
      -5.4052380791466181e-02 -5.5850069460793600e-02
      6.2372877279350383e-02 6.3326562000703357e-02
      1.0205876429416644e-02 6.1437060989052904e-02
      6.8206116280277562e-02 -2.6613779930036090e-02
      -2.3448076400568792e-02 4.9585623466151356e-02
      6.2498095962956926e-02 -6.2708570091951202e-02
      -7.5467050934548016e-02 -3.8461689483549021e-02
      1.3020271764691569e-02 -9.4682399034611134e-02
      1.7864727881777714e-02 7.2749492295820617e-02
      -1.5113250366278511e-02 5.8647277485417482e-02
      3.3401100608284336e-02 3.1366347199643728e-02
      -9.0472826003230977e-02 -6.1448262690085451e-02
      -7.1164789169903764e-02 -7.0128621745942393e-02
      6.2906435050404774e-02 8.4355510966750924e-02
      -7.4733845812730584e-02 3.3859509763797944e-02
      1.3944880984445877e-02 2.5249217714254885e-02
      -5.6725802575965038e-02 5.9850526265402347e-02
      -5.3672059118593199e-02 1.0204902259356154e-01
      7.5301307423334934e-02 -1.6520246176746117e-02
      1.1454623103881495e-01 -5.1653918528428711e-02
      -3.2664785367743539e-02 9.4897745073424397e-02
      -8.0219918969561890e-02 5.6575004805554342e-03
      -5.0333075499891397e-02 -1.5829465407415068e-02
      3.2276721262366982e-03 2.9492813982649524e-02
      1.9846910632380324e-02 5.3840697788637572e-02
      3.0313307427828552e-02 -9.9891625353483629e-02
      -1.0128788446167054e-01 -6.1470919735065660e-02
      -7.7054311500282413e-02 3.4696434536941545e-02
      7.0279137598297403e-02 -6.4270428978822200e-03
      1.6546339311263102e-02 -7.0066871165309588e-02
      -7.2053095787515380e-03 -3.0896115308018106e-02
      8.3379036298779602e-02 1.1209142682846866e-01
      9.1227956600965193e-02 3.6042950585123581e-03
      9.8548521010677265e-02 -1.2613008838219039e-01
      5.3970248708922468e-02 1.0403318002772442e-01
      -1.7993518290413037e-02 -1.2160112267802956e-02
      -6.3858379999247192e-02 -1.0783944836298635e-01
      3.5214844382696953e-02 5.5602895641203222e-02
      -4.6936284040866381e-02 5.1714982975788325e-02
      -9.8009407471432525e-02 -9.9590137711414459e-04
      -9.1613082391947959e-03 -6.8631104366866341e-02
      9.6575256071779664e-02 1.8332398989064327e-02
      -3.5081110027464078e-02 7.6850157259141669e-02
      5.4500452259603802e-02 -8.1526932949650119e-02
      -6.0981394116285642e-02 4.3707272672932146e-02
      -6.2903182190385154e-02 -9.6800793899943824e-02
      8.2641734214841139e-02 1.9229039897499686e-02
      7.2723374234071311e-02 -6.8400410768063302e-02
      -3.2760741718212754e-03 -7.0216543568398793e-02
      -4.4331891099119010e-02 -5.0412983348782574e-02
      -2.9733062300552426e-01 -2.2375157994718248e-01
      1.7569400710590385e-01 -7.6725594113550039e-02
      -7.3961508041337526e-02 2.1960341543801931e-01
      5.4099985872373069e-01 6.8327902035501278e-02
      -1.9485254314747680e-03 1.6367380205196186e-01
      -5.7103630451175662e-02 -1.0956239358669537e-01
      2.0112758622415847e-01 1.9435587454469749e-01
      1.7943152654700587e-01 1.5270348343275678e-01
      7.0743742334929013e-02 1.4680116178052913e-01
      -7.0917836269158166e-02 -1.0436590420749411e-01
      -1.2673411998689266e-01 2.7671677577559911e-01
      1.9749227905824507e-02 -1.5964264851738516e-01
      1.9999594490150996e-01 -4.6331629278886699e-01
      1.3646448726799817e-01 -1.7301662074359417e-01
      -3.1814332610989604e-01 -1.8123138016509116e-01
      2.0504046431781983e-01 6.8715067530775512e-02
      2.5961224310967440e-01 -1.4144047724798162e-01
      -5.0081152420156172e-01 1.9317902361715239e-01
      3.3100831364711369e-02 3.6406675752657297e-02
      2.2517498353553336e-01 -2.5876257147817672e-01
      -2.0147148026019221e-01 3.4130690914038092e-01
      -1.4403827693859189e-01 2.2368911395123028e-01
      3.2650781888815844e-01 1.1394487906351400e-01
      2.3445855429630708e-01 9.7044024653583721e-02
      -3.2296108468298312e-01 -2.0850221877030178e-01
      -7.4691203249575289e-02 2.3430888370908229e-01
      7.9468729851812619e-03 -4.0129890183178189e-02
      -3.0598238342980427e-01 6.5037482333360527e-02
      -1.8937942148721285e-01 1.7414424191381932e-02
      -7.8919649860239943e-02 1.8775404832541825e-01
      1.3538099336053103e-01 -2.6458316621319378e-01
      2.7371341496564505e-01 -2.6363942625934039e-01
      -1.3722784841465049e-01 4.6996883721832708e-02
      -1.0092622255575710e-01 2.7826244526778005e-01
      -1.0352173479580278e-01 -6.8775062493006717e-02
      1.2260243102709509e-01 -1.8757735720700339e-01
      2.3672522407199109e-01 -1.4432742978755317e-01
      6.8728426506938695e-02 -1.7032087670685314e-01
      3.0884351494086321e-01 -4.1051678058463331e-01
      3.8245151511156777e-01 -2.8641369608704648e-01
      3.8705125730338980e-01 5.0529000151075287e-01
      2.1906023769202509e-01 8.4958674917001861e-02
      2.0546482491348067e-01 2.3328439229987483e-01
      -2.8626137517890488e-01 3.5350779158801870e-01
      -1.3376955754598516e-01 3.2147858249619315e-01
      4.3070160367478507e-03 -1.6714720287770640e-01
      2.2003724633343980e-01 -1.0747603153641302e-01
      2.3308246327181079e-01 -2.2206253918990593e-01
      -1.3498469045343772e-01 -6.0402011362645069e-01
      -1.4009874843265904e-01 -7.1772671545681643e-01
      -3.2742170033887241e-01 -5.2751312644330119e-02
      -1.7362890731345723e-01 1.1181372151660951e-01
      -1.2336154722653930e-02 3.2635544346202483e-01
      -2.4798560801076006e-01 -4.1585267199901654e-01
      -9.4053719170149652e-02 1.2368626518896758e-01
      1.9613496328077840e-01 2.6010629100308255e-02
      -6.7801887048011744e-03 -1.7436480327907100e-01
      3.0520492404306453e-02 -1.2534716055997627e-01
      -9.7244495829012206e-02 -6.6852487676471339e-02
      -1.2433389786513580e-01 3.2907266199032048e-01
      -1.9518651860914688e-01 -1.7538968013045289e-01
      4.0713824249632735e-01 2.8875216480935207e-02
      -1.0873777769629838e-02 -1.6771698379795308e-01
      1.2454069128442352e-01 5.1526510385393742e-02
      -1.4764243318429463e-02 2.7449256425109464e-01
      2.9927455179872303e-01 -3.3493982720906196e-01
      3.7641596810872441e-01 1.8008266133707401e-01
      -5.1702887098716133e-01 -1.0053070722717705e-01
      -6.8884409180897610e-02 -2.0270310870282687e-01
      -5.9595349098209759e-02 1.0204982151977926e-01
      1.7220625683708624e-01 -1.5727630101439477e-01
      -2.5936834497653960e-01 -3.4506157167140172e-01
      -4.2559589220260957e-01 8.8781706500009744e-02
      -8.0355009572401062e-02 -4.1559979923754214e-01
      -1.9990989218074537e-01 -1.6811731760606655e-01
      -8.8310347077493828e-02 -3.6083184346701214e-02
      -1.3680954888433913e-01 -1.5078193544346966e-01
      9.7728375045694343e-02 1.4067866751604965e-01
      4.3378087043978142e-01 1.0280245712747914e-01
      1.0026977504494911e-01 1.0872385332007412e-01
      1.9614608313867704e-01 -7.7660604554227367e-02
      -2.6465072737274792e-01 -1.8256573590933683e-01
      -2.3024657828377892e-01 -1.5998155398012318e-01
      1.0817290068479654e-01 -1.2421972526913609e-01
      4.6363531327346746e-02 2.0066279041638019e-01
      3.1005076085956323e-01 -1.8990862641860487e-01
      -3.0281534100247381e-01 3.9758556949499968e-01
      2.8463557021642111e-01 -1.3407574468765193e-01
      -8.9923530828243628e-02 5.7725186721931616e-02
      3.0414511137734901e-01 -2.2680651603549348e-01
      -1.4746756602410946e-02 -6.2831055350086554e-02
      -1.1073396873651935e-01 -2.0817972054210869e-02
      2.3209185283656092e-01 -6.9704850782634747e-02
      -1.8163005060980497e-01 2.9188400668598574e-01
      3.0804707106224686e-02 1.7017773733361730e-01
      -1.7060927551431626e-02 1.3167814445988685e-01
      1.9987470035005356e-01 7.5421775990481027e-02
      3.9198186723285483e-02 -1.7773472825055828e-01
      -7.9109657367044797e-02 -1.3656423325214068e-01
      1.7560061027342619e-01 -3.2553245073948375e-03
      1.7063612890005445e-01 1.1859540615964169e-01
      7.7328078387696675e-02 7.2322348869456765e-02
      -6.6292108770183170e-02 8.5307431138698278e-02
      -6.5540010867177145e-02 -1.6367427067995547e-02
      -2.3124079656333235e-01 1.8413096092341219e-01
      -8.4490438908948737e-02 1.1500728693406134e-01
      -2.3820080619455264e-01 -3.0425115604299020e-02
      -7.1477701881325975e-02 7.1218409179453462e-02
      -5.0488489707580429e-02 -1.7696981871017911e-01
      4.6899035686299363e-02 -4.0128078470229832e-02
      -3.2368051644639390e-01 1.1573650866892080e-01
      -2.0878081580882893e-01 -1.2139589434044595e-01
      -9.6657320412890761e-03 -1.1794823749594081e-01
      -9.2806842238647588e-02 -1.3093855250727310e-01
      -2.2784604231820785e-01 -1.8609646696942157e-02
      -2.1556790622940578e-01 -1.9634615930803906e-01
      -1.4125404164042862e-01 -1.9108383337561735e-02
      -9.5123816889736465e-02 8.5748381099315568e-02
      2.5899049550300302e-01 1.0140739679382142e-01
      4.9242751592663177e-02 2.1705980471376510e-01
      -4.1292360444900728e-02 -1.4483621916361422e-01
      -1.8315968734424129e-01 2.6564383082033585e-02
      -1.1468415659309777e-01 1.6130132845675302e-01
      -3.7376361265104774e-01 -1.8105372140857204e-01
      2.8433346127176790e-01 6.5314775082010487e-02
      4.3023652076129168e-02 -2.2327789151907629e-01
      -7.2061995810107343e-03 1.9053280986751117e-01
      -3.0398482588530934e-01 -1.9386637081962484e-02
      2.6535780123984348e-01 -2.7332374326877668e-01
      2.2645230217360517e-02 -1.5061483036583781e-01
      1.6708953350964598e-01 -4.0284792788073828e-02
      -1.7249363018722411e-01 4.0693339196833343e-02
      1.5392484196515974e-01 -1.0044844679429632e-01
      -1.8424017046953022e-02 3.3111891177318903e-01
      -6.4536794902692651e-02 1.3490722460374027e-01
      1.3896191760681295e-01 6.3654979629080607e-02
      1.5507993710483517e-01 1.5225170184967461e-02
      -1.2497089488958715e-01 -2.6992059819752190e-01
      -1.9975600050966627e-01 -1.1814618416619660e-01
      1.0138261643029352e-01 -2.6324086246109557e-01
      -3.0242166166115581e-01 1.3683300956447783e-01
      -1.7090292271243676e-01 -2.3739380544352606e-01
      2.1283967238102897e-01 -1.3427390613696441e-01
      2.3259685269079625e-01 4.4935200195001176e-02
      -3.4137791740648779e-02 -1.8422383412421983e-01
      1.4339489126297247e-01 -2.8563796204951878e-03
      -7.6057022883528419e-02 9.1001475256786021e-02
      4.7539203414062522e-02 -3.7101297627518043e-01
      -1.2201468009841825e-01 3.2775820518384111e-02
      6.5359558209072438e-02 2.2430445795838957e-01
      -2.4249154912777806e-04 2.2189517555824888e-02
      2.6696725557384704e-01 1.4236420067056780e-02
      -4.9850884586131544e-02 3.2244531497412093e-01
      6.8748969593341669e-01 3.6729778675675245e-01
      4.5530417457259065e-01 -1.7715641038694377e-01
      1.3532911948158413e-01 2.2533135261584850e-01
      -3.6640824107075698e-02 9.7695178951312023e-02
      -4.1611786152783110e-02 1.9828424816060694e-01
      -3.3017665462047385e-01 2.0974715886918202e-01
      8.5098855615782010e-02 4.0842068326257536e-01
      1.1007212274416293e-01 -7.4711468420924788e-03
      -3.2096564542704181e-01 -1.4753434003449650e-01
      -1.5644592799273084e-02 1.7877109172293901e-01
      -8.5115435003932136e-02 -7.7026392504432953e-02
      1.0824768106147888e-01 1.4920781729293428e-01
      6.3136545033237665e-02 1.9682562144082077e-01
      2.6538329281988920e-01 1.3770861043051794e-01
      8.3795812586100721e-02 7.2460403101071630e-02
      -4.2090866779566272e-01 -1.0567262468444576e-02
      -4.8526150289170671e-02 -1.9028195000387990e-01
      -1.6644032883728119e-01 -2.8527198333696227e-02
      -7.3772990750349696e-02 -6.8694097924491123e-03
      6.5088070013927093e-02 1.1955389253299958e-01
      3.0371928639959489e-01 -1.8273019540355240e-01
      2.3150995907409155e-01 3.4398214933985219e-02
      -8.1233285258874244e-02 5.5673554235717349e-01
      4.3109142442077386e-01 1.5924301353596026e-01
      2.1974212698145649e-02 2.7262627107536508e-01
      -1.3775866068713452e-01 6.0231375242881281e-02
      -2.7204332944559279e-01 4.1134489301477545e-01
      -4.7398981325615992e-02 6.4113887186123292e-02
      -8.5687264257443246e-02 2.1375833135800458e-02
      1.5439935413076389e-01 3.3713947287126851e-02
      -2.3590011364249611e-02 1.8259494028145815e-01
      5.3216607254288763e-02 -2.9806716608860512e-01
      -1.7575485190675977e-01 3.7379366621298725e-02
      1.0634647121620993e-03 -4.0694647565169079e-01
      3.9860450843196144e-01 -6.9862855018884770e-02
      2.9172068271921292e-01 3.5989346900681507e-01
      -2.6119864861276734e-02 3.9069952153643915e-02
      -3.5879525572748383e-01 3.4334349216854643e-01
      3.1560768072895690e-01 -3.0290186125172891e-01
      9.6438587893994385e-02 7.5757530679840451e-02
      6.2023074442472503e-01 -1.3379360404066123e-01
      3.9728950100195788e-02 2.7417573568681985e-01
      -1.5969828268942154e-01 -1.5918632916566261e-01
      -1.6743805226916664e-01 -2.6981233153467687e-01
      1.1191360835205318e-01 -2.5909512831629927e-01
      -1.3801468975582432e-01 -2.5596059735202148e-01
      1.8721454310613606e-02 -7.5386996638901527e-01
      1.3920765434445734e-01 1.0705883455709128e-01
      8.4252076140411344e-02 3.8687291699277655e-02
      -8.0398150120467402e-02 2.1007261092599658e-01
      8.8964661578598600e-02 2.4101936315696904e-01
      2.1279426484677280e-01 8.9408477871410014e-02
      3.6692400180391084e-02 2.7307252168810420e-01
      -1.5227024403867922e-02 -1.5011885320372798e-01
      3.5620451863790148e-02 2.7280368941753064e-01
      -2.5366135302815823e-01 -1.5733012828662157e-01
      -2.1622192260917189e-01 -3.1738135796351402e-01
      2.8949867362491327e-01 -1.6554008484432980e-01
      -1.1825592659557746e-01 8.6105774430806248e-02
      -4.5246275853089374e-01 -3.7035603932226033e-02
      1.8191874727077464e-01 -9.9101630900834764e-02
      2.9295744164371929e-01 2.4884756312532143e-02
      -2.4325235885391566e-01 1.2135511186216738e-01
      -1.4990662097899773e-02 -7.9612560644637037e-02
      3.9719164696848053e-01 -6.7096507592586063e-02
      2.2731719721764204e-01 8.6341385269298708e-03
      -2.2267017541952155e-01 -2.1472561111025615e-01
      2.2160825536292986e-01 -2.4023060279488276e-01
      -1.2595479983695101e-01 5.7436805127696174e-02
      -1.4903162655607080e-01 -2.5079155819861554e-01
      -8.3889136765093186e-03 2.2573137376211538e-01
      -1.8822886487223484e-02 1.6345290764639253e-01
      -7.5076870868992629e-01 -3.1835542556332502e-01
      3.3578134376513434e-02 -2.4791240312573265e-01
      1.3179799285033753e-01 5.7651225717444943e-01
      4.4403661815909123e-01 2.6624418599112598e-01
      -9.4306467391136559e-02 -1.5145726888416544e-01
      -6.4202325076856234e-02 -3.1949603742679180e-03
      7.4717888957554282e-02 2.8332008780977425e-01
      -1.5323307149534478e-02 2.0036585797312403e-02
      3.4928149642503896e-02 1.6245232785158134e-01
      1.8391887062704854e-01 -6.7803455403012913e-02
      3.4567041073074747e-02 3.0932422680198979e-01
      2.0947488409594262e-01 -2.6584645501816795e-01
      3.6329632596230566e-01 -2.3059328641067134e-01
      2.1903006752689014e-01 2.3851845459949395e-01
      1.2947991821423624e-01 -1.2044735403890944e-01
      3.7944742288675665e-01 2.6872380172574463e-02
      7.2258837145345325e-02 1.5004884975069738e-01
      -2.1868670891437345e-01 6.0550325954161965e-01
      -1.2043644070650700e-01 2.0998936654320258e-01
      2.1437204390731329e-01 -6.7756856720395525e-02
      -6.3951821727050426e-02 5.5434464954835810e-02
      1.1707269678670569e-01 7.2338265664446344e-02
      4.3379993986293296e-02 4.5638231106787851e-02
      2.4118243877552079e-01 -2.3619102807040360e-01
      -6.3037872520465929e-02 1.1026749087513293e-01
      1.8133489085512897e-01 -2.1366230421576554e-01
      1.2097431009812629e-01 7.4198193851783820e-02
      -1.1263838104865254e-01 -4.1787838495908024e-02
      -2.5058882592026560e-01 1.8469296966849530e-01
      1.3788155120223428e-01 4.4691551207618828e-02
      -1.2678024490283704e-01 -2.4787835062625868e-01
      1.4261328016318239e-01 -2.5970783728206603e-01
      -3.1640215565404051e-01 1.5936753916430127e-01
      -2.0004193496717176e-01 1.7607683914925457e-01
      -1.7062413411914670e-01 1.3955882916013571e-01
      3.2941068724130093e-02 -1.4320233633720963e-01
      2.7075749958445766e-01 -1.2911211135636025e-01
      1.3795924414007529e-01 -3.0069120487853168e-01
      -3.7015009732458499e-04 -2.7648716246642419e-01
      4.2782912449073596e-01 6.5849501151817189e-02
      3.0083958246452269e-01 5.7478971980371241e-01
      4.2364411114456803e-02 8.4972068183886515e-02
      1.1174547780515373e-01 5.5320434888918656e-02
      -2.9999201992712332e-01 2.1667604769786378e-01
      -4.4059457398350044e-02 3.8669652890613199e-01
      3.5523878768647016e-01 -1.5466529182599320e-01
      1.8259376664978808e-01 6.3376934900745807e-02
      -1.3713008079763012e-01 2.5540869274725243e-02
      -2.4245720226065423e-01 -4.9785324804352227e-01
      -3.6887651562573967e-02 -4.5177104522279798e-01
      -1.6662543511241723e-01 -1.2640780978343394e-01
      -2.6251583494172948e-01 1.3404141079660192e-01
      -1.1105310070764947e-01 4.1288858579880799e-01
      5.8048957497536358e-02 -5.2433504977129175e-02
      -7.1244525750603582e-01 9.3006785179235746e-02
      -3.4641531953653333e-02 -1.1418960722044309e-01
      1.5375071946411617e-01 7.2577013906267682e-02
      -1.9474403214774100e-01 -1.4192324452827595e-01
      -3.4730542311982482e-03 2.5512918080759645e-02
      -2.8427468493330516e-01 3.5421436888129881e-01
      5.9354652697827304e-02 6.4813352670749183e-02
      2.2474331542090378e-01 2.4491587188802791e-01
      1.0510321868745023e-01 4.1393037566333380e-03
      1.0335380204670466e-01 -4.0962036781750283e-02
      -1.6824354823492060e-01 2.3915119983080238e-01
      5.2253188760830037e-02 -1.2582472112824020e-01
      4.9294951835421569e-02 1.7863723399736381e-01
      -4.4307076465793865e-01 -2.7556350394784246e-01
      -8.6111934368592619e-03 -2.3335416234308928e-01
      -5.7256751982571456e-02 -1.3840857684042529e-01
      1.5357960397642997e-01 7.7195428226592297e-02
      2.3645652806118935e-02 -2.0313997972974035e-01
      -2.6543409230793596e-01 -8.3275292491971714e-02
      -2.9815137125292773e-01 -1.6572934377598761e-01
      -2.0310254842121475e-01 1.0468479030664168e-02
      -4.6975394774758578e-01 -2.3207363822854030e-01
      -4.7725294208745196e-02 -1.1946778405077804e-01
      1.1847401208949193e-01 5.4542386698129841e-01
      3.4987666996145089e-01 2.1274277747008033e-01
      -9.7507335113001747e-02 2.7066252990059891e-01
      -3.6581571092380721e-02 -4.6701728788176154e-02
      3.3805839642558470e-03 -1.9495910914043663e-01
      -2.4050549463182365e-02 1.5073241148898854e-02
      2.8551192856713997e-01 -1.2187502237853394e-02
      -1.9163886472265329e-01 -1.0093069626842539e-01
      5.3168529913766832e-02 2.2157236321566678e-01
      -2.4702706685561651e-01 -3.6981608852780906e-01
      2.9241084564552006e-01 -3.4851396471785617e-01
      1.5940881183887831e-01 5.9683180126324266e-02
      5.3464704342520750e-02 -1.4064805923822651e-01
      2.4202045957089474e-01 -1.4217993949065030e-01
      2.5784590142138875e-01 2.2891851822467721e-01
      -7.1295625006914651e-02 3.6995306687851665e-01
      -2.5751486223424008e-01 1.5595817195312930e-01
      3.7107554142178145e-02 1.2087686041598107e-01
      -2.2769623015735399e-01 -3.5482467206355067e-03
      6.7406295257787657e-02 1.9127971415296346e-01
      3.8532391655264625e-01 1.6399354428183902e-01
      1.9349201146702391e-01 -2.7436975274858350e-01
      4.8310094695410963e-02 2.2362386606635964e-01
      1.1276747558640522e-01 4.5192421349060576e-02
      -1.1265942851301440e-01 2.0606519257825362e-01
      4.1617976532769975e-02 -2.0848115873234671e-01
      -1.8215320445702934e-01 1.8061026629248000e-01
      -4.3503201122222740e-01 1.2861653218726160e-01
      2.1123619627663728e-01 5.4520573397035532e-02
      -1.8746427093950116e-01 -6.3073940590986893e-02
      -1.2160384161089131e-01 1.9946138083837120e-01
      -1.4686342217223278e-01 -3.2890008913122479e-02
      2.7337094507179532e-01 1.3689496790129671e-01
      -9.4345334572600442e-02 1.0536064253262897e-01
      -1.1015087408514709e-01 -2.6662244729842316e-01
      -2.2594406745879366e-02 -2.1155562359925092e-01
      3.6587295259912792e-02 1.0144908458110458e-01
      -1.5977210547301332e-01 -1.4014349960314626e-01
      3.1733884015522773e-01 3.4107112660885425e-02
      -8.2623204895962352e-03 -1.5168112450218885e-01
      1.5407682415267471e-01 -8.5983584113865238e-02
      -5.2779141786489536e-01 3.9505023073668724e-02
      -5.5776338267373562e-02 5.5293837626439113e-01
      4.2000641182455184e-01 -3.1266417717807243e-01
      1.1185320309502735e-01 -6.8510433884850813e-02
      -2.0191367206406186e-01 3.3171350292926914e-02
      -5.3583781587799650e-01 -5.4938644225824373e-01
      7.1585334306649179e-02 5.4967823348847522e-01
      -2.6344616225566209e-01 5.5581261314981346e-02
      -1.6201133441090410e-01 2.8111876030656036e-01
      4.4127671887874967e-03 1.0619020718436480e-01
      1.0105464152023420e-01 -2.2164941093142171e-01
      1.2247374324462004e+00 1.4142546455609706e-01
      -1.3033652592860783e-02 -5.5707168611575118e-02
      2.6376335795326383e-01 -9.5485632220912220e-02
      4.9658534543577375e-02 1.2652028491769318e-01
      -6.3254441902444114e-02 1.0428938649537460e-01
      1.3656945469917942e-01 -1.0480525760884932e-01
      2.4572556402711562e-01 9.4326416016939141e-02
      -1.2383947218595588e-01 -1.3034941135654610e-01
      2.0877620466054586e-03 -9.8900244422546919e-03
      -3.0010357346606575e-01 -1.0129173559853455e-01
      -6.3391314698950582e-03 1.7036995045343653e-01
      -2.0327759785697599e-01 2.3121412679381084e-01
      -3.5063062700934367e-01 -8.7729071480864021e-02
      -4.7730003116797953e-01 -1.1583598375758038e-01
      1.1023680809901709e-01 -3.5529037530234386e-01
      -1.7396867037711428e-01 -2.9886788935177688e-01
      3.1261229955239261e-01 1.2520339924727997e-01
      -2.2934729048621988e-01 3.0924058680184674e-01
      -4.6260866452214437e-02 -2.2244284032511971e-01
      6.0693682901283505e-02 -5.1572276390235250e-01
      -1.5539041426799280e-01 1.3686006888443538e-02
      6.2967476122046173e-02 -1.9223496797736145e-01
      -5.3957643310436594e-03 -3.1282001896880374e-01
      3.3186597407000730e-02 1.7292812254494416e-01
      2.5526102358281233e-01 1.7883467989624660e-01
      1.1892395511658439e-01 1.6310969990621166e-01
      -2.4449715419290685e-01 -3.6679203329393048e-02
      -8.3053498232000963e-02 -6.9660061696099340e-02
      -8.7127316024204010e-02 -2.4124327875831346e-02
      4.7764781954407276e-01 -2.0373959974983358e-01
      -4.5050223347319479e-02 7.2425686977817524e-02
      1.3394553115446951e-02 -1.2370831610706663e-01
      -8.3361238920352340e-02 -5.7490785005081479e-02
      1.9645499048290158e-01 -1.0245443686500956e-01
      2.9226815853187340e-02 3.0121725092212365e-01
      2.3244153646656571e-01 -2.7850628005581918e-01
      9.2696620049138909e-02 1.0553317080186673e-02
      1.8996722039662912e-02 -1.9110202499684434e-01
      8.9481425393191621e-02 6.4892892276947722e-01
      7.8279413544734937e-03 1.4274173673569118e-01
      2.4610641907569991e-01 4.2545075274585356e-02
      -1.1530994889131765e-01 7.9308818176912987e-02
      -2.0435180673263664e-02 -1.7399549808403341e-02
      1.5701541830277252e-01 -8.3442340225117373e-02
      2.2562979028897368e-02 -9.0355596615560391e-02
      1.5393671765058176e-01 1.9784778128417068e-02
      1.5491133718973160e-01 -1.5766839227477263e-03
      -3.2258292355492241e-01 -8.5413932985390457e-04
      -1.3720482432692938e-01 -1.4576558342828452e-01
      3.9097793405584551e-02 -6.6632132653827766e-02
      -1.8991015477080991e-01 2.2285474610061901e-01
      -2.0540417592851540e-01 2.6265346600130324e-01
      -1.5063350288118343e-01 -2.0858467000786129e-01
      -1.0379906187962720e-02 -8.9188427756670102e-02
      1.6050653004938087e-01 -9.6131928473450201e-03
      1.9146093736032635e-01 2.0031024105849796e-02
      -3.4053796069124759e-01 -1.9307689204338649e-01
      -1.4247349973913229e-01 -1.1866224056231726e-01
      2.4927216879976208e-01 -1.9431104938754176e-01
      4.6955395352970906e-02 -3.0876823893678823e-01
      -1.1771682052840636e-01 8.4644981953084526e-03
      -2.3624947242378118e-02 -1.1615602004378757e-01
      -2.2963381201342251e-01 -1.1184751622768688e-01
      7.7008461831040084e-02 1.4408732038971708e-01
      -1.8540793560844571e-01 3.5133203023700010e-01
      4.9439901327611299e-03 -6.4748414450348055e-02
      2.0830922048493916e-01 -2.3655724603125650e-01
      -9.4713321378425114e-02 4.8154467201630330e-02
      -2.7982446062642202e-01 6.6192313798857316e-02
      -6.1444336909477419e-02 -9.1605355039711955e-02
      3.2339818664216841e-01 2.9099905919998566e-02
      -8.6140871706296682e-02 -2.4811326571018238e-01
      -1.8829796949183175e-01 2.8633284260725572e-01
      -1.5253468738572437e-01 8.3621952126141652e-02
      1.5258403332056572e-01 -1.0237265305083634e-02
      1.3587712666309639e+00 3.3411088906320240e-02
      2.8766491797240201e-01 -2.8326268653736292e-01
      -2.4500067620089886e-02 -1.3956718663484310e-01
      3.1971953841131766e-02 -2.1656813073882408e-01
      -7.9300799035674080e-02 -3.0000516094099428e-02
      -5.4317602523834704e-02 4.6945062573893699e-02
      9.4093583726396438e-02 1.2950808379314735e-01
      -6.2579257057139348e-02 -4.5615894828296435e-02
      -1.1206919641490508e-01 -5.3182401631430197e-02
      -2.6722979401575370e-01 1.2206211504122906e-01
      1.6376982005418014e-01 5.0563835477574773e-02
      -1.9023271903537911e-01 2.2917712610811850e-01
      -7.2811826205398722e-02 -9.8466225605575303e-02
      1.6973058627193907e-02 -2.3027813987825138e-01
      1.0292232904513961e-01 -1.1816595675910939e-01
      -1.2324728165428621e-01 5.8765200602687015e-02
      -1.5647522556462543e-01 9.5116618914835666e-02
      -6.4056754456863875e-03 1.4607961566797331e-01
      -1.1375630954002384e-01 -2.6215715340251711e-01
      3.2813792617775373e-04 -1.7532319686745579e-01
      2.1218021229032272e-02 2.0716225147456757e-01
      -4.3739894076348718e-01 -8.0139024941625180e-03
      8.1124134209760682e-02 -2.7804401647886379e-01
      1.5575343532273594e-01 1.7461955066946031e-01
      2.5806447063605759e-01 2.9471662876180132e-01
      3.0606714110301114e-01 1.8698095694716632e-01
      -1.3744519425990653e-01 1.5549094933097781e-02
      3.5759771463863846e-02 -2.9319047056028791e-01
      1.0339379274651256e-01 -8.1245229914317665e-02
      1.7748120062698264e-01 3.4239750442693048e-02
      -5.2799389018266189e-02 -6.7252957153592016e-02
      -6.7681759073138809e-02 9.0756848636893206e-02
      -6.7179154555480158e-01 -3.2692695141776229e-01
      1.4357455468560534e-01 1.0228302016938268e-01
      -9.0029810476028357e-02 2.2657991310645648e-01
      1.1689800044767786e-01 -1.4633817927800127e-01
      1.3240957988307087e-01 -6.6907932169151155e-02
      1.0009723732575765e-01 -1.1572961452329804e-01
      4.5567560767549635e-02 -8.7119976651973324e-02
      -9.4453966363625921e-02 3.8556922991148107e-01
      1.9139978455854117e-02 4.5991296380490890e-02
      -1.4046048092213612e-02 -1.4999225920197567e-02
      -1.6397802217780955e-01 -7.4304963563876461e-02
      -9.2970465212989808e-02 -6.4549536277726957e-02
      -1.9921635249034353e-01 -1.7701570636730185e-01
      1.7634625063106565e-01 2.6558291002284309e-02
      2.1112388423439740e-01 -3.5670847976920833e-03
      4.1274666688648973e-03 8.9128983527074046e-02
      2.9622477541973868e-01 4.2239307479269586e-02
      1.9601299398264705e-02 1.8252496516227440e-01
      -1.0408938038082945e-01 2.1974995717115106e-01
      1.4686903064325874e-01 1.2365550268849571e-02
      -8.7464409829938972e-02 -3.9468590984978472e-02
      -1.2538755907965274e-01 3.1088100329881890e-02
      5.0096535540589626e-02 1.0716116522265919e-01
      2.3303232492784431e-01 1.5678274069831949e-01
      -2.3724843961543167e-02 8.2454623833988105e-02
      5.4679748873852602e-02 -5.6064865827182724e-02
      1.0296799309966935e-01 -2.8627882454335762e-01
      2.4910663772301674e-03 -4.9875305884051577e-02
      -7.2169974700346973e-02 -1.7063710055519973e-01
      -1.2114786437258289e-02 -2.3842925937079451e-01
      -1.3611755277606660e-01 -9.9604873642702429e-02
      -2.5596018548062999e-02 -2.3787106033393412e-02
      -9.7143920480473614e-02 1.1875537376630838e-01
      -2.0127683341092967e-01 2.8288493841272633e-01
      1.9221112852772729e-01 -6.1387632834301320e-01
      1.0090409371160595e-01 1.9228167809687921e-01
      -2.9565258103213998e-01 -1.2487575910715869e-01
      -3.6428027302914508e-02 -1.3430989527109777e-01
      3.5030981121795773e-01 -5.4468880405582631e-01
      -2.0205720121501050e-01 -1.3046126277507505e-01
      -2.2163619149844507e-01 2.6119284958658251e-01
      -3.8850241964401233e-01 7.4709478301783327e-03
      -1.0098644043455668e-01 -1.3677589937997167e-01
      9.7424605349236526e-01 1.7902257038045558e-01
      8.8626476698037027e-02 -5.1867176965934028e-02
      1.3845789407000800e-01 -2.1732233967024084e-01
      -1.2632174305448529e-01 -1.3323646568332068e-01
      -1.1686259809028668e-01 1.1806779413362772e-01
      5.7664851503936292e-02 5.0594351776917665e-02
      -3.7594274816714880e-02 1.8136051532263819e-01
      3.5004554904148805e-02 -1.6209071978442838e-01
      -2.0415845732163715e-01 -2.3543192360863091e-01
      3.5193178734893520e-02 -8.6006949048008964e-03
      2.3221424067565963e-01 -4.5470655363982190e-02
      -9.0733377558724362e-02 3.3517982909271563e-02
      -2.2491095083686857e-01 -9.2039494606981548e-02
      -8.6919638323052148e-02 -2.0672931750298362e-01
      -4.8507877372666437e-02 -4.3635495994466561e-02
      -2.4906096488371263e-01 -3.1214571017183484e-01
      6.4243672235234070e-02 1.9991122898438052e-01
      7.4001971608491687e-02 1.4654589429064882e-01
      9.9707086331509640e-03 -5.8240413063967844e-01
      2.0628942289688776e-01 -5.0376252067582637e-02
      -5.6903642668807751e-03 -6.2925308039698605e-02
      -1.8437785865470499e-01 -1.2032583518762859e-02
      -7.7428886159620243e-03 -2.4854684923362222e-01
      -6.6218510160261632e-02 4.0218808966339520e-01
      2.1532248888038191e-01 5.7100136340226704e-02
      1.4194897477776625e-01 1.8089381372375254e-01
      1.2615516536942548e-01 2.0142177267862124e-01
      8.1088907599036239e-02 -1.1370244581002635e-01
      1.2182726411021838e-01 -8.4689291948857451e-02
      9.4991619675753411e-02 -2.0884114063075779e-01
      1.4964500206188393e-02 1.2885533415162487e-01
      -1.6866780007011278e-01 -8.3120525960741921e-03
      -4.3990839268611864e-01 -4.1018927360099500e-01
      9.4462141502086976e-03 2.5113170784534489e-01
      -2.8434177330088978e-01 2.0186603007616219e-01
      2.4758011292610299e-01 -9.4485474973791575e-02
      5.9556105086755039e-02 -1.8417363393993380e-01
      7.1000275272528515e-02 3.3311518131963140e-02
      1.1371399641707496e-01 -1.0371037861368952e-01
      -1.8329550180482626e-01 3.0519663938045510e-01
      1.4838818353760133e-01 -6.6335675854574408e-02
      1.3538945764484117e-01 -1.9297221417174723e-01
      -9.0407947636956171e-02 -1.5950475447399581e-02
      -1.4432485484730456e-01 6.9279800119031149e-02
      -3.8583297301633533e-02 -2.2173490983050534e-01
      2.5224372689176300e-01 3.6865162137483261e-02
      2.0462125345474197e-01 1.5399826971783562e-01
      2.1010197674529044e-01 2.6289532967081941e-01
      2.6029619374677521e-01 -6.4163539773795436e-02
      -3.7111516474121878e-02 4.2402461463310857e-02
      -1.3949655236770230e-02 -2.1455794364173719e-02
      2.4548934971866684e-01 -4.7326558315573648e-02
      1.1618676812356203e-02 -8.6809866168805816e-02
      -1.6435720232626236e-01 -2.0746007505923997e-01
      5.0510198859243183e-02 9.2180735286851341e-03
      -1.7901483908669833e-02 5.2892938077709645e-02
      1.5204638971938128e-01 1.9976877653081610e-02
      1.6691654951756946e-01 -1.0640494812362851e-01
      1.6237716219411759e-02 -2.1262626867682555e-01
      -1.2264287153706978e-01 6.2190384022316254e-02
      1.1013329658739896e-02 -1.8469980232732955e-01
      -2.6753467797315816e-01 -2.3700899891594374e-01
      -2.5498082752905393e-02 -1.2657909682205273e-01
      -4.5847594368099744e-02 -7.2720254718969049e-02
      9.6141432597348815e-03 -1.9877190677684892e-01
      -1.6453394204679300e-01 4.8114523888812100e-01
      -1.4045933668001187e-01 -2.1851905792941562e-01
      7.9918839726900226e-02 4.4162893031068760e-02
      -1.9779717294500049e-01 -1.3884630902916620e-01
      2.3421845750730211e-01 4.1852892392405278e-01
      7.7428329503812038e-02 -6.9482810743047507e-01
      4.0717951146803308e-02 1.6072668235252543e-03
      -3.1787865482421941e-03 -7.5337463667643767e-02
      -1.5537099642972940e-01 1.1682277093778247e-01
      -2.2073642026468887e-01 1.7432573627323994e-01
      -1.5332580225712716e-01 2.1500682803965582e-01
      1.4782707614373949e-01 2.2516506553135776e-01
      1.3668794830795539e-01 -1.8481415822549810e-01
      3.5080973959381312e-02 -4.6529211268355698e-03
      -1.1129212656462013e-01 -2.1495839395676813e-01
      -7.1922732059287398e-02 -1.1376091929944028e-01
      -9.5019725337671959e-02 1.9950258763585041e-01
      -2.6980250704681258e-01 -1.6487237135718930e-01
      -5.3233044570698745e-02 -1.8749506277588593e-01
      1.3309924462292738e-01 1.6234095788113630e-02
      1.4688460036123979e-01 -1.0227403518455917e-01
      -1.6518275805328911e-01 -5.3524422720672926e-02
      -1.2286526512048775e-01 -2.1792337075927645e-01
      8.5567155082515667e-02 -2.9590539761507351e-01
      -2.1728601598517184e-02 -1.3483921079029507e-01
      -2.5860692906760713e-01 -9.8159311887099310e-02
      5.1503864231778190e-02 -1.6171083156936875e-01
      1.6356090154681144e-01 -3.9051476176679166e-02
      7.4663212186854080e-02 -2.6155239781666484e-01
      2.7344408567861883e-01 1.1291223954137709e-01
      2.2983227097571979e-01 -2.2742988762820399e-01
      -8.2392979607854744e-02 -1.1980188608177410e-01
      1.4955369316926770e-01 -3.2798970577734822e-02
      -1.5200272759132502e-02 1.9517155995175953e-01
      3.0225234406286366e-01 6.9048380864264139e-02
      -4.8723871305199530e-04 1.5331732385585636e-01
      9.6860459045580938e-02 -1.1561553087546928e-02
      8.8861205995970721e-02 -1.9269569641654374e-01
      2.3657219015784436e-01 -1.6449463767730824e-01
      1.6708389382567110e-01 -1.3963328122454826e-02
      -1.2466019296998816e-02 4.6511879526590577e-03
      2.7965217281669577e-02 1.3640786619660239e-01
      -2.3101762221698108e-01 -3.2908930296327760e-01
      -9.7680949222528679e-02 1.2159223650599808e-01
      -3.6559568374167399e-02 5.2184282357388409e-02
      1.0449162841036740e-01 -2.0527258494684612e-02
      1.5549978536126466e-01 3.6551884677016845e-02
      2.2684656258363664e-01 -2.6807577982696291e-02
      -3.2722449974131144e-02 -5.2386879482201741e-02
      -2.8581658561937128e-02 1.2860225429248917e-01
      -5.2053707554825378e-02 -2.0171652732624074e-01
      -4.2430642220455256e-02 1.2410708114692430e-01
      -2.6399409231735366e-01 -1.7617284897356658e-01
      -1.2025575336073001e-01 1.1671783202099011e-01
      4.5259039764182281e-02 -2.3702946006951811e-01
      2.1534553913189428e-01 1.4049562670386473e-01
      7.5716819011180908e-02 -1.4553266083166740e-02
      7.4166806862941581e-02 1.1118311100605854e-01
      8.7684388532580454e-02 8.0899339624863967e-02
      2.0944623500410021e-02 6.2314802892655431e-02
      8.4968668783016194e-03 1.4897686580942957e-01
      1.7753820899373882e-01 -1.0187613717463165e-01
      3.1312920366527407e-02 1.3195615434358807e-01
      -1.0046531254429131e-01 -1.4021783947248245e-01
      1.1655511215673393e-01 1.7303291656115241e-01
      1.7357916047518576e-01 1.6786307491398401e-02
      -6.8254765153762512e-02 -3.6201160366018266e-03
      2.1441314289924154e-01 -3.8450840366744371e-02
      5.9763654286950234e-02 -9.8224005186132834e-02
      1.2855435433582751e-01 1.0653546631826284e-01
      1.2803187274560851e-01 2.6593296891960268e-02
      1.7185022673555192e-01 -5.6157505267488153e-02
      -5.1243982112221240e-02 -2.7976315165596588e-01
      1.2675801947438481e-01 -9.2655096630053557e-02
      7.6762558400705391e-03 -6.9240310078025183e-02
      -8.3887122891963040e-02 3.3406460546954420e-01
      -8.1493286536237178e-02 -4.8556508735037796e-01
      -5.1922734741547759e-02 -1.0776569757429487e-02
      3.2167637018531828e-02 -1.2469902918473190e-01
      1.0076790510184623e-01 -3.1526759429970796e-01
      3.2132483192429040e-01 -2.4378578867484177e-01
      -1.5072418061906881e-01 1.1131779022621846e-01
      -1.2830345883164007e-01 1.3081881411168420e-01
      -6.0844480110014025e-02 8.2732806965229083e-02
      -1.0978529306446316e-01 7.1112837060868364e-02
      3.9127528803540623e-01 2.5263163029390545e-01
      2.2467588981260510e-02 9.7996685688010482e-02
      -1.0434247966372188e-02 -2.1735193590640900e-01
      -3.9134650929383612e-02 -2.0607069683031037e-01
      -4.1261197890606172e-02 -4.8522447110941336e-02
      -7.0739748099606245e-02 -1.1820855591565570e-01
      5.8907793561489452e-02 1.8775037612869128e-02
      -7.2233224192056480e-02 -1.9490797872239264e-02
      -2.2612946988835425e-01 -1.3286113104024599e-01
      1.3570324282265633e-01 -2.5282234824790382e-02
      2.5915803483471844e-01 -1.2735714883414359e-01
      -4.9873300643344637e-02 -1.5316082777922177e-01
      -1.7959409197318965e-01 3.1805472835117400e-02
      -6.0077931965308744e-02 -7.3412501803599539e-02
      -8.7928994640798522e-02 -1.5969442532071512e-01
      -1.8374409765466460e-01 -1.4739903350706837e-01
      1.5719180259571791e-01 6.2875099422851299e-02
      -4.6885979153691443e-02 1.6359633875059906e-01
      1.3835854621385873e-03 -5.3725667214740902e-01
      1.7939205285263429e-01 -1.5739531797968165e-01
      -4.2882003185688355e-02 -8.8848527735619381e-02
      -7.2145498596892677e-02 -8.1031458057698996e-03
      1.5875252551508524e-05 -1.6335692717241396e-01
      -1.8656193332360932e-02 1.6394981235652509e-01
      1.4400016721766987e-01 4.2257568725380473e-02
      2.3220673495036531e-01 1.7344716862910678e-01
      -7.2712482405026022e-02 -8.5527271379918030e-02
      5.2984808457834570e-02 -1.6244686184797033e-01
      1.4837893165170543e-02 -1.6455400642510687e-01
      2.0818295234427303e-01 -5.5647645528676829e-03
      -4.4091166119058063e-02 -9.7624092040097740e-02
      -1.1965890447201286e-01 -4.7097746520057514e-02
      -4.7064722750433058e-01 -4.9690733953181687e-01
      -8.1573834639592169e-02 3.0266278996396598e-02
      2.0449901895043917e-02 1.6892669704126806e-01
      2.7273759264497630e-02 1.1699024792046712e-01
      -2.8795482966093015e-02 4.1383494409896984e-02
      2.6001965417084222e-01 1.8988115430783069e-02
      -3.0114746653573443e-02 4.0433763974577136e-01
      9.7801943581744596e-03 1.1816272871142869e-01
      5.4671702955070157e-02 3.6393323563619497e-02
      -6.8741929703284763e-04 -1.5427073667619126e-01
      -1.3151356299043585e-03 -2.2453752658275747e-02
      -3.7588286346795889e-02 1.5015007784053194e-01
      -1.3803059786582492e-01 -1.9369087423912901e-01
      1.1735494846219142e-01 -2.0182269512187663e-02
      8.9229793113777794e-02 1.8650729383065646e-02
      -1.5753495837345485e-01 1.4354207844790448e-01
      1.4762095678750806e-01 -6.9979736377895937e-02
      1.0275568113337460e-01 1.5021548677417138e-01
      -1.5364041443991341e-01 3.5870288009529343e-02
      1.9551202270940782e-01 1.3808671459801899e-01
      1.1163174920962331e-01 1.3499744953032775e-01
      -1.4784875982156651e-01 -2.2789612365982506e-01
      -3.9146824564181011e-02 -3.8230358514855699e-02
      2.6160813776706093e-01 5.4958069673707054e-02
      5.9471179414578378e-02 3.1179850599079482e-02
      1.0511576506907370e-01 1.5486005896525259e-02
      2.2079669406334015e-01 -3.7275980330404065e-02
      -1.0113285606624261e-02 2.6056578591777885e-01
      -1.2234609206710702e-01 -7.9847022303492651e-02
      -1.4734499028314701e-01 -2.5983591341359996e-01
      -1.0705145954858665e-01 -1.4585465707948709e-02
      2.1443341307114594e-01 -6.8064862922940228e-03
      -1.1795801223960178e-01 -6.3672638452058075e-02
      -5.9013326743385464e-03 3.3209702949123017e-02
      9.0303493623949863e-02 -2.5841171832260990e-01
      1.0027016920447863e-01 4.0816720924893501e-03
      -6.0052868499129934e-02 -2.1794058751673598e-01
      -4.0992402644925763e-02 2.2030116109204960e-02
      1.9184388044393394e-01 -2.6474483340578198e-01
      -1.6094094946040807e-01 -8.9333295677934146e-02
      -2.1398449641593373e-01 -5.1018863651227007e-02
      -7.7486882118511749e-02 9.0919731925660622e-04
      -2.1402845167254483e-01 -2.8138016827235603e-04
      6.5259355057400326e-01 2.7069633389325803e-01
      7.0465923351257342e-02 1.4920312670505662e-01
      6.2604321960833986e-02 -2.2593075436872068e-01
      1.1405519694717507e-02 -1.2784395449366370e-01
      -1.7194577589440738e-01 -1.8922906019823532e-01
      4.1253970518885304e-02 -1.1119558004309922e-01
      4.5684852915317070e-02 1.3653498258676586e-01
      -6.7437945051088868e-02 -9.9271045689866694e-02
      -2.3191126983158827e-01 -7.0963951518192903e-02
      -4.0592910395629941e-02 1.7504645960624399e-01
      2.4258971403134316e-01 7.9307309519770913e-02
      -5.9549977698716366e-02 -5.4337214912220683e-02
      -3.2527576819865893e-02 -2.1201425172309182e-01
      -1.8201833278077276e-01 -7.6913145369033598e-02
      -1.5044580599679855e-01 -6.9800179585117611e-02
      -9.2679690980792262e-02 -3.3669374075799141e-01
      6.4089279389270948e-02 4.8768740252888167e-02
      9.8768595573209217e-02 5.2880572734500343e-02
      5.8908169326951643e-02 -1.3343619656536460e-01
      1.4148239262340626e-01 9.7617150295829014e-02
      3.0609476639856869e-02 -1.9938081516024200e-01
      2.5236804826781373e-01 3.9477520411848231e-02
      1.0679903146154357e-01 -1.1986012862223561e-01
      -4.2156517785609526e-02 1.4317314178404619e-01
      8.5010889416022162e-01 4.3050389040246849e-02
      2.0135745718296508e-01 8.5440468773406580e-02
      -3.0003369618222146e-02 3.9202346793894255e-02
      -4.7277653144410681e-02 -1.1472049972983123e-01
      -6.9174308591178194e-02 3.7340562295365719e-02
      -3.0672451478254519e-02 2.6885009513191772e-02
      7.9639971331334977e-02 9.3824380219201337e-02
      -1.0579657119717808e-02 -1.0669660026057450e-01
      5.7380591918892547e-02 -1.6439958646819958e-01
      1.2171655187755079e-01 2.5023451484485374e-02
      2.6500334676950782e-01 3.3705089833795880e-02
      2.8047423217160552e-02 -6.4620367025765485e-02
      7.9121068060002117e-02 1.3330576849897571e-01
      5.0954158756017512e-02 1.1876835207238937e-01
      1.2647330232052104e-01 1.8044191017641159e-01
      -8.7313669694445331e-02 -1.9500417217614280e-02
      1.0267997194455759e-01 9.6180070400880974e-02
      7.2500426870168430e-02 -5.6024954443686679e-02
      -1.1141722724639308e-01 5.8460100805145583e-02
      8.1550925185856160e-02 9.4211372379364555e-02
      1.9187766077797744e-01 -3.6911544023416343e-02
      -7.6650021851043526e-02 -6.3254151411270859e-02
      -1.1967589647971354e-01 2.4278305163854086e-01
      -1.2832210419160800e-01 1.1828856679177581e-01
      -7.3178983230677924e-02 -1.2388840905096501e-01
      2.9722309453841401e-02 -1.6255201578685832e-01
      -9.1475440961182181e-02 1.4142293690616428e-01
      8.3065740326913551e-02 1.4464720706936071e-01
      -6.8667021385335189e-02 -1.2169719539476131e-01
      -6.9770839938060644e-02 3.8764461217473428e-02
      1.4606887927022785e-01 -1.3543774741049014e-01
      6.6198349164972053e-02 -2.9900086126283615e-01
      -7.5404377181346557e-02 -1.5464048318874835e-01
      -5.5065559005865773e-02 -1.1014068185186222e-02
      -1.2855116561134704e-02 -3.5557410784156328e-02
      8.1746893341695354e-02 -1.4394556242260043e-01
      -2.3894819551848515e-01 -1.5013487304916340e-01
      7.9515644308812763e-02 1.8169776113637559e-01
      1.0425709448311955e-02 -1.3428267285209156e-01
      7.0214333363568263e-02 1.4267209905530798e-01
      -2.7971703634183681e-01 1.6058836863049508e-01
      5.2867263303581512e-02 1.6328934442318376e-02
      2.1792858134376990e-02 6.8235347948289324e-02
      4.9946768962312253e-02 2.4128733164665680e-02
      1.3468387072552915e-01 -1.8965926178744197e-01
      -1.8240681473840931e-01 -3.0188192514569212e-01
      5.4083850089501978e-02 8.2273095391709836e-02
      1.9846781899515477e-02 -4.5207452588842373e-02
      -7.7011475480156161e-02 4.6243145489627199e-02
      2.4029491411999233e-02 9.5878057165257352e-02
      1.7995868645908691e-01 -6.5062668135205184e-02
      5.9908100497600802e-01 5.9944455864658776e-02
      5.5912106074201356e-02 6.7507928043909454e-02
      2.0620829053154054e-02 -9.5082592004002320e-02
      -7.7928521346238455e-02 -5.8669974045681271e-02
      -7.5749289379086468e-02 -1.8332008958464366e-01
      1.9556831648275400e-01 5.8889396125398279e-02
      -9.6126548626551442e-02 -5.9492635914340355e-02
      2.7828407809582800e-02 -1.3625976957558969e-01
      -1.6812003106047380e-01 -1.3357146878801227e-01
      -1.6258988094431651e-01 2.6479760957735266e-01
      8.8321929400154195e-02 -4.8565153535485371e-02
      -1.0764953588997977e-01 1.9340512530000181e-01
      7.8680805524857345e-02 -1.2022765034590326e-01
      -1.3101228644884461e-01 -8.1381086515453518e-02
      8.0609177081594097e-02 7.9298187699203514e-03
      5.2244179205752167e-02 7.9596300896977362e-02
      -1.1770613438471367e-01 -1.1524028725597293e-01
      -1.5854156014133020e-01 1.0484979991859050e-01
      -1.7013655792928931e-01 5.8993844542584814e-02
      -7.4248008489215221e-03 -1.2484294158747082e-01
      -5.1577866497953075e-02 3.3548791174977965e-03
      -1.0264559142158916e-01 7.9075018531210087e-02
      -9.4220208143110273e-02 8.8122216837143857e-02
      -4.8062150067682947e-02 1.5546311712778882e-01
      1.7510958349301753e-01 -3.0321310583295121e-02
      2.3741595161648696e-01 -1.2189528468507643e-01
      -8.5275427511979945e-02 -1.9735956824420246e-02
      -5.8930899123750359e-02 3.9311418856509281e-02
      4.3832399705166662e-02 5.7298288644809056e-02
      -3.7485053667031872e-02 -8.1586241162160955e-02
      8.1709323711217238e-02 3.3459592407734960e-02
      -7.8082779216266801e-02 -2.5888599077233686e-02
      -2.6231454276595872e-01 2.6647224603906117e-01
      -4.6303887956133577e-02 -1.0530127889378650e-01
      -5.8300689270669795e-02 1.2811005288820040e-01
      -3.1212599257125856e-02 -2.7490626488838592e-02
      -8.7536721249562702e-02 1.0805838635027588e-01
      4.5616036690392457e-02 5.5239915900858368e-02
      -8.8705677609052513e-02 5.4941474583022432e-01
      2.8180262337092414e-02 6.6484934688123012e-02
      7.9167163060095844e-02 4.5527033823627348e-02
      1.9452720911740138e-02 -2.0762675712659238e-02
      -4.2640818491262167e-02 -9.6247337024779847e-02
      -6.0318121577241793e-03 1.8653119986176895e-03
      8.6097957110168100e-02 9.8972403004952483e-02
      -1.1806888009450985e-01 1.1256983690309226e-01
      -1.1949817930079873e-01 1.4938173687571646e-01
      1.2722574697614758e-01 1.8255617483484610e-01
      -1.0804662293124201e-01 9.1570454948156313e-02
      1.4528415905430597e-01 -1.7468932818954439e-01
      -8.3318938185220820e-02 -1.1263027273181538e-01
      2.0365130650606639e-01 -5.0956009229181705e-02
      -5.3199729137451503e-02 1.4966344288993023e-02
      4.1999477433834170e-02 -3.4048234274328976e-03
      -1.3167760163247644e-01 1.9389990342131715e-02
      4.4530405309549159e-02 -1.3835853153243088e-01
      -3.4766466384156244e-02 -8.4030234842254414e-02
      -5.6219350819149052e-03 3.4450873882392340e-02
      1.6605292957556644e-01 4.3374928026167922e-02
      1.8531919936228713e-02 -1.1953825311071099e-01
      8.4538534868775009e-02 5.1900426860349499e-02
      -1.3649454765591609e-01 6.4795572015380644e-03
      -7.5575509020798959e-02 -6.0183722039517315e-02
      -1.1319006779486764e-01 -1.2321787489830069e-01
      1.7449376248179677e-01 -2.6948314188473772e-02
      1.0612904588297857e-01 2.0832337080122645e-01
      -4.1401171967654089e-02 1.1367877532902526e-01
      7.3005696153539704e-02 1.2007469856997355e-01
      4.3720252312367779e-02 -1.0689953693513832e-01
      -4.4333258584440004e-02 -5.1858715428864922e-02
      -1.0359762075533002e-01 -1.7960084737403577e-03
      -1.3311129870432318e-02 1.3249416870374554e-02
      -2.2988379576439573e-02 -7.2598980722695522e-04
      1.1047408340427342e-01 3.8988066255058692e-03
      4.4823224583239070e-02 -1.6088656181804292e-01
      2.7960247817324402e-01 4.1460972285110739e-02
      7.3039889268121994e-02 -1.0951355963569854e-02
      6.2667457578338595e-02 9.5969475599451182e-02
      5.0325159644710654e-02 -8.0816497078357516e-02
      3.7132953365478373e-02 -5.3315113209951609e-02
      4.6844200242067591e-02 8.7237464807904869e-02
      -1.6912952338877538e-01 5.4552598641148774e-02
      -1.2537509253993867e-01 7.3819069659219791e-02
      -1.0887618795176846e-02 1.4968263244548904e-01
      7.0410731667355494e-02 1.4653588215910174e-01
      -1.9588393580688191e-02 2.0518483211029608e-02
      1.8691750836995605e-02 -6.0434370324994206e-02
      1.3694772915075493e-01 -1.7208483164330676e-01
      1.6310777319057301e-01 1.3262622015464900e-01
      1.0259499662749225e-01 6.2624689898965226e-03
      -8.0237383352459002e-02 -1.3307299896050143e-01
      -4.3136691317702126e-02 7.4887771216928328e-02
      -2.0889064894819155e-02 -1.9774348692599064e-01
      3.0019167764445760e-02 -1.3178220156666803e-01
      -1.1820973037582998e-01 2.8383138367154209e-02
      -5.3923188932840274e-02 -3.5718565190714466e-02
      -1.6929164006604915e-02 -2.1872833480872044e-03
      -6.8186003093897940e-02 7.4794131769863326e-02
      3.4110768057129294e-02 -1.1872582006900584e-01
      -3.8366152979752294e-01 -1.7074955321016902e-01
      -1.1513989687519621e-01 5.5982636169083534e-02
      9.3533328005834485e-02 -7.0515997437907638e-02
      -7.4242047823718946e-02 4.3411921610659807e-02
      7.6793563365395879e-03 -7.2448428997787265e-02
      -1.7826418337368141e-01 -4.9629529443308430e-02
      -2.0769991307636789e-02 1.8841887002243377e-01
      -1.1964953480749005e-01 -1.0368056702208546e-01
      1.9531712378818342e-01 -3.5727116569038951e-02
      4.7967600182204162e-03 -2.0094880176754492e-02
      -1.4918451809692362e-01 1.9217597723233386e-03
      -1.8434388357724044e-01 -3.3344556735704037e-02
      1.4967273993084023e-02 -8.4472498410579994e-02
      9.2130569636122220e-02 -5.1899331681005439e-02
      -2.1402860876103387e-02 1.5100203185137831e-01
      1.5855374330465227e-01 -1.2528874069579776e-01
      3.6405833154163104e-02 6.8041640570509236e-03
      -1.1051790939682891e-01 2.6702733632473996e-02
      3.5833020739887270e-02 1.0571424016564461e-01
      -1.1094976886026345e-01 3.8325668416608477e-02
      -8.3530522808018995e-02 1.8824145923982002e-01
      -1.2041811478840113e-01 1.8117204353208453e-02
      -2.1611962498894664e-02 1.9321103201897072e-01
      7.0963855321025740e-02 4.8321086890460621e-02
      -1.4080272046385767e-01 -2.9476950368001044e-03
      -1.2544271126534712e-01 1.2688007139635112e-02
      1.1580575523141227e-01 -4.2273167090362829e-02
      -3.9514005805630872e-02 -1.0658403986837220e-01
      -1.4570882039967933e-01 -6.9609547839915631e-02
      1.0638427062150427e-01 3.5898714692655419e-03
      -4.2085088911232547e-02 5.4979901273770483e-02
      -1.7480190663580852e-01 -9.8385215223388195e-02
      2.8205162291725507e-02 7.6547855198168674e-02
      -4.2650893269655446e-02 1.2630749406728412e-01
      -4.6835483581519829e-02 1.5546097946690110e-01
      1.3068617808499988e-01 -4.2378830329166242e-02
      8.5985710666664661e-02 -8.3873956391830456e-03
      -1.7241340440053332e-01 1.9582241902893074e-01
      -6.0246223795411983e-03 -3.3775100216108807e-02
      3.4772875978412193e-02 -1.6228156850751286e-02
      -8.2008206182170265e-02 -3.6131247702882001e-02
      7.2202322849820741e-02 1.7252145860833304e-01
      4.1032362524985030e-02 2.8051981381813318e-01
      1.2193068798042073e-01 -1.0264441477667664e-01
      6.0859826405407783e-02 4.1289967455200145e-02
      1.6746036373745093e-01 3.9124814071634556e-01
      -1.1759346549428200e-01 -1.3379664949820899e-01
      5.0400212765751184e-02 -9.7754573465282768e-02
      -1.0906580106806542e-01 -2.1464360623050436e-02
      1.6161382984925723e-01 6.3249627455703478e-02
      -9.5709538907162134e-02 1.3914100201685545e-01
      -3.5909250408702020e-01 -1.7619412663168224e-01
      3.6025609611145662e-02 -1.4642374023929561e-01
      -5.2292717527928675e-02 1.2093204753050039e-01
      -5.8946402902671759e-02 6.4217139019404151e-02
      1.0188947689022836e-02 2.6384819312332935e-04
      1.4692938116532474e-02 -1.0481517911193795e-01
      -1.2583203666935761e-01 -2.3021741771386009e-02
      1.3440638301521124e-02 -8.3343724829424634e-03
      -7.0972096424550310e-02 1.6898699949015741e-01
      1.5449059455696931e-01 3.5919074918931301e-02
      -8.7018304857485462e-02 1.0075245969748615e-01
      1.4924697800739506e-01 -3.9177791649037751e-02
      6.0034980599906709e-02 8.0476735233010147e-02
      4.5946207324238549e-02 -8.9112652751989388e-02
      -5.3671378210305341e-02 -3.7402121973278676e-02
      5.0653980748788859e-02 1.1511668644267312e-01
      -2.3042100031910012e-01 -1.3120173458791531e-01
      2.9615521309019024e-02 -8.9809061195088996e-02
      1.8201572907244484e-01 2.5601500618375822e-01
      -6.4252877627511806e-02 6.8956439381358953e-02
      -9.2584091065666587e-03 1.2172118298729517e-01
      -4.8547198796613671e-02 -1.0678578162410210e-01
      -3.6621805419400612e-02 1.7218319968526345e-02
      4.9354309203158961e-02 1.0616359991717314e-01
      2.1066971536668022e-01 1.0672561557817437e-02
      6.2979014296978275e-02 5.4300302011601655e-03
      9.1681782790043631e-02 -4.8788768917532163e-03
      -8.7043584374331281e-02 -8.1014708696906815e-02
      -2.4705114781421698e-02 -1.6265865210001840e-02
      -2.1657727908974628e-01 1.7228566473790932e-01
      -9.4046416599167085e-02 -2.0540498839457560e-02
      1.7333785569176646e-01 6.6458448464020173e-02
      -3.7700296102277397e-01 3.9752488743403473e-02
      -5.8292447242189717e-02 2.2111561886803861e-02
      -7.5780785511206122e-02 -2.0721598875850478e-01
      1.3221668597987096e-01 -3.2729426983972694e-02
      5.0013105033530472e-02 7.2262669842509458e-03
      1.4180261946395173e-01 -1.0799759873599948e-02
      -8.4308529931642187e-02 -1.1230554268114422e-01
      6.2914111312914092e-02 9.9438948034807059e-02
      -8.5004148374523483e-02 -1.3204279520701284e-01
      -1.4287703124665008e-01 2.7777964509171697e-02
      2.6607903139983197e-02 4.7846593752956704e-02
      9.2721794686163816e-02 7.8524688198665968e-02
      -7.5654476839487408e-02 2.3678275975206249e-03
      -1.3428692159583488e-01 -1.5246194544759589e-02
      -8.8467647222225929e-02 1.5897468834191034e-01
      1.9088694599962358e-01 1.9184675822346381e-01
      -1.3684904548521587e-01 2.3078170005574519e-02
      4.2201108218718898e-02 -1.9689823035979614e-01
      8.6321170618820862e-03 -9.0370417671654130e-02
      1.5896693773502818e-01 -2.6612160808334634e-01
      9.7678032612313628e-02 -3.1480656186911544e-02
      9.5981485862500132e-02 -8.6956413880834443e-03
      -9.6089488534802217e-02 1.1563530004898262e-01
      4.1282305612163485e-02 2.8847879114110714e-02
      -1.1780896667113017e-02 1.0869693483970856e-01
      1.4969811381699161e-03 -4.3080377992852359e-02
      4.7109927019563184e-03 -1.6627527365512561e-02
      3.2248828292220415e-02 -6.5010353324517281e-02
      5.7588556664631217e-02 1.0901820694137856e-03
      -2.8966970737214350e-02 -1.7294834957709504e-01
      6.7623259980598829e-02 8.8616674955530356e-02
      -2.4089608019599411e-02 -1.3991732783721308e-02
      3.4037366565799476e-01 -1.1068719647223002e-01
      -1.2313532065242673e-02 5.2904974808902827e-02
      -1.2453832810427944e-01 -1.9273523337824205e-01
      -5.6165414541528250e-02 -1.6835518281793327e-01
      1.0261870791665857e-01 -8.1912370327229270e-02
      4.0189238308107285e-02 -9.5933534972581100e-02
      -7.8722631069527704e-02 1.6248360056897668e-01
      -2.0489238293446128e-02 -1.5094371110001115e-02
      8.0275037637036431e-02 -7.0229785613701093e-02
      -8.7643012177484256e-02 3.2674048487717731e-02
      -1.9208748476364113e-01 -1.4949465179461977e-01
      -2.8259578338382324e-01 -8.8531137340007462e-02
      -1.8683838723883431e-01 -1.1068303109535166e-01
      -7.1554289321195522e-02 7.0862172954664113e-02
      8.4749839602534918e-02 7.6313747664890543e-03
      -7.3689678540990525e-03 6.6006808090939048e-02
      2.2184097521697741e-03 1.2242130411259239e-01
      -1.3345823174011234e-01 -1.3916474547440378e-02
      1.4583940725867858e-01 1.1542752018220975e-01
      -8.0881244021320034e-02 -3.4727298455090407e-02
      2.5520330592974461e-01 1.3104227774173494e-01
      8.1969142218118504e-02 2.8092613156483193e-02
      8.7227541928184299e-02 -6.3685567296859910e-02
      7.9887174655784363e-02 1.2167001578380274e-01
      1.6055501911537295e-01 5.7346373977805079e-02
      7.2381550036950085e-02 -6.5308511334488520e-02
      -7.1280203439956696e-02 2.2838047925760496e-02
      7.6961030935756555e-02 -7.4252082727507468e-02
      6.0115401378248870e-03 -8.3508154891138692e-02
      -1.8952067734300717e-02 -2.4704493457185250e-01
      -1.7081130471170464e-01 5.6439223603475690e-02
      -1.7119161833308372e-01 -6.1482672486690551e-02
      -3.8919891680593621e-01 -1.4676814912767563e-02
      -6.3338774919391161e-02 -5.4843924850006831e-02
      1.1516864355388338e-01 1.5363026224553691e-01
      3.2059072839109370e-01 -3.9768242538664338e-02
      8.2002048018281065e-02 4.5781985204061605e-02
      2.4088729166266389e-02 -3.7498990284910954e-04
      -1.7879826269022145e-01 2.1731335924227595e-02
      1.2308167071685140e-01 -1.1565410294038136e-01
      5.1531213103266520e-02 2.0441141076537498e-02
      5.2975370328526727e-02 -1.0930644334832494e-01
      9.1347609884375874e-02 6.4454875858637892e-02
      -1.8892411778639714e-01 -1.1760788323053960e-01
      2.3187379544859728e-02 -1.6556225559755033e-01
      3.1575894708726314e-02 3.8444071852145718e-02
      1.7798030109432833e-01 -2.3832220768538198e-01
      -2.8931202211135799e-02 -2.3287051288664339e-02
      -2.9268123494083139e-03 4.7637926580809627e-02
      -1.1689362474570192e-01 2.9917001337389653e-02
      9.0105711174002262e-02 1.6275565755731589e-01
      5.2347148177026319e-03 -6.0551880668255051e-02
      5.0022054511524770e-02 1.3211045209896108e-01
      -1.2969866453722223e-01 4.7324095029867543e-02
      6.9856007653358462e-02 1.6411117978381468e-01
      1.1449541831077394e-01 -1.1803327126083228e-01
      1.1292585554644250e-02 -1.0567262465280751e-02
      -1.1974845370604341e-01 -6.2029355263015437e-02
      -7.3192141296340746e-02 9.7292734013346566e-02
      4.4406634859382677e-02 4.3036076736091677e-03
      -6.8994093971586328e-04 -8.9565153871502129e-02
      -7.1405582415742616e-02 -7.1203425957282129e-02
      -2.0753292468011362e-02 5.2773385254401964e-02
      6.9350876196728209e-02 1.0642927887956885e-01
      -1.1390613946493766e-01 -1.2542319439602830e-02
      3.2826881301668692e-02 -1.1571221226165648e-01
      5.0171729735256861e-02 8.6465919724532363e-03
      6.2823955704402329e-02 -6.3880017606215464e-02
      4.7309481574685459e-02 3.9543703459065542e-02
      6.9617521137967167e-02 -1.3134799854373039e-01
      -5.3063854503949855e-02 -2.0934025438876303e-01
      -9.1583328759753349e-02 -1.3935550455857093e-01
      2.3314016450110847e-01 -4.9138053692600124e-02
      -1.5560995372209843e-01 -8.8179826399329225e-02
      6.2264593954851163e-02 7.7207340686904324e-02
      -1.6800714271509259e-01 1.3562539788730968e-01
      -1.0181695534355470e-01 1.7857947036918465e-01
      2.2335108008725468e-01 5.7957778983872285e-03
      1.7599018898973182e-02 1.1770323983430621e-01
      -8.8926420300688508e-02 -6.2517996695472422e-02
      -2.2284683517291715e-01 -2.7844550439154586e-01
      7.4337653231813780e-02 -2.8599108893182851e-01
      2.4855752549709998e-02 -2.4605862209370340e-02
      -1.4564281611435165e-01 6.2965814363389702e-02
      -1.6904746772402357e-01 3.7711931991723902e-02
      -3.3272522230955899e-02 -8.4580781117227596e-02
      4.4268821899634758e-01 -6.2020375734362330e-03
      -1.0799037867275531e-01 2.7014941188446873e-02
      7.0845680083172977e-02 -1.0958790834897658e-01
      -3.5824965078091284e-02 -1.8914943968020079e-01
      8.5084266790182994e-02 6.3946182341252072e-02
      -2.4245861636179374e-02 1.8610168695931806e-01
      -1.2319931925894292e-01 -9.1051744174470654e-03
      1.3762179250850246e-01 9.6179525624022474e-02
      8.9250464804679089e-02 -7.9007621923457880e-02
      -8.1662403664392022e-02 1.6684503388857388e-01
      8.7192500497256714e-02 1.4139191599965209e-01
      -1.2040313282197884e-01 3.3246709007791655e-02
      9.1217126524716433e-02 -1.6560476422869905e-01
      -2.5119962439362353e-01 1.4286840974491625e-02
      -1.5187922372061874e-02 3.7656386659693002e-02
      -5.0649899546257836e-02 -2.5782071625233655e-01
      1.4647057337669461e-01 1.0437217899348479e-01
      5.1168533800456564e-04 3.9576435383181105e-02
      -1.1342814290009894e-01 -1.6944462648887534e-01
      6.5317985153068941e-02 -1.9024135890531715e-01
      -1.2562409939593613e-01 -1.1706052984361973e-01
      -3.3430717905491000e-02 9.2260525654350986e-02
      1.3692375642599483e-01 3.6434269551605468e-02
      7.1370843020899702e-02 9.0033392338602011e-02
      1.1374280632196908e-01 7.0722934073453092e-02
      -9.1688692677641556e-02 -7.3239441304102468e-02
      -4.0106464511161816e-02 3.3689997641035939e-02
      -9.7052968347950574e-02 4.1750487953915061e-02
      1.2330871144460975e-01 -4.6258600562914996e-02
      3.8374246079687611e-02 1.6942865998418180e-01
      -8.9294669796282103e-02 -1.5047925057899141e-02
      9.9647001655937720e-02 -4.0134202401716196e-02
      3.6474165222088789e-01 -2.9125923197159348e-01
      -4.7012413852864227e-02 -3.2621052881107927e-02
      1.3306856678316289e-01 -5.8937176447814536e-02
      1.8323793217848324e-02 -5.1046493265882668e-02
      1.0509858898872189e-01 1.0630059487991531e-01
      -1.0677810543989515e-01 -3.8223371639401538e-02
      1.7850718386982437e-01 1.2013331275544414e-01
      -6.5421794873771699e-02 -6.1217837180179938e-02
      -3.0985573422060548e-03 -2.6996449283330171e-02
      2.8834052700254031e-02 -4.8513966243661721e-02
      -1.4598152992287061e-01 -2.5077710167079402e-02
      1.2498867648979833e-01 9.0537647440616265e-02
      8.6282304759810316e-02 7.2598480194446799e-02
      9.1553017964616512e-02 3.0869156856389038e-02
      1.5936775796187134e-02 1.4565206633175964e-01
      -1.2550347956311966e-01 -4.2144604394253514e-02
      -9.5207492459505865e-03 -5.3673652620613604e-02
      -7.9232875523030988e-02 -9.8854607165619071e-02
      7.5759805520735593e-02 -6.4408127205508203e-02
      7.1534619493736707e-03 5.2606642872496702e-02
      6.1804304924944743e-02 4.6793385493642189e-02
      9.3348589278900246e-02 -3.1574157128513351e-02
      -2.4412769500118375e-02 2.6782241368204545e-02
      9.6535395201629969e-03 -7.8759970072298235e-02
      -4.2117327488762936e-02 5.2259676859871901e-02
      8.7673885688898889e-02 8.2259997567704607e-02
      -3.0333588162780159e-02 4.2344802769470807e-02
      8.1298551016858928e-02 -5.6801536379799782e-02
      -2.3403273296202899e-03 -1.2835517022991230e-01
      2.8829343239418265e-01 3.6938763693240545e-01
      1.1789790731857876e-01 -3.2817814862106644e-02
      -2.6593162298425534e-02 1.5535258965658949e-01
      -1.9592806547209116e-01 1.4411477937165834e-01
      -1.1239553309752096e-01 9.8320519087807270e-02
      -9.7842629905258195e-03 -5.1440173955436860e-02
      -4.3364047462103275e-02 5.6959091096168597e-02
      7.6969306450284491e-02 1.0704469482777285e-01
      -4.9118550946251588e-02 -4.8934589660977322e-02
      7.8069631846971965e-02 -8.6702737937076668e-02
      -8.2712129781220278e-02 -1.1568015542858608e-01
      7.2433446609362852e-04 1.2009533055759281e-01
      -7.1054649608589079e-02 1.8675649964705936e-02
      -7.9116556984342265e-02 -3.3110851762684440e-02
      -3.8388034665126428e-03 5.4570329542824932e-02
      1.0796543329506724e-02 -4.9844699897090422e-02
      -8.2564286516272581e-02 -3.2476338081384996e-02
      -1.1374205595183347e-01 4.9281093066601549e-02
      6.8117297572709651e-02 -1.4596238857662317e-02
      9.9283139279891380e-02 4.7940258229849042e-02
      -3.9897698170370408e-02 -1.2445668566415480e-01
      -8.1488522188189107e-03 -5.6738070212414414e-02
      8.6047086067074965e-02 -1.3401237475601793e-01
      4.8270688659699190e-02 6.3038461076246249e-02
      -1.1313960640340705e-01 -7.4177156511597883e-02
      6.0540812524402195e-02 -6.0645065258519378e-02
      2.0457505465019720e-03 9.3916081082353151e-02
      -4.2088787401573811e-02 5.4466390373091179e-02
      9.0231583494581880e-02 -3.7995427781515670e-02
      -6.6100749269974099e-02 5.6599638121285475e-02
      1.0082950566185508e-01 -5.8548927366428843e-03
      -1.0138803374951698e-01 1.8066816199348464e-02
      5.1213109353232377e-03 -7.4939907546077045e-02
      -6.1052734066459440e-02 -1.3215474193384480e-01
      -7.4842692639287625e-02 3.2435739035638858e-02
      -2.2363605868878606e-02 1.0618216215840661e-02
      1.5648740981478552e-02 -1.4538713376549228e-01
      1.4442290849978204e-01 1.6077905062698419e-01
      5.8038324662244567e-01 9.0590139095845417e-04
      2.5297087955571212e-01 -9.7797781785645011e-03
      -1.0839590651897894e-01 1.4465175933209107e-01
      3.4202251151612250e-03 4.9837010029757734e-03
      8.4978480675066442e-02 -3.5384831997081506e-02
      1.6622678664081467e-01 5.8616983524453388e-02
      6.0178240792394137e-02 1.2486217204658244e-01
      -5.5065442570845655e-02 -1.4562917135124348e-01
      -1.9012448301801352e-01 -1.8272641847635543e-01
      8.4508951621696509e-03 -1.3070089858609396e-01
      8.0556965633657218e-02 8.7805969103470771e-02
      5.6661335993046201e-02 -1.3576839435742818e-01
      -6.9045642516727984e-02 -4.9172682585586457e-02
      -2.9247373189370120e-02 1.0123403807368990e-01
      -6.4373475887988502e-02 4.9442685056555141e-01
      8.0951288157395593e-02 2.0206037380583242e-01
      3.7704612554206554e-02 5.8496245579811319e-02
      -1.1644042404591994e-01 -2.2205203657209335e-02
      5.1241623766946298e-02 -6.3906152170926087e-02
      1.7012757549582849e-01 -8.6751879584768529e-02
      3.3298141398656986e-02 -2.2451597688209396e-02
      -7.4749608777194276e-02 6.6800383087161588e-02
      -1.3957429428184143e-01 1.2922105141856796e-01
      -5.4199021810711699e-02 1.9076097176302373e-01
      1.1227837265174181e-01 2.8053871757752962e-02
      -5.3452861038915059e-03 -1.9703965303723830e-01
      -5.4191895551374984e-02 9.3967872547582612e-02
      3.2846625409955740e-02 -8.6292428794847078e-03
      -3.0876602542464267e-02 -4.1787926791638223e-02
      -1.5141092685221660e-01 -4.5201003523176284e-02
      -4.2040078279902190e-03 -8.3751110714485863e-02
      1.3286137673078510e-01 -1.3893369177189718e-01
      2.7887231603401833e-03 -1.3105173167122031e-01
      -5.0943423650253152e-02 -8.1693476200241824e-02
      1.6250172440962316e-01 -1.1294303119610030e-01
      -2.5641350291577408e-02 1.2323050921121213e-01
      -1.1386890732291464e-01 7.8928752531027112e-03
      1.1149628737185528e-01 1.3073704558492671e-01
      -9.9847053753891191e-03 9.0340951176173141e-03
      -7.5277616220443933e-02 -7.9651263189074478e-02
      -3.6521582567881045e-01 7.1383526338156755e-02
      -1.3978365605725851e-01 1.7211508231440806e-01
      1.0009704204574242e-01 1.7567911224328471e-02
      -5.3159623557095255e-02 -8.0326777970603253e-02
      -3.6526157242996911e-02 -1.3138373792997984e-01
      -1.8780320257501520e-01 -2.4095373346945123e-01
      2.6162734927144302e-02 -1.7269943920180209e-01
      -4.8124546524151247e-02 -4.5189755843655262e-02
      9.0659673859882842e-02 1.0577131960857211e-01
      1.7957630098788657e-02 2.0527481315394697e-01
      -2.8772867912875859e-02 -4.8534900454479640e-02
      1.8697978818944994e-01 9.6554724083432089e-02
      -6.3819298637066826e-02 9.2025405833536786e-02
      -1.0412030894068994e-01 1.2112586331735674e-01
      -6.0708742953572356e-02 8.6290674690807395e-02
      5.4326457073441879e-02 -6.2855673809956228e-02
      -1.3493872778171845e-01 5.0547165885029131e-02
      1.0025829269735290e-02 -1.4247568461730384e-01
      4.8377681924389855e-02 -2.4008505459245637e-02
      -1.1496716112225999e-01 6.3890450928154345e-03
      -1.5008967136164739e-01 1.2322946350895826e-01
      -4.5114472086187386e-03 -8.5469466202622094e-02
      5.8195926492837093e-02 5.5500429385965153e-02
      5.8894867436909519e-02 -2.1156606194689170e-01
      -1.6020579098911791e-01 -8.7054322687615843e-02
      1.3314644294042433e-01 -4.0270932559798703e-02
      -5.8204467033883836e-02 -1.8288003788486110e-02
      5.6201839376871517e-02 2.3678274689989436e-02
      -1.8301304872139978e-01 -6.1650999950187670e-02
      7.9436858914043215e-02 -3.7998243144259927e-04
      -1.6362187453172120e-01 -9.2057475996869004e-02
      1.0278595091646864e-01 -1.3660374049449719e-01
      -7.4944190593759841e-02 1.4129559648927578e-01
      3.6269726353712672e-02 -7.4512351352152714e-02
      1.1190001950983985e-01 3.3391983109960818e-02
      1.3521802743890074e-01 -7.9234902964163731e-02
      -4.7943048818940126e-02 -1.0009517476165325e-01
      -4.5674057527334534e-02 1.4422499750282899e-01
      -1.3087144763047258e-02 1.0653492773757244e-01
      1.0000784003971216e-01 6.8712244246794632e-02
      7.5807944936817362e-02 1.4747551375520485e-04
      -5.8415170315118600e-02 -1.6494549100434380e-01
      9.7932184068485455e-03 -1.9488053061565774e-01
      -2.4954901743741284e-01 9.9074277622112336e-02
      1.3865976146148090e-01 -1.9090632893818271e-01
      1.1932635854392802e-01 1.9575999476600825e-01
      5.2842816655931775e-02 -4.0539488160578709e-02
      2.1502146932161625e-02 -9.9732699348477213e-02
      4.2830622289766071e-02 1.2026178690091496e-01
      -9.7578588384464746e-02 -6.7756077641511314e-02
      -7.6610485752725305e-02 1.3716654871004863e-01
      1.2745006877965906e-01 2.4290081290703459e-02
      -2.5615291865535048e-02 5.3311848190675297e-02
      1.1360085305693031e-02 1.2694890697016209e-01
      -1.4483933793625636e-01 7.4812963594548310e-02
      4.1598965330684093e-02 1.7001712370331543e-01
      -2.2595881248217355e-02 8.2336204922853207e-02
      -1.8878505024613140e-01 7.5814854211694760e-02
      1.4963892523562717e-02 1.8071161374435707e-01
      9.9188544589774053e-02 -4.4552050491555750e-02
      1.1046721429189608e-01 -5.6574871406127165e-02
      5.5150254726304609e-02 -7.3040361272472765e-02
      1.9979968282825677e-01 9.1273824877896523e-02
      6.9798292375910287e-02 -6.5716839510155278e-02
      5.2323870438950357e-02 4.8524487226072228e-02
      -5.6070436045991316e-02 -1.6965925433293449e-01
      1.3144509778996961e-02 -1.0157712159150285e-01
      1.1278528596943005e-01 -1.2238285937626106e-01
      -2.1546353128891890e-01 7.9118224544371937e-02
      1.0296520905836304e-01 -2.1338897789506414e-02
      -2.5588237085833056e-02 1.5690927228947906e-02
      -1.5066358911833116e-02 -1.2052633473180659e-01
      -2.6060081550803051e-02 -9.1433165064072744e-02
      -6.4622441262738931e-02 -7.4950193155494380e-02
      -1.0917598623891557e-01 -2.8888168178488546e-02
      -6.3674502690157092e-02 -1.2766154556584349e-03
      -4.4350045722793455e-02 2.3878817854284112e-01
      1.3568034010708208e-01 7.9703469712537348e-02
      -8.9641960449497876e-02 -9.0863089880229252e-03
      -1.1421437875245424e-02 -7.1837109297638604e-02
      -2.8577909966372328e-01 6.8358771954812866e-02
      1.1935655996348520e-01 -1.5553044158436178e-02
      -1.5356762644186894e-02 -1.5306139268509342e-01
      1.8506335884750236e-01 4.4470560669882135e-02
      1.7250713161389392e-01 -3.6303434469878216e-03
      4.0041431646396404e-02 -1.7342469551930054e-01
      2.5269216526633437e-01 1.3450165323658246e-02
      -1.3667646555241530e-01 -5.9627794941426358e-02
      1.0095982850807447e-01 2.4968378009480725e-02
      1.5389631213863249e-02 -7.6057857057537218e-02
      3.3858471132705070e-02 1.2483663042526087e-01
      2.1915670905317323e-02 3.1083403295494905e-01
      -1.8748532450492109e-01 3.3759256575247268e-02
      9.9641908273424881e-02 6.2236238322738863e-02
      1.0684695024939277e-01 -9.9321738605783555e-02
      7.9086534525348945e-02 7.6433865343169413e-02
      6.7957901491120368e-02 2.0959621296517508e-01
      1.2441510403043936e-01 -6.5825626836913467e-02
      -1.6123240386414779e-02 -1.6466198721714351e-01
      1.6925281077026808e-01 1.3340696598449739e-01
      -1.1185553840494147e-01 -2.0551187404500702e-02
      1.7275529102051257e-01 -8.7647551537996957e-02
      -3.8650857634071181e-02 4.9816507645537994e-02
      1.0227481629645238e-01 -2.0058606401786608e-01
      7.3594362421075463e-02 1.2000121823042935e-01
      -1.1478490731238987e-01 9.7502204401185871e-02
      6.7323582940561774e-02 6.2611897169754641e-02
      -1.9311869655746861e-01 -1.0513678872095908e-01
      -1.3501834277692792e-01 6.9506250702537992e-02
      6.3880257646246663e-02 -1.3824508697164647e-01
      -6.3545080777030816e-01 -4.2598284183007269e-02
      8.6282093125604285e-03 5.6174569412592683e-03
      8.5697016930873365e-02 6.9892001083481023e-03
      1.2975033576305359e-01 3.0376829844589125e-02
      9.7612894371130549e-02 6.2242732344591323e-02
      3.4852501772339992e-02 -9.8104182366923572e-05
      1.2643324180106524e-01 -8.3295409470555498e-02
      -4.5719017520292803e-02 6.1166818255672252e-02
      -1.6571552671798287e-01 -5.2076467897588609e-02
      -1.0853761317262892e-01 8.3324760335214076e-02
      8.4668023317599803e-02 -2.4637297031379684e-03
      -9.2689707307489183e-02 2.0386102035815371e-01
      -9.8206639208517216e-03 -4.8561631993960047e-02
      -7.6318380715008613e-02 -5.6544536785592757e-02
      6.4456647170009734e-02 4.8047328098049280e-01
      3.9708197827494698e-02 3.8393073980844135e-02
      6.8378510715043667e-02 -5.3379705553165083e-02
      -1.0194241034181260e-01 9.8656754616113104e-02
      4.3083380967556519e-02 -1.1408610102175319e-01
      7.8743379368526295e-02 1.2177304599856094e-01
      -1.7310003888681189e-01 2.0547058110997416e-02
      6.3980843085112010e-02 1.2703127148289461e-01
      3.6706105274311200e-03 7.2078487788123591e-02
      1.5551942316683803e-01 5.9087815777691129e-02
      1.7887883042998712e-01 6.0701276291539139e-02
      -9.3630671526690357e-02 1.7420507861630779e-02
      8.9637038345031075e-02 -1.3963117623934838e-02
      1.4956403550129144e-01 -2.0402161880885131e-01
      1.7907564007896576e-01 1.7778429206324855e-02
      6.6323589137916611e-02 1.1788321629923194e-01
      4.6310478799240481e-02 4.3588205616300522e-02
      -6.0614471809800896e-02 8.9408922246003684e-03
      -1.1702844634166742e-01 5.8231247428981926e-02
      5.8220874650318985e-02 6.7070743487348677e-02
      -1.3372472806947652e-01 1.1820182298517080e-01
      6.8696750905446316e-02 2.7746996491172732e-01
      1.1445787840693522e-01 -6.7232565472160360e-02
      1.2151121987726825e-01 -2.3636975422314976e-01
      1.4900555615325864e-01 9.8891035374308323e-02
      5.9245528737834910e-02 -4.5845857429298482e-02
      -4.4475529638487053e-03 -9.0247224094414408e-02
      -8.4554493709590950e-02 1.0423161002657990e-02
      6.2031664259195379e-03 -5.4059640393670914e-02
      1.6635219956357783e-01 -3.1658110691566717e-02
      2.4193988838212842e-02 1.3073497614923946e-01
      6.5749405818079115e-02 -3.4677931975072568e-01
      3.7261548090430946e-02 -2.3525219902217820e-01
      2.6283051337730796e-02 5.6831332364056783e-02
      -4.4680407443716173e-02 3.7539869600153583e-02
      7.7417384725176550e-02 6.9838412096998717e-02
      -1.0489734774065597e-01 2.0480851787207258e-01
      -2.0656534073460747e-01 -6.5287405810303747e-02
      -1.7503260840415089e-01 5.2875206944814929e-02
      -4.6671455520578109e-02 3.5092948271162890e-02
      1.3070194236967056e-01 -4.7606126915946900e-02
      2.2738293117852351e-01 -8.1151743309502648e-03
      -1.5869082960956815e-01 -1.4152051836383520e-01
      1.4161825720292294e-02 -1.1219320863956400e-01
      2.4503248519403192e-02 -3.1527167125337673e-02
      6.5894707341601647e-02 2.3190329587634933e-02
      1.7510195303040227e-01 -4.1350920207251680e-02
      -3.5662957005175328e-02 3.0980853067281249e-02
      2.3471196964903636e-02 -2.2525118423110954e-01
      1.5519157351058890e-01 1.7728453730961023e-02
      3.1920744581191519e-02 7.4195952763259562e-02
      -6.1716809503188936e-03 1.0334376925495194e-01
      2.5947810708174777e-02 -1.5870289768675538e-01
      -1.0982923956168289e-01 5.6256629209781056e-02
      -3.9883056612009589e-02 -2.7967590957315863e-01
      -3.1020044955198493e-02 -7.1016366778802867e-02
      3.2631304088042747e-02 3.8956774607559502e-02
      -5.2794167317583504e-02 -5.9398145821929267e-02
      -5.6041641042690174e-02 -1.2169810497175810e-03
      1.0720053968831071e-01 -9.6320314401976258e-03
      6.3791462931573145e-02 -1.2050370664562337e-03
      3.3563545662414179e-01 6.4897439424740036e-02
      1.6972667879005476e-01 4.4524741102236247e-02
      1.1878004576656137e-01 4.5030269703168306e-02
      -2.6833367508503406e-02 -7.4871319221305008e-02
      1.9507228007124880e-01 -2.2953979683900744e-02
      1.1483486875606951e-01 5.0092407118694914e-02
      2.8526978812071519e-02 1.3909824614038019e-01
      1.2762488738723543e-01 -1.4845884113112355e-02
      -3.1889752370290535e-02 5.9729006626209745e-02
      3.4515612541432920e-02 -2.3956028965663387e-02
      -4.3127205188326148e-02 -5.4330803876854461e-02
      9.1791752135231469e-02 -6.9144445275270486e-02
      8.1671976816473455e-03 3.8273394818488508e-02
      1.4477001026717248e-02 -1.1840717482734122e-02
      -4.0121953417616490e-03 1.5022403928303052e-01
      -1.6398654422692427e-01 2.2868800366347971e-02
      1.3047290184500809e-01 -8.5712547662896224e-02
      -5.1518869460962971e-02 7.4870053789500055e-02
      -1.4206099016041343e-01 -1.1127917155699477e-02
      1.0340603111426709e-01 1.8017804590991664e-02
      -6.1610290420313239e-03 -7.7938186388766720e-02
      7.9803465654990399e-02 -2.4735586657841615e-02
      8.6963304205154135e-02 1.1283280079822604e-01
      6.3476116115678466e-02 -6.4319884077201031e-02
      1.0099723731918423e-02 2.6497606345168134e-02
      -7.4851683118378823e-02 4.0975686388497523e-02
      -8.7532509743400641e-02 2.4140371746794295e-01
      -6.9416921861839287e-03 -2.4476563612467740e-02
      -1.4643640893086547e-02 -3.8055744690421937e-02
      -5.5773238634276953e-02 1.5285444257184163e-02
      8.3308196787690390e-03 1.1186006343107045e-01
      -1.2107972376698525e-02 -2.3943179197128024e-02
      -1.4652355887815421e-01 7.5101326769424466e-03
      1.3876553620374954e-01 -1.4849955919801217e-01
      7.1727576861325026e-02 -1.0265736105848002e-01
      1.0705476469051851e-01 -1.0074150944087647e-02
      -1.9107741259516517e-02 -1.3738833833947275e-01
      2.3364866222184355e-01 1.2239134847567000e-01
      1.3530391659369517e-02 7.0200692365895555e-03
      4.3062623356884553e-03 6.7705901134715321e-02
      -1.5226902748656060e-01 2.6569605638556987e-01
      -1.0245508183651864e-01 -1.5341603879701855e-02
      -8.5052527919795826e-02 -1.6092959698623716e-01
      -1.6182197775581480e-02 -5.1758453415176927e-03
      -1.9639221468665327e-02 -7.6409578586071364e-02
      -4.2609571341249292e-02 -1.9890205909250591e-01
      2.9594616072910418e-02 -1.3583118418835194e+00
      -1.0709518426179321e-01 -2.2441113225287506e-02
      -1.3836105613220928e-01 1.2645148197000425e-01
      -2.2143060708422166e-01 9.0377063393750900e-02
      3.1110777221023990e-02 -1.2944831677570243e-01
      1.2050879845784265e-01 9.7897767754080531e-02
      1.0412706061683039e-01 2.7414005059502703e-02
      -8.8243356402462766e-02 -1.6680092818439676e-01
      -6.7881339241337843e-03 -1.3332068227886745e-01
      -1.2035463885089812e-01 1.7346342614980196e-02
      -1.0538270725078738e-01 1.4210702039776002e-01
      8.1128878044520236e-02 -2.4827397829352366e-02
      7.6315581783010483e-02 -5.1262077033401805e-02
      -8.3802379659153117e-02 -1.4389138859305939e-01
      1.6738279499595991e-02 -2.2300875946668550e-02
      9.4436444291484817e-02 -1.9015397439338552e-01
      -1.2502414469678960e-01 -8.7263265483617000e-02
      -2.6641507092563063e-02 7.8257414060343960e-03
      -2.1339544622666412e-01 -8.4868813720491806e-02
      1.1676478574409611e-02 -4.6230374522819324e-03
      -1.0091511451181785e-01 -1.0906434317629800e-01
      6.9557046904599018e-02 2.6452231193993527e-03
      -8.8774653397227940e-02 -6.3053159099023858e-03
      -3.0290048417755921e-01 -3.5171556675289331e-02
      -1.6314344309630555e-02 -1.3522807363112355e-01
      3.0803313972298806e-02 7.6282341125584879e-02</_>
    <_>
      8.8468140315055895e-03 3.5708475979768131e-02
      1.3708842140349400e-01 4.6468957119633900e-03
      -2.6887461681797127e-02 1.6376519410825016e-01
      5.4778927440348631e-02 -7.2201696497684910e-03
      5.0351460159165667e-02 3.5559548156555813e-02
      -2.6017214539624206e-01 4.5078474829116269e-02
      -2.8067396707194565e-02 -2.4029171851906547e-02
      -5.4404549512380003e-02 1.6264658706826804e-01
      1.3115896967185376e-03 7.2727309858134040e-02
      -6.8484275057436261e-02 1.5351464928261196e-01
      2.3161867139442984e-02 -2.6795640594723547e-02
      -6.5362308931346189e-02 6.3502405919387009e-02
      2.4601340072023916e-03 2.4310669908869199e-02
      1.0973421565647902e-02 4.7607832286726898e-01
      1.3803520501701638e-01 -1.9650376352238829e-02
      -4.0581922323292385e-02 -4.4549802426165712e-05
      -5.9402068046088857e-02 -4.9643325963218611e-02
      1.0021387274951117e-01 1.3886715621219986e-01
      6.1564775930691339e-02 -4.8902874754915900e-02
      -7.2435769837877667e-02 6.3858240317407444e-02
      3.7845198508182569e-02 -1.9460914814601660e-01
      -3.0768704567501186e-02 -3.1205591265958038e-01
      6.0723960249940472e-02 -1.1041151049547934e-01
      -4.6013878343648645e-02 -4.2738991043253117e-03
      -6.1283280985817715e-02 -1.0424960155434366e-02
      2.3324831054768180e-02 -1.3627290528355852e-02
      -1.2351192628828037e-01 4.1731242969404142e-02
      6.1214937359747165e-03 1.1337804272643766e-01
      -2.7051191216130525e-02 7.5103351228865953e-02
      7.5333143119502108e-02 1.4746325377379113e-02
      -1.8902372832366929e-02 2.4638076326624590e-02
      -1.9611814036055469e-02 -5.2145377883672843e-02
      6.5641636206303047e-02 -1.2116965073565890e-02
      -1.4183222668584658e-01 7.2713346339321430e-02
      -1.5344971900805516e-02 9.4598032505901097e-02
      6.7111341972433874e-02 -6.7695845239144792e-02
      -5.1781431495846256e-02 1.7194274057089851e-01
      6.3698876649835978e-02 -4.3459220544082714e-04
      -4.6160865182429678e-02 -4.2466825336615818e-02
      -2.7003792155533266e-03 3.2512663465473622e-02
      5.9441737183009748e-02 -1.4894229554892910e-02
      1.7857979102366323e-02 8.2753375356040965e-03
      -4.9728452812176167e-04 -2.8930323327329249e-01
      4.5458936496958660e-02 -4.2796552302350216e-02
      -1.9075615006800425e-02 1.0931665041511626e-02
      3.7331961462304844e-02 2.4271077148149207e-02
      2.0323820876911531e-03 1.5259958067816428e-02
      1.2792960236074868e-01 -4.5618848214281438e-03
      9.1063721859633712e-02 2.8747106168874902e-02
      -4.0297485489561281e-02 -4.5277690360356216e-03
      6.6590601554891542e-03 -6.4357429488381135e-03
      1.0893542799831221e-02 5.8684382732206858e-02
      9.2293807375466476e-03 -7.6607897175216847e-03
      -2.0382475550238307e-03 3.4353878861454260e-02
      -3.6020045318465865e-02 4.1612806610586459e-02
      -5.2740150566129587e-02 7.9928275958246458e-03
      6.1389514063287319e-02 4.0878482788035846e-02
      3.6212785305720439e-02 9.2355168004068754e-03
      -1.3968835835288720e-01 -1.5603979695322666e-02
      -1.3859388370480913e-01 2.1361713321857878e-02
      4.3766374856910921e-02 -4.3659077722892140e-02
      2.5491678847300161e-02 1.4201707523090650e-03
      1.7854990264646001e-02 3.6786278271760051e-02
      1.6529803805651916e-02 -1.6465099319621656e-02
      -3.5324682948193013e-02 1.6883047430303944e-02
      -1.9937272853820239e-02 -3.4439955895061540e-02
      3.1681168053675025e-02 4.6444974311621201e-02
      -2.3987845878529666e-02 -4.8279273666236994e-02
      -1.3803293832473220e-02 -4.7722066747360126e-02
      3.3603742871266828e-02 -2.4769950085729589e-02
      -2.9936225034576853e-03 -6.0177058715027647e-02
      -9.3125817745082815e-02 3.4484133939341383e-02
      5.1210332661392084e-02 4.9933969132100513e-02
      4.5231165158327376e-02 3.2530394557169474e-02
      1.3521364447951087e-01 2.0300500768016490e-02
      -3.9416925089888817e-02 2.2028576872671166e-02
      -1.3213255431823795e-01 3.8153991731338655e-02
      2.9317473648803362e-02 -8.4514535446353012e-02
      -8.8900485821089559e-03 -6.1495025095235191e-03
      5.6581054556788203e-03 -4.6339858952564823e-02
      2.7703642587640947e-02 -7.7125029230749945e-02
      5.7427335261349679e-03 1.0811476802921379e-02
      -1.2112440834715356e-02 -3.2592956712531318e-02
      3.1973689304190152e-02 -2.9866336252071420e-02
      4.3257135072892812e-02 3.2871772387769435e-02
      -5.2117001359392482e-03 -3.2522466329184221e-02
      2.9798560436832128e-03 4.4806243713252812e-03
      1.9628632732179662e-04 4.3344383211007156e-02
      4.6796647977416214e-02 1.0630338560367293e-01
      -7.2998752878105450e-02 -7.8870637780176691e-03
      -2.0993011467940839e-03 -1.1553667238589771e-02
      -1.5263067051683646e-01 6.3164738924272193e-03
      -1.3752465030909796e-02 -1.9136888987569253e-02
      -9.9593437209771415e-03 -2.7593946141706963e-02
      5.5629720510367228e-02 -1.7395029192156901e-02
      2.7580958354830376e-02 8.3675313033641976e-03
      -4.4152668622185016e-03 5.6639217484234387e-02
      5.5322346136931384e-03 -1.0820253340063906e-02
      -5.3468768089011458e-02 5.5051777850424866e-02
      4.8562789197698734e-02 -3.3280693162848374e-02
      7.4437054341089659e-03 -4.9676786429490569e-02
      1.6624059512784974e-02 -5.5539881605909704e-02
      -4.5375200975286654e-03 7.9853732939660828e-03
      1.0792445551496837e-02 2.7578704577546150e-03
      -2.5654264586734015e-02 -5.5932620984544573e-02
      -3.3776549197953067e-02 1.8276829825912271e-02
      -6.2369750291950046e-03 4.6699641340625604e-02
      -7.7301893107867989e-02 4.7043820792944245e-02
      4.0266454888678756e-02 2.7863491228306028e-02
      6.8387164299742717e-02 -4.7452073835086706e-02
      -2.6292003937152596e-02 7.3009673957974794e-02
      2.6467639883952381e-02 -1.3228630100495400e-01
      -4.3483814984411201e-02 -2.1479720064895805e-02
      -8.3480423911077850e-02 1.0293533033797710e-01
      1.4715909826366697e-02 -2.3014949037770776e-02
      -2.2294806239712552e-02 -6.0010411687648556e-02
      5.3529972954372866e-03 7.3165560432192564e-02
      -2.0484386328599349e-02 -1.5601752636118937e-01
      9.0071310060167706e-02 -4.9656239134376688e-02
      -2.2122174533967517e-02 5.3638505907242326e-02
      3.1302717084318532e-02 4.9091127281533174e-03
      -9.8838105882513294e-03 -3.4251758255485806e-02
      5.1588330529363159e-02 4.3003939662821782e-02
      2.1513732748441458e-01 4.1615642148123473e-02
      -3.7121256429069834e-02 -4.2799599010187477e-02
      4.7575456586798783e-04 -2.3622484947349323e-02
      1.1524891531512550e-01 1.4809049711739558e-01
      -4.9457633107852769e-02 -2.6072431880330288e-03
      -3.1742405236586717e-02 -1.0728421836384999e-01
      -4.0809732074862964e-02 6.9118424978413376e-02
      -7.2303639122970331e-02 4.9079634138759945e-02
      -5.1477572674766360e-02 -1.8521635265234863e-02
      1.7463577049710938e-02 1.8236929634706186e-02
      -2.5504531711001510e-01 -1.0139305819102447e-02
      -1.4280786313870922e-01 1.2558078389992743e-02
      1.1480631129360225e-01 3.6795869074023720e-02
      -2.7943356168442811e-02 -4.7774168207918931e-02
      -7.7562683365149281e-03 6.3934868321754684e-02
      9.3290996796174905e-02 4.0288185385736967e-02
      -3.1483104576948348e-02 3.1034168363487127e-02
      -6.7330311675753277e-02 2.1902440811646964e-02
      -1.2585143778019274e-02 1.3958594365443976e-03
      -1.9281187448287492e-02 1.3817759361649471e-02
      -2.3134446106027870e-02 1.2955501562174990e-02
      5.0982524570242750e-02 1.6990039926823537e-02
      -1.0829697181278903e-02 -3.0791682173384016e-02
      4.1238044865668580e-03 2.3304438080403098e-03
      6.5064238781490508e-02 2.9167841447880705e-02
      -1.5881885211904648e-02 5.5356809014021719e-03
      6.7889417666837315e-02 3.3943521289922778e-02
      -1.0399996805636903e-02 1.6664287735050309e-02
      -4.0044906170010070e-03 -3.2692876797442913e-02
      2.3475515673698596e-02 1.9875676994877228e-02
      6.7090044642580615e-02 5.4771639950984682e-03
      -1.6038631809920389e-02 3.6084984948702672e-02
      1.2362826545065156e-01 -4.4595938900919459e-02
      5.9807464677085909e-03 9.4070776345274495e-03
      -1.6416298439071542e-02 1.4240348143896393e-02
      -1.7605191594840881e-02 1.0320834930421451e-02
      3.9205519716223056e-03 -4.7336804156446803e-02
      -1.7170845394675064e-02 -2.6936883000574997e-02
      -2.9733653826067161e-02 7.6964009794372743e-03
      1.9446037114627883e-02 1.8539269829070382e-02
      3.1882961992626954e-02 -1.3259583659584809e-01
      -3.2062939082023095e-02 4.8996474474778326e-03
      4.1128963874050364e-03 1.5453934363426850e-02
      4.3237899077826832e-02 1.8176559426335493e-02
      -3.7130575075403002e-02 5.6806830385281143e-02
      2.8434106132934306e-03 -6.5331970461902280e-03
      -2.2383691920693093e-03 -2.3211018300347278e-02
      -6.5219443093213524e-03 -3.3335440174627013e-03
      -1.1688923874893250e-02 2.9655876592789173e-02
      -2.5073823269627423e-02 -5.5436221023735889e-02
      1.3060678027442610e-02 -1.4584071941830951e-03
      1.3360922043949034e-02 -1.4455249480672070e-02
      4.2418027294087220e-03 -6.1693333667883895e-03
      -1.7852783156354354e-02 5.9611954923279977e-03
      -4.5685705017823501e-03 5.2970555835021402e-02
      -1.4296119044340220e-02 2.6624550754728835e-02
      3.9439914402040529e-03 2.3828690794784357e-03
      -4.0857683515931956e-02 2.4859778426157435e-02
      -8.3172029257386829e-03 -8.2742367644299229e-03
      3.7176716007337657e-02 -8.4602111673444894e-03
      2.4473572423766791e-02 1.9674640056393911e-02
      5.0102750209702809e-03 -5.7156196056608412e-02
      -2.4607315322961135e-02 4.2883924868189900e-04
      7.3520540301663618e-03 3.4520479725318944e-02
      -1.7815922650899443e-02 7.8858348759075436e-02
      3.9504534705860191e-02 -3.0544491455311340e-01
      -4.5722794377970027e-02 1.7541710142112855e-02
      -1.1939031336914924e-01 1.7019751237795835e-02
      6.1411104980055992e-04 -1.2282915105761380e-01
      1.1221994580650957e-02 2.8632254167536497e-01
      -5.4848039065438906e-02 7.9419700946069746e-02
      3.6227577598677001e-02 1.6094952036180020e-02
      -1.0269431609824012e-01 -3.1064495313123424e-02
      1.7322398166951795e-02 1.3866689666445236e-02
      -5.3199100067157314e-02 -7.8138236538624978e-02
      -9.8864327734393895e-02 -1.8124984939285986e-02
      3.8134738277439025e-02 2.6307845155789961e-02
      -4.5044034632462246e-02 -1.7048958761839324e-02
      -2.9518558688169394e-01 -1.6505433854990795e-01
      7.9968271687193088e-02 4.7410111981513639e-02
      2.8106379225765820e-02 2.1684094844868851e-01
      1.0555999349717465e-01 -1.3008262563280126e-01
      -1.1726482388528466e-02 -3.6388004716769701e-02
      2.2079935632616898e-02 -2.1104496775142673e-02
      -6.3494605021915590e-02 -4.7594255954282932e-02
      1.8990906871674618e-01 -7.1248299038024609e-03
      3.7366429565721188e-01 -4.9845167858169077e-03
      2.9031254235370486e-03 4.6684373599568382e-02
      2.9402275598012558e-03 9.3078651905763754e-04
      2.4615399139596916e-04 -8.3519079631610829e-02
      -3.3273528111447452e-02 3.8417102676868077e-02
      6.8086915090605438e-02 -3.9327948404472325e-03
      -5.7485251569354811e-03 2.9460904855550571e-02
      -3.3569956097921183e-02 5.8251965419224448e-03
      3.4213610084139881e-02 6.9169010156590618e-02
      -4.7425892647141171e-02 1.7978349710628595e-02
      -6.0201035381603346e-02 3.4810336449175555e-02
      -3.8874801851280186e-02 4.3491069944865249e-02
      -6.4662762240574698e-02 -4.5354375050322637e-02
      -1.0221586109378823e-01 -3.1264174107053316e-02
      -2.0538479680701185e-02 3.1691418382944633e-02
      -3.4028576670138000e-01 -4.2421093425709787e-02
      1.9988249443010270e-01 6.0587127326450281e-02
      -6.8098091706683306e-01 -1.3395589003966546e-01
      -1.3395787638250226e-01 -3.5609220741539394e-01
      -1.3252192760848915e-02 2.6151073682752574e-02
      -2.0561031823927051e-01 1.5079061025865714e-01
      3.6059546915024177e-01 -1.0093543831286338e-02
      1.5409601250846391e-01 1.0256433520265099e-01
      1.5941879183850924e-01 -1.2739200428795283e-01
      -1.2488478565569562e-01 1.2466164537907289e-01
      -8.2307846657449071e-02 6.1706441340862332e-02
      -8.2939003967707828e-02 -4.4890327821600056e-03
      9.6276412347011370e-02 8.2003575546086366e-02
      -2.5377941442051355e-02 -1.1175658500305209e-01
      -2.5959620038207998e-01 -4.4144701714591306e-01
      -2.0272430729393831e-01 2.9319689930359427e-01
      1.4508249885682484e-01 1.3698025335321176e-01
      5.3109466937387961e-01 2.1179369965975092e-01
      -2.8489695571102502e-01 -1.1355881861870491e-01
      -1.4488413382716592e-01 -5.9934181519935181e-02
      -2.1850705480455501e-01 -7.5949115910888765e-02
      -1.1207511063422487e-01 3.3873157049140556e-01
      2.1969423906485222e-02 4.6398313249391243e-01
      -1.1379679004440278e-01 1.1435765830641002e-01
      1.9071395738897970e-01 -1.3646753076430040e-01
      -9.5778289077231807e-02 1.1413713602305889e-01
      -1.7068040935035048e-01 -7.4763988483917687e-02
      -9.2756844525420639e-03 1.1057611028810704e-01
      -1.3234523540466345e-02 -7.6894884251875711e-02
      4.4831662245581223e-02 -1.7014265837506792e-01
      1.9432903977715790e-01 1.7715499636700588e-01
      2.7606984373551879e-01 -1.9680638964956254e-01
      9.6526335521404869e-02 -5.2748889777229323e-02
      1.2396257569816531e-01 -1.9300895047311747e-01
